<?xml version="1.0"?>
<opencv_storage>
<cascade>
  <stageType>BOOST</stageType>
  <featureType>HAAR</featureType>
  <height>50</height>
  <width>50</width>
  <stageParams>
    <boostType>GAB</boostType>
    <minHitRate>9.9500000476837158e-01</minHitRate>
    <maxFalseAlarm>5.0000000000000000e-01</maxFalseAlarm>
    <weightTrimRate>9.4999999999999996e-01</weightTrimRate>
    <maxDepth>1</maxDepth>
    <maxWeakCount>100</maxWeakCount></stageParams>
  <featureParams>
    <maxCatCount>0</maxCatCount>
    <featSize>1</featSize>
    <mode>BASIC</mode></featureParams>
  <stageNum>15</stageNum>
  <stages>
    <!-- stage 0 -->
    <_>
      <maxWeakCount>12</maxWeakCount>
      <stageThreshold>-1.6086624860763550e+00</stageThreshold>
      <weakClassifiers>
        <_>
          <internalNodes>
            0 -1 70 9.8372891545295715e-02</internalNodes>
          <leafValues>
            -6.4924925565719604e-01 5.6581199169158936e-01</leafValues></_>
        <_>
          <internalNodes>
            0 -1 105 5.5393362417817116e-03</internalNodes>
          <leafValues>
            1.1059816181659698e-01 -8.4315860271453857e-01</leafValues></_>
        <_>
          <internalNodes>
            0 -1 155 -2.1943321451544762e-02</internalNodes>
          <leafValues>
            3.1720900535583496e-01 -3.6145725846290588e-01</leafValues></_>
        <_>
          <internalNodes>
            0 -1 15 9.0885329991579056e-03</internalNodes>
          <leafValues>
            -1.4812554419040680e-01 5.6492948532104492e-01</leafValues></_>
        <_>
          <internalNodes>
            0 -1 294 3.1058239983394742e-04</internalNodes>
          <leafValues>
            1.2136469036340714e-01 -7.1838998794555664e-01</leafValues></_>
        <_>
          <internalNodes>
            0 -1 268 3.6695366725325584e-04</internalNodes>
          <leafValues>
            -3.3275416493415833e-01 2.6788622140884399e-01</leafValues></_>
        <_>
          <internalNodes>
            0 -1 165 -2.1450335043482482e-04</internalNodes>
          <leafValues>
            -6.5865784883499146e-01 1.0148036479949951e-01</leafValues></_>
        <_>
          <internalNodes>
            0 -1 165 2.0624636090360582e-04</internalNodes>
          <leafValues>
            1.6450588405132294e-01 -6.1745095252990723e-01</leafValues></_>
        <_>
          <internalNodes>
            0 -1 237 2.4933458189480007e-04</internalNodes>
          <leafValues>
            -2.0481513440608978e-01 3.7649923563003540e-01</leafValues></_>
        <_>
          <internalNodes>
            0 -1 147 1.6300661489367485e-02</internalNodes>
          <leafValues>
            1.1403105407953262e-01 -6.6337573528289795e-01</leafValues></_>
        <_>
          <internalNodes>
            0 -1 124 -8.5004922002553940e-03</internalNodes>
          <leafValues>
            -6.5708911418914795e-01 1.1144810169935226e-01</leafValues></_>
        <_>
          <internalNodes>
            0 -1 197 -3.8011595606803894e-02</internalNodes>
          <leafValues>
            -4.2330467700958252e-01 1.4626747369766235e-01</leafValues></_></weakClassifiers></_>
    <!-- stage 1 -->
    <_>
      <maxWeakCount>17</maxWeakCount>
      <stageThreshold>-1.5605870485305786e+00</stageThreshold>
      <weakClassifiers>
        <_>
          <internalNodes>
            0 -1 168 2.6965279132127762e-02</internalNodes>
          <leafValues>
            -6.1899107694625854e-01 5.1858407258987427e-01</leafValues></_>
        <_>
          <internalNodes>
            0 -1 82 -2.9230158776044846e-02</internalNodes>
          <leafValues>
            3.2631501555442810e-01 -4.2373830080032349e-01</leafValues></_>
        <_>
          <internalNodes>
            0 -1 182 -7.5278989970684052e-03</internalNodes>
          <leafValues>
            -7.7730751037597656e-01 1.1097087711095810e-01</leafValues></_>
        <_>
          <internalNodes>
            0 -1 103 5.8336313813924789e-03</internalNodes>
          <leafValues>
            1.5565817058086395e-01 -6.0126471519470215e-01</leafValues></_>
        <_>
          <internalNodes>
            0 -1 292 2.9998185345903039e-04</internalNodes>
          <leafValues>
            6.7826524376869202e-02 -8.2723587751388550e-01</leafValues></_>
        <_>
          <internalNodes>
            0 -1 21 6.9511425681412220e-04</internalNodes>
          <leafValues>
            -2.5887644290924072e-01 2.9312813282012939e-01</leafValues></_>
        <_>
          <internalNodes>
            0 -1 327 -1.4019185618963093e-04</internalNodes>
          <leafValues>
            2.2791524231433868e-01 -3.3866545557975769e-01</leafValues></_>
        <_>
          <internalNodes>
            0 -1 130 -2.1472475491464138e-03</internalNodes>
          <leafValues>
            -6.4214158058166504e-01 7.3528900742530823e-02</leafValues></_>
        <_>
          <internalNodes>
            0 -1 111 -6.7943903559353203e-05</internalNodes>
          <leafValues>
            2.3597997426986694e-01 -3.1163719296455383e-01</leafValues></_>
        <_>
          <internalNodes>
            0 -1 206 -2.0156722515821457e-02</internalNodes>
          <leafValues>
            4.8066797852516174e-01 -1.5025685727596283e-01</leafValues></_>
        <_>
          <internalNodes>
            0 -1 80 1.2995859608054161e-02</internalNodes>
          <leafValues>
            -1.7251573503017426e-01 4.0740942955017090e-01</leafValues></_>
        <_>
          <internalNodes>
            0 -1 261 3.5566935548558831e-04</internalNodes>
          <leafValues>
            1.2905012071132660e-01 -6.2296569347381592e-01</leafValues></_>
        <_>
          <internalNodes>
            0 -1 31 1.8721052911132574e-03</internalNodes>
          <leafValues>
            -2.3710370063781738e-01 3.0893242359161377e-01</leafValues></_>
        <_>
          <internalNodes>
            0 -1 262 -1.7902735271491110e-04</internalNodes>
          <leafValues>
            -7.7532237768173218e-01 8.1018857657909393e-02</leafValues></_>
        <_>
          <internalNodes>
            0 -1 260 7.0807873271405697e-04</internalNodes>
          <leafValues>
            -2.5616660714149475e-01 2.7538499236106873e-01</leafValues></_>
        <_>
          <internalNodes>
            0 -1 94 3.1644820701330900e-03</internalNodes>
          <leafValues>
            1.0458593815565109e-01 -6.6972810029983521e-01</leafValues></_>
        <_>
          <internalNodes>
            0 -1 107 -1.5525408089160919e-03</internalNodes>
          <leafValues>
            -5.8830374479293823e-01 9.5141962170600891e-02</leafValues></_></weakClassifiers></_>
    <!-- stage 2 -->
    <_>
      <maxWeakCount>21</maxWeakCount>
      <stageThreshold>-1.6131947040557861e+00</stageThreshold>
      <weakClassifiers>
        <_>
          <internalNodes>
            0 -1 192 9.4547215849161148e-03</internalNodes>
          <leafValues>
            -5.9197121858596802e-01 4.0963855385780334e-01</leafValues></_>
        <_>
          <internalNodes>
            0 -1 4 1.6432460397481918e-02</internalNodes>
          <leafValues>
            -2.7015933394432068e-01 5.1348203420639038e-01</leafValues></_>
        <_>
          <internalNodes>
            0 -1 157 -5.0211111083626747e-03</internalNodes>
          <leafValues>
            2.8884604573249817e-01 -3.5063877701759338e-01</leafValues></_>
        <_>
          <internalNodes>
            0 -1 391 -1.0993231087923050e-02</internalNodes>
          <leafValues>
            5.4670184850692749e-01 -1.3585861027240753e-01</leafValues></_>
        <_>
          <internalNodes>
            0 -1 129 -1.1823653767351061e-04</internalNodes>
          <leafValues>
            2.1603479981422424e-01 -3.3918425440788269e-01</leafValues></_>
        <_>
          <internalNodes>
            0 -1 108 -1.4008004218339920e-03</internalNodes>
          <leafValues>
            -4.8435592651367188e-01 2.1065768599510193e-01</leafValues></_>
        <_>
          <internalNodes>
            0 -1 185 1.4361002831719816e-04</internalNodes>
          <leafValues>
            -4.1230237483978271e-01 1.4030677080154419e-01</leafValues></_>
        <_>
          <internalNodes>
            0 -1 186 8.3019590238109231e-04</internalNodes>
          <leafValues>
            9.8181486129760742e-02 -7.3809069395065308e-01</leafValues></_>
        <_>
          <internalNodes>
            0 -1 204 -1.2157943099737167e-02</internalNodes>
          <leafValues>
            -6.9856995344161987e-01 7.6818376779556274e-02</leafValues></_>
        <_>
          <internalNodes>
            0 -1 154 -2.3357728496193886e-03</internalNodes>
          <leafValues>
            4.9345141649246216e-01 -1.4099825918674469e-01</leafValues></_>
        <_>
          <internalNodes>
            0 -1 309 1.3636887888424098e-04</internalNodes>
          <leafValues>
            9.5148868858814240e-02 -7.8420370817184448e-01</leafValues></_>
        <_>
          <internalNodes>
            0 -1 286 1.0762627061922103e-04</internalNodes>
          <leafValues>
            -2.6952967047691345e-01 2.2517237067222595e-01</leafValues></_>
        <_>
          <internalNodes>
            0 -1 149 2.9633451253175735e-02</internalNodes>
          <leafValues>
            9.0341418981552124e-02 -7.8652048110961914e-01</leafValues></_>
        <_>
          <internalNodes>
            0 -1 166 5.3524821996688843e-03</internalNodes>
          <leafValues>
            -2.1496979892253876e-01 2.9317313432693481e-01</leafValues></_>
        <_>
          <internalNodes>
            0 -1 253 -1.2693603639490902e-04</internalNodes>
          <leafValues>
            -7.1647292375564575e-01 8.3655059337615967e-02</leafValues></_>
        <_>
          <internalNodes>
            0 -1 266 1.1785201786551625e-04</internalNodes>
          <leafValues>
            -2.1516908705234528e-01 2.8503945469856262e-01</leafValues></_>
        <_>
          <internalNodes>
            0 -1 64 1.2229500338435173e-02</internalNodes>
          <leafValues>
            1.0063366591930389e-01 -5.6283485889434814e-01</leafValues></_>
        <_>
          <internalNodes>
            0 -1 373 7.0148162194527686e-05</internalNodes>
          <leafValues>
            -2.1163411438465118e-01 2.4658967554569244e-01</leafValues></_>
        <_>
          <internalNodes>
            0 -1 353 1.7679787706583738e-03</internalNodes>
          <leafValues>
            -1.6298525035381317e-01 3.4153065085411072e-01</leafValues></_>
        <_>
          <internalNodes>
            0 -1 362 1.8956020358018577e-04</internalNodes>
          <leafValues>
            -2.3546557128429413e-01 2.1821707487106323e-01</leafValues></_>
        <_>
          <internalNodes>
            0 -1 239 6.5183476544916630e-04</internalNodes>
          <leafValues>
            -1.2425331771373749e-01 4.5587158203125000e-01</leafValues></_></weakClassifiers></_>
    <!-- stage 3 -->
    <_>
      <maxWeakCount>16</maxWeakCount>
      <stageThreshold>-1.4319353103637695e+00</stageThreshold>
      <weakClassifiers>
        <_>
          <internalNodes>
            0 -1 193 7.6129944063723087e-03</internalNodes>
          <leafValues>
            -5.6402617692947388e-01 3.4500876069068909e-01</leafValues></_>
        <_>
          <internalNodes>
            0 -1 22 2.4901411961764097e-03</internalNodes>
          <leafValues>
            -3.7215974926948547e-01 3.0949097871780396e-01</leafValues></_>
        <_>
          <internalNodes>
            0 -1 253 1.5497619460802525e-04</internalNodes>
          <leafValues>
            1.1464838683605194e-01 -8.4080600738525391e-01</leafValues></_>
        <_>
          <internalNodes>
            0 -1 78 -2.9435218311846256e-03</internalNodes>
          <leafValues>
            4.3590137362480164e-01 -1.6505849361419678e-01</leafValues></_>
        <_>
          <internalNodes>
            0 -1 301 -1.2242431985214353e-03</internalNodes>
          <leafValues>
            -7.9463881254196167e-01 9.0859778225421906e-02</leafValues></_>
        <_>
          <internalNodes>
            0 -1 308 1.8296255439054221e-04</internalNodes>
          <leafValues>
            4.5613266527652740e-02 -8.1515455245971680e-01</leafValues></_>
        <_>
          <internalNodes>
            0 -1 357 1.3845383189618587e-02</internalNodes>
          <leafValues>
            -1.7467916011810303e-01 3.6953207850456238e-01</leafValues></_>
        <_>
          <internalNodes>
            0 -1 188 -9.1043417342007160e-04</internalNodes>
          <leafValues>
            -7.0739072561264038e-01 8.4292069077491760e-02</leafValues></_>
        <_>
          <internalNodes>
            0 -1 10 4.5810332521796227e-03</internalNodes>
          <leafValues>
            -1.2619398534297943e-01 5.1150804758071899e-01</leafValues></_>
        <_>
          <internalNodes>
            0 -1 106 7.7452539699152112e-05</internalNodes>
          <leafValues>
            1.8101450800895691e-01 -3.7125068902969360e-01</leafValues></_>
        <_>
          <internalNodes>
            0 -1 317 3.5946166462963447e-05</internalNodes>
          <leafValues>
            -2.9196605086326599e-01 2.3359365761280060e-01</leafValues></_>
        <_>
          <internalNodes>
            0 -1 258 3.1037484295666218e-03</internalNodes>
          <leafValues>
            -2.3107983171939850e-01 2.7419492602348328e-01</leafValues></_>
        <_>
          <internalNodes>
            0 -1 198 1.5738065121695399e-03</internalNodes>
          <leafValues>
            7.1758128702640533e-02 -7.0944970846176147e-01</leafValues></_>
        <_>
          <internalNodes>
            0 -1 359 9.7730034030973911e-04</internalNodes>
          <leafValues>
            -1.7874722182750702e-01 3.5903105139732361e-01</leafValues></_>
        <_>
          <internalNodes>
            0 -1 345 1.8641879432834685e-04</internalNodes>
          <leafValues>
            9.9460437893867493e-02 -7.2844398021697998e-01</leafValues></_>
        <_>
          <internalNodes>
            0 -1 354 -9.7407563589513302e-04</internalNodes>
          <leafValues>
            3.4426775574684143e-01 -1.8382307887077332e-01</leafValues></_></weakClassifiers></_>
    <!-- stage 4 -->
    <_>
      <maxWeakCount>22</maxWeakCount>
      <stageThreshold>-1.5117748975753784e+00</stageThreshold>
      <weakClassifiers>
        <_>
          <internalNodes>
            0 -1 38 8.0108612775802612e-02</internalNodes>
          <leafValues>
            -5.4529511928558350e-01 3.3951762318611145e-01</leafValues></_>
        <_>
          <internalNodes>
            0 -1 243 -4.8699383623898029e-03</internalNodes>
          <leafValues>
            3.3459657430648804e-01 -2.7626341581344604e-01</leafValues></_>
        <_>
          <internalNodes>
            0 -1 19 -5.6912172585725784e-03</internalNodes>
          <leafValues>
            1.7888265848159790e-01 -4.1105476021766663e-01</leafValues></_>
        <_>
          <internalNodes>
            0 -1 179 3.7144203670322895e-03</internalNodes>
          <leafValues>
            1.4149016141891479e-01 -4.7059160470962524e-01</leafValues></_>
        <_>
          <internalNodes>
            0 -1 336 1.7132805078290403e-04</internalNodes>
          <leafValues>
            8.6890459060668945e-02 -7.5401699542999268e-01</leafValues></_>
        <_>
          <internalNodes>
            0 -1 337 2.1891166397836059e-04</internalNodes>
          <leafValues>
            9.0192958712577820e-02 -8.0986148118972778e-01</leafValues></_>
        <_>
          <internalNodes>
            0 -1 250 7.7530578710138798e-04</internalNodes>
          <leafValues>
            -2.2655609250068665e-01 2.5681048631668091e-01</leafValues></_>
        <_>
          <internalNodes>
            0 -1 102 2.1916343830525875e-03</internalNodes>
          <leafValues>
            6.7795298993587494e-02 -7.9283308982849121e-01</leafValues></_>
        <_>
          <internalNodes>
            0 -1 200 5.8235932374373078e-04</internalNodes>
          <leafValues>
            5.7250808924436569e-02 -5.6174904108047485e-01</leafValues></_>
        <_>
          <internalNodes>
            0 -1 235 -5.7913502678275108e-04</internalNodes>
          <leafValues>
            -8.4032762050628662e-01 8.8985145092010498e-02</leafValues></_>
        <_>
          <internalNodes>
            0 -1 79 2.4277947377413511e-03</internalNodes>
          <leafValues>
            -1.8676556646823883e-01 3.2260769605636597e-01</leafValues></_>
        <_>
          <internalNodes>
            0 -1 72 3.1619458459317684e-03</internalNodes>
          <leafValues>
            1.5611059963703156e-01 -4.3427371978759766e-01</leafValues></_>
        <_>
          <internalNodes>
            0 -1 189 8.8232755661010742e-04</internalNodes>
          <leafValues>
            5.3175050765275955e-02 -7.9679983854293823e-01</leafValues></_>
        <_>
          <internalNodes>
            0 -1 160 1.5776383224874735e-04</internalNodes>
          <leafValues>
            -1.9486455619335175e-01 2.6978898048400879e-01</leafValues></_>
        <_>
          <internalNodes>
            0 -1 126 -7.2984310099855065e-04</internalNodes>
          <leafValues>
            -6.6789042949676514e-01 7.2989910840988159e-02</leafValues></_>
        <_>
          <internalNodes>
            0 -1 346 1.1170285288244486e-03</internalNodes>
          <leafValues>
            -1.2113267928361893e-01 4.7460621595382690e-01</leafValues></_>
        <_>
          <internalNodes>
            0 -1 207 -3.6307657137513161e-04</internalNodes>
          <leafValues>
            2.4634678661823273e-01 -2.3546117544174194e-01</leafValues></_>
        <_>
          <internalNodes>
            0 -1 363 -2.7144546620547771e-03</internalNodes>
          <leafValues>
            3.9375421404838562e-01 -1.3932833075523376e-01</leafValues></_>
        <_>
          <internalNodes>
            0 -1 370 -3.6264245864003897e-04</internalNodes>
          <leafValues>
            3.3896875381469727e-01 -1.7422996461391449e-01</leafValues></_>
        <_>
          <internalNodes>
            0 -1 131 3.8988041342236102e-04</internalNodes>
          <leafValues>
            9.5205724239349365e-02 -6.1339366436004639e-01</leafValues></_>
        <_>
          <internalNodes>
            0 -1 267 -3.7823896855115891e-03</internalNodes>
          <leafValues>
            -7.9247337579727173e-01 5.8072347193956375e-02</leafValues></_>
        <_>
          <internalNodes>
            0 -1 195 4.1672572493553162e-02</internalNodes>
          <leafValues>
            5.1223631948232651e-02 -8.6340737342834473e-01</leafValues></_></weakClassifiers></_>
    <!-- stage 5 -->
    <_>
      <maxWeakCount>25</maxWeakCount>
      <stageThreshold>-1.5740270614624023e+00</stageThreshold>
      <weakClassifiers>
        <_>
          <internalNodes>
            0 -1 223 1.1707406491041183e-02</internalNodes>
          <leafValues>
            -6.0799998044967651e-01 9.8285712301731110e-02</leafValues></_>
        <_>
          <internalNodes>
            0 -1 348 3.5756564466282725e-04</internalNodes>
          <leafValues>
            -4.5534369349479675e-01 1.8675912916660309e-01</leafValues></_>
        <_>
          <internalNodes>
            0 -1 47 8.9418777497485280e-04</internalNodes>
          <leafValues>
            -2.9440477490425110e-01 2.8225567936897278e-01</leafValues></_>
        <_>
          <internalNodes>
            0 -1 385 1.6809900989755988e-04</internalNodes>
          <leafValues>
            -3.1927540898323059e-01 2.3194737732410431e-01</leafValues></_>
        <_>
          <internalNodes>
            0 -1 271 7.8145691077224910e-05</internalNodes>
          <leafValues>
            1.0022701323032379e-01 -6.7222905158996582e-01</leafValues></_>
        <_>
          <internalNodes>
            0 -1 395 -9.8373275250196457e-04</internalNodes>
          <leafValues>
            4.8952105641365051e-01 -1.0993289947509766e-01</leafValues></_>
        <_>
          <internalNodes>
            0 -1 209 -3.3493605442345142e-03</internalNodes>
          <leafValues>
            2.7333492040634155e-01 -2.0539563894271851e-01</leafValues></_>
        <_>
          <internalNodes>
            0 -1 287 3.0718234484083951e-05</internalNodes>
          <leafValues>
            -2.5691476464271545e-01 2.2704814374446869e-01</leafValues></_>
        <_>
          <internalNodes>
            0 -1 146 -1.9220128655433655e-02</internalNodes>
          <leafValues>
            -8.5151815414428711e-01 8.8398888707160950e-02</leafValues></_>
        <_>
          <internalNodes>
            0 -1 338 2.1401408594101667e-04</internalNodes>
          <leafValues>
            4.5670047402381897e-02 -7.8754955530166626e-01</leafValues></_>
        <_>
          <internalNodes>
            0 -1 0 1.1548098176717758e-02</internalNodes>
          <leafValues>
            -1.0306387394666672e-01 6.4340436458587646e-01</leafValues></_>
        <_>
          <internalNodes>
            0 -1 302 5.2981002954766154e-04</internalNodes>
          <leafValues>
            7.1160517632961273e-02 -8.5057145357131958e-01</leafValues></_>
        <_>
          <internalNodes>
            0 -1 229 1.2813456123694777e-03</internalNodes>
          <leafValues>
            -1.9352720677852631e-01 2.6752182841300964e-01</leafValues></_>
        <_>
          <internalNodes>
            0 -1 305 6.0665552155114710e-05</internalNodes>
          <leafValues>
            -2.7957609295845032e-01 2.5903534889221191e-01</leafValues></_>
        <_>
          <internalNodes>
            0 -1 43 -7.9396732151508331e-02</internalNodes>
          <leafValues>
            3.9326527714729309e-01 -1.3919462263584137e-01</leafValues></_>
        <_>
          <internalNodes>
            0 -1 247 1.6024196520447731e-04</internalNodes>
          <leafValues>
            -1.6720412671566010e-01 3.5279044508934021e-01</leafValues></_>
        <_>
          <internalNodes>
            0 -1 310 1.1298412573523819e-04</internalNodes>
          <leafValues>
            1.0261704027652740e-01 -6.2605047225952148e-01</leafValues></_>
        <_>
          <internalNodes>
            0 -1 44 -7.0850580930709839e-02</internalNodes>
          <leafValues>
            -6.6364258527755737e-01 6.7229971289634705e-02</leafValues></_>
        <_>
          <internalNodes>
            0 -1 217 1.5628771507181227e-04</internalNodes>
          <leafValues>
            -2.7104067802429199e-01 2.1623028814792633e-01</leafValues></_>
        <_>
          <internalNodes>
            0 -1 77 9.1157865244895220e-04</internalNodes>
          <leafValues>
            9.2260859906673431e-02 -6.0104262828826904e-01</leafValues></_>
        <_>
          <internalNodes>
            0 -1 225 -3.0287294648587704e-03</internalNodes>
          <leafValues>
            2.8042900562286377e-01 -2.0806650817394257e-01</leafValues></_>
        <_>
          <internalNodes>
            0 -1 342 3.4816032275557518e-03</internalNodes>
          <leafValues>
            -1.1923220008611679e-01 4.5987159013748169e-01</leafValues></_>
        <_>
          <internalNodes>
            0 -1 335 3.0255067395046353e-04</internalNodes>
          <leafValues>
            6.0357641428709030e-02 -9.6137261390686035e-01</leafValues></_>
        <_>
          <internalNodes>
            0 -1 96 3.2475526677444577e-04</internalNodes>
          <leafValues>
            -2.0180618762969971e-01 2.5004234910011292e-01</leafValues></_>
        <_>
          <internalNodes>
            0 -1 320 4.3902901234105229e-04</internalNodes>
          <leafValues>
            6.8195931613445282e-02 -7.3884832859039307e-01</leafValues></_></weakClassifiers></_>
    <!-- stage 6 -->
    <_>
      <maxWeakCount>31</maxWeakCount>
      <stageThreshold>-1.6089235544204712e+00</stageThreshold>
      <weakClassifiers>
        <_>
          <internalNodes>
            0 -1 194 -1.1273043230175972e-02</internalNodes>
          <leafValues>
            4.1609510779380798e-02 -6.8785125017166138e-01</leafValues></_>
        <_>
          <internalNodes>
            0 -1 5 3.5429876297712326e-02</internalNodes>
          <leafValues>
            -2.5091320276260376e-01 4.6237120032310486e-01</leafValues></_>
        <_>
          <internalNodes>
            0 -1 398 -2.6119742542505264e-03</internalNodes>
          <leafValues>
            5.3920513391494751e-01 -1.5595662593841553e-01</leafValues></_>
        <_>
          <internalNodes>
            0 -1 52 -2.9821260250173509e-04</internalNodes>
          <leafValues>
            2.4147517979145050e-01 -2.4469651281833649e-01</leafValues></_>
        <_>
          <internalNodes>
            0 -1 311 -3.2686139456927776e-03</internalNodes>
          <leafValues>
            3.9900809526443481e-01 -1.4724715054035187e-01</leafValues></_>
        <_>
          <internalNodes>
            0 -1 265 9.1724575031548738e-04</internalNodes>
          <leafValues>
            -1.9752974808216095e-01 2.7493834495544434e-01</leafValues></_>
        <_>
          <internalNodes>
            0 -1 65 5.0268387421965599e-03</internalNodes>
          <leafValues>
            1.2312160432338715e-01 -4.9414402246475220e-01</leafValues></_>
        <_>
          <internalNodes>
            0 -1 1 1.4539390802383423e-02</internalNodes>
          <leafValues>
            -1.6928184032440186e-01 2.9308864474296570e-01</leafValues></_>
        <_>
          <internalNodes>
            0 -1 164 -1.7175584798678756e-04</internalNodes>
          <leafValues>
            2.0529355108737946e-01 -2.8335165977478027e-01</leafValues></_>
        <_>
          <internalNodes>
            0 -1 109 -3.2694584224373102e-03</internalNodes>
          <leafValues>
            -5.1642602682113647e-01 1.4309136569499969e-01</leafValues></_>
        <_>
          <internalNodes>
            0 -1 151 -6.1803802964277565e-05</internalNodes>
          <leafValues>
            2.0900551974773407e-01 -3.1388387084007263e-01</leafValues></_>
        <_>
          <internalNodes>
            0 -1 137 -1.9743861258029938e-01</internalNodes>
          <leafValues>
            -6.0696965456008911e-01 1.0585512965917587e-01</leafValues></_>
        <_>
          <internalNodes>
            0 -1 377 -6.5215085633099079e-03</internalNodes>
          <leafValues>
            3.3141103386878967e-01 -1.6688902676105499e-01</leafValues></_>
        <_>
          <internalNodes>
            0 -1 388 7.6825392898172140e-04</internalNodes>
          <leafValues>
            -1.6196133196353912e-01 3.0034649372100830e-01</leafValues></_>
        <_>
          <internalNodes>
            0 -1 53 -2.7776039205491543e-03</internalNodes>
          <leafValues>
            -2.8422382473945618e-01 1.7420873045921326e-01</leafValues></_>
        <_>
          <internalNodes>
            0 -1 241 1.7420484800823033e-04</internalNodes>
          <leafValues>
            6.1227228492498398e-02 -7.6054376363754272e-01</leafValues></_>
        <_>
          <internalNodes>
            0 -1 248 1.2114478740841150e-03</internalNodes>
          <leafValues>
            -1.7026427388191223e-01 3.0811664462089539e-01</leafValues></_>
        <_>
          <internalNodes>
            0 -1 161 8.3908528089523315e-02</internalNodes>
          <leafValues>
            7.8099250793457031e-02 -8.2667833566665649e-01</leafValues></_>
        <_>
          <internalNodes>
            0 -1 299 2.6752394624054432e-03</internalNodes>
          <leafValues>
            5.9127092361450195e-02 -6.0231447219848633e-01</leafValues></_>
        <_>
          <internalNodes>
            0 -1 218 2.1483246237039566e-02</internalNodes>
          <leafValues>
            4.1770234704017639e-02 -9.1936761140823364e-01</leafValues></_>
        <_>
          <internalNodes>
            0 -1 300 1.6964238602668047e-04</internalNodes>
          <leafValues>
            -1.8584710359573364e-01 2.6022499799728394e-01</leafValues></_>
        <_>
          <internalNodes>
            0 -1 285 7.1084895171225071e-04</internalNodes>
          <leafValues>
            6.3925556838512421e-02 -6.8165051937103271e-01</leafValues></_>
        <_>
          <internalNodes>
            0 -1 371 -1.3211013283580542e-03</internalNodes>
          <leafValues>
            4.0574008226394653e-01 -1.1620007455348969e-01</leafValues></_>
        <_>
          <internalNodes>
            0 -1 397 1.7451259773224592e-03</internalNodes>
          <leafValues>
            -1.0965062677860260e-01 4.2632484436035156e-01</leafValues></_>
        <_>
          <internalNodes>
            0 -1 375 7.0207240059971809e-04</internalNodes>
          <leafValues>
            -1.3553111255168915e-01 3.2427543401718140e-01</leafValues></_>
        <_>
          <internalNodes>
            0 -1 36 -3.3818639349192381e-04</internalNodes>
          <leafValues>
            -4.7817841172218323e-01 9.1107815504074097e-02</leafValues></_>
        <_>
          <internalNodes>
            0 -1 303 1.5676225302740932e-05</internalNodes>
          <leafValues>
            -3.0006173253059387e-01 1.4949725568294525e-01</leafValues></_>
        <_>
          <internalNodes>
            0 -1 163 -6.6424586111679673e-04</internalNodes>
          <leafValues>
            2.6853168010711670e-01 -1.8424130976200104e-01</leafValues></_>
        <_>
          <internalNodes>
            0 -1 144 1.5139784954953939e-04</internalNodes>
          <leafValues>
            -1.6789020597934723e-01 2.8354460000991821e-01</leafValues></_>
        <_>
          <internalNodes>
            0 -1 86 1.6715490492060781e-03</internalNodes>
          <leafValues>
            -1.4184707403182983e-01 3.3991539478302002e-01</leafValues></_>
        <_>
          <internalNodes>
            0 -1 128 3.7513178540393710e-04</internalNodes>
          <leafValues>
            8.5121691226959229e-02 -6.0995602607727051e-01</leafValues></_></weakClassifiers></_>
    <!-- stage 7 -->
    <_>
      <maxWeakCount>29</maxWeakCount>
      <stageThreshold>-1.5738078355789185e+00</stageThreshold>
      <weakClassifiers>
        <_>
          <internalNodes>
            0 -1 226 3.9134905673563480e-03</internalNodes>
          <leafValues>
            -5.8484125137329102e-01 1.3558243215084076e-01</leafValues></_>
        <_>
          <internalNodes>
            0 -1 254 2.4955281987786293e-03</internalNodes>
          <leafValues>
            -3.4536537528038025e-01 2.1397578716278076e-01</leafValues></_>
        <_>
          <internalNodes>
            0 -1 196 -8.2508643390610814e-04</internalNodes>
          <leafValues>
            -4.0574896335601807e-01 1.5799707174301147e-01</leafValues></_>
        <_>
          <internalNodes>
            0 -1 63 -2.6696634013205767e-03</internalNodes>
          <leafValues>
            -3.7544441223144531e-01 2.0573849976062775e-01</leafValues></_>
        <_>
          <internalNodes>
            0 -1 71 4.6858270652592182e-03</internalNodes>
          <leafValues>
            1.3889758288860321e-01 -4.6152999997138977e-01</leafValues></_>
        <_>
          <internalNodes>
            0 -1 293 1.8569498206488788e-04</internalNodes>
          <leafValues>
            7.3684632778167725e-02 -6.0297024250030518e-01</leafValues></_>
        <_>
          <internalNodes>
            0 -1 393 4.6156905591487885e-03</internalNodes>
          <leafValues>
            -1.3206389546394348e-01 4.2545014619827271e-01</leafValues></_>
        <_>
          <internalNodes>
            0 -1 57 -2.9105984140187502e-03</internalNodes>
          <leafValues>
            2.8897115588188171e-01 -1.8856462836265564e-01</leafValues></_>
        <_>
          <internalNodes>
            0 -1 340 7.0022727595642209e-04</internalNodes>
          <leafValues>
            9.1363660991191864e-02 -7.4442595243453979e-01</leafValues></_>
        <_>
          <internalNodes>
            0 -1 20 7.3947578668594360e-02</internalNodes>
          <leafValues>
            5.1852893084287643e-02 -7.6394504308700562e-01</leafValues></_>
        <_>
          <internalNodes>
            0 -1 376 5.2249134751036763e-04</internalNodes>
          <leafValues>
            -1.5346412360668182e-01 3.7011721730232239e-01</leafValues></_>
        <_>
          <internalNodes>
            0 -1 372 2.6183505542576313e-04</internalNodes>
          <leafValues>
            -1.3951408863067627e-01 4.2029732465744019e-01</leafValues></_>
        <_>
          <internalNodes>
            0 -1 69 -2.4584177881479263e-03</internalNodes>
          <leafValues>
            -8.1667399406433105e-01 6.8690128624439240e-02</leafValues></_>
        <_>
          <internalNodes>
            0 -1 327 -2.7310490258969367e-04</internalNodes>
          <leafValues>
            1.6074511408805847e-01 -2.9000329971313477e-01</leafValues></_>
        <_>
          <internalNodes>
            0 -1 33 -1.1784917442128062e-03</internalNodes>
          <leafValues>
            -5.2867388725280762e-01 1.1166192591190338e-01</leafValues></_>
        <_>
          <internalNodes>
            0 -1 32 -9.3427142128348351e-03</internalNodes>
          <leafValues>
            4.2286285758018494e-01 -1.3103692233562469e-01</leafValues></_>
        <_>
          <internalNodes>
            0 -1 272 1.4804651436861604e-04</internalNodes>
          <leafValues>
            -2.1524836122989655e-01 2.5570771098136902e-01</leafValues></_>
        <_>
          <internalNodes>
            0 -1 190 1.1682783253490925e-02</internalNodes>
          <leafValues>
            1.0157894343137741e-01 -6.3902473449707031e-01</leafValues></_>
        <_>
          <internalNodes>
            0 -1 394 -1.3075724709779024e-03</internalNodes>
          <leafValues>
            4.3919184803962708e-01 -1.2413883209228516e-01</leafValues></_>
        <_>
          <internalNodes>
            0 -1 231 1.5466587501578033e-04</internalNodes>
          <leafValues>
            6.6905461251735687e-02 -7.4111717939376831e-01</leafValues></_>
        <_>
          <internalNodes>
            0 -1 208 -1.1482280679047108e-03</internalNodes>
          <leafValues>
            2.5656214356422424e-01 -1.8515086174011230e-01</leafValues></_>
        <_>
          <internalNodes>
            0 -1 297 -2.2317008115351200e-03</internalNodes>
          <leafValues>
            3.8490760326385498e-01 -1.3432939350605011e-01</leafValues></_>
        <_>
          <internalNodes>
            0 -1 121 -6.4498428255319595e-03</internalNodes>
          <leafValues>
            2.7603915333747864e-01 -1.8155004084110260e-01</leafValues></_>
        <_>
          <internalNodes>
            0 -1 284 2.0457616483327001e-04</internalNodes>
          <leafValues>
            5.8974102139472961e-02 -6.2799990177154541e-01</leafValues></_>
        <_>
          <internalNodes>
            0 -1 278 1.3681619020644575e-04</internalNodes>
          <leafValues>
            -2.0092606544494629e-01 2.3262622952461243e-01</leafValues></_>
        <_>
          <internalNodes>
            0 -1 23 7.5189927883911878e-05</internalNodes>
          <leafValues>
            -2.3176024854183197e-01 2.0762103796005249e-01</leafValues></_>
        <_>
          <internalNodes>
            0 -1 216 3.1639272492611781e-05</internalNodes>
          <leafValues>
            -2.0427779853343964e-01 2.4614730477333069e-01</leafValues></_>
        <_>
          <internalNodes>
            0 -1 42 -6.7124098539352417e-02</internalNodes>
          <leafValues>
            -4.9966409802436829e-01 9.8848015069961548e-02</leafValues></_>
        <_>
          <internalNodes>
            0 -1 58 -2.2905574587639421e-04</internalNodes>
          <leafValues>
            -5.4483735561370850e-01 7.7345453202724457e-02</leafValues></_></weakClassifiers></_>
    <!-- stage 8 -->
    <_>
      <maxWeakCount>30</maxWeakCount>
      <stageThreshold>-1.4720301628112793e+00</stageThreshold>
      <weakClassifiers>
        <_>
          <internalNodes>
            0 -1 93 1.2464605271816254e-01</internalNodes>
          <leafValues>
            -5.4223603010177612e-01 1.9218750298023224e-01</leafValues></_>
        <_>
          <internalNodes>
            0 -1 67 9.0829338878393173e-03</internalNodes>
          <leafValues>
            -3.1727528572082520e-01 2.6206728816032410e-01</leafValues></_>
        <_>
          <internalNodes>
            0 -1 249 -1.3438944006338716e-04</internalNodes>
          <leafValues>
            2.6193267107009888e-01 -2.4624353647232056e-01</leafValues></_>
        <_>
          <internalNodes>
            0 -1 97 -2.9471138259395957e-04</internalNodes>
          <leafValues>
            2.6021933555603027e-01 -2.2156731784343719e-01</leafValues></_>
        <_>
          <internalNodes>
            0 -1 181 5.7543427683413029e-03</internalNodes>
          <leafValues>
            9.8476581275463104e-02 -5.5357801914215088e-01</leafValues></_>
        <_>
          <internalNodes>
            0 -1 256 1.2806230224668980e-03</internalNodes>
          <leafValues>
            -1.6749878227710724e-01 3.1404381990432739e-01</leafValues></_>
        <_>
          <internalNodes>
            0 -1 49 1.5722164884209633e-02</internalNodes>
          <leafValues>
            9.6511490643024445e-02 -7.8459262847900391e-01</leafValues></_>
        <_>
          <internalNodes>
            0 -1 135 2.0539436955004930e-03</internalNodes>
          <leafValues>
            -2.1019937098026276e-01 2.6376020908355713e-01</leafValues></_>
        <_>
          <internalNodes>
            0 -1 39 -3.6827258765697479e-02</internalNodes>
          <leafValues>
            -7.8677004575729370e-01 9.8258659243583679e-02</leafValues></_>
        <_>
          <internalNodes>
            0 -1 279 -4.9623167142271996e-03</internalNodes>
          <leafValues>
            4.4617775082588196e-01 -1.1882708221673965e-01</leafValues></_>
        <_>
          <internalNodes>
            0 -1 325 2.1154784190002829e-04</internalNodes>
          <leafValues>
            5.9888627380132675e-02 -7.5988221168518066e-01</leafValues></_>
        <_>
          <internalNodes>
            0 -1 7 3.5878552589565516e-03</internalNodes>
          <leafValues>
            -1.0622799396514893e-01 5.7228195667266846e-01</leafValues></_>
        <_>
          <internalNodes>
            0 -1 76 -1.1961305513978004e-02</internalNodes>
          <leafValues>
            -6.7335975170135498e-01 8.5442818701267242e-02</leafValues></_>
        <_>
          <internalNodes>
            0 -1 90 8.2319666398689151e-04</internalNodes>
          <leafValues>
            -2.1379622817039490e-01 2.4272520840167999e-01</leafValues></_>
        <_>
          <internalNodes>
            0 -1 368 4.2774368193931878e-04</internalNodes>
          <leafValues>
            -1.7874252796173096e-01 2.6493248343467712e-01</leafValues></_>
        <_>
          <internalNodes>
            0 -1 60 5.5428035557270050e-04</internalNodes>
          <leafValues>
            -1.9445511698722839e-01 2.5936624407768250e-01</leafValues></_>
        <_>
          <internalNodes>
            0 -1 330 1.8205215747002512e-04</internalNodes>
          <leafValues>
            7.3913566768169403e-02 -6.5356290340423584e-01</leafValues></_>
        <_>
          <internalNodes>
            0 -1 366 1.1286744847893715e-04</internalNodes>
          <leafValues>
            -1.6433456540107727e-01 2.8826421499252319e-01</leafValues></_>
        <_>
          <internalNodes>
            0 -1 351 1.8252988811582327e-03</internalNodes>
          <leafValues>
            -1.1424209177494049e-01 3.9089462161064148e-01</leafValues></_>
        <_>
          <internalNodes>
            0 -1 104 -2.1542649716138840e-02</internalNodes>
          <leafValues>
            -7.1584129333496094e-01 6.2205135822296143e-02</leafValues></_>
        <_>
          <internalNodes>
            0 -1 27 -1.5404149889945984e-03</internalNodes>
          <leafValues>
            2.3039166629314423e-01 -1.8471649289131165e-01</leafValues></_>
        <_>
          <internalNodes>
            0 -1 288 9.7169468062929809e-05</internalNodes>
          <leafValues>
            -2.0908826589584351e-01 2.0401951670646667e-01</leafValues></_>
        <_>
          <internalNodes>
            0 -1 273 -7.9275116149801761e-05</internalNodes>
          <leafValues>
            -4.8875766992568970e-01 9.3646734952926636e-02</leafValues></_>
        <_>
          <internalNodes>
            0 -1 29 6.6672218963503838e-04</internalNodes>
          <leafValues>
            -2.3500023782253265e-01 1.8881735205650330e-01</leafValues></_>
        <_>
          <internalNodes>
            0 -1 152 2.2373054525814950e-04</internalNodes>
          <leafValues>
            6.6721297800540924e-02 -6.0537624359130859e-01</leafValues></_>
        <_>
          <internalNodes>
            0 -1 379 2.5178008945658803e-04</internalNodes>
          <leafValues>
            -2.5867381691932678e-01 1.7677438259124756e-01</leafValues></_>
        <_>
          <internalNodes>
            0 -1 326 -3.0230628908611834e-04</internalNodes>
          <leafValues>
            -6.9653320312500000e-01 5.8022677898406982e-02</leafValues></_>
        <_>
          <internalNodes>
            0 -1 132 -9.4077622634358704e-05</internalNodes>
          <leafValues>
            1.7707675695419312e-01 -2.3660878837108612e-01</leafValues></_>
        <_>
          <internalNodes>
            0 -1 26 -1.3491034507751465e-02</internalNodes>
          <leafValues>
            -3.3672717213630676e-01 1.4351633191108704e-01</leafValues></_>
        <_>
          <internalNodes>
            0 -1 24 1.4437875943258405e-03</internalNodes>
          <leafValues>
            -1.9487600028514862e-01 2.3450754582881927e-01</leafValues></_></weakClassifiers></_>
    <!-- stage 9 -->
    <_>
      <maxWeakCount>33</maxWeakCount>
      <stageThreshold>-1.4240380525588989e+00</stageThreshold>
      <weakClassifiers>
        <_>
          <internalNodes>
            0 -1 171 -4.3358668684959412e-02</internalNodes>
          <leafValues>
            1.5921568870544434e-01 -5.2806198596954346e-01</leafValues></_>
        <_>
          <internalNodes>
            0 -1 191 9.1586662456393242e-03</internalNodes>
          <leafValues>
            -1.8686775863170624e-01 4.4090446829795837e-01</leafValues></_>
        <_>
          <internalNodes>
            0 -1 159 2.9360447078943253e-03</internalNodes>
          <leafValues>
            1.1075989156961441e-01 -5.3259408473968506e-01</leafValues></_>
        <_>
          <internalNodes>
            0 -1 275 1.4766768435947597e-04</internalNodes>
          <leafValues>
            1.9824871420860291e-01 -3.1801089644432068e-01</leafValues></_>
        <_>
          <internalNodes>
            0 -1 180 -3.4675084054470062e-02</internalNodes>
          <leafValues>
            -7.3817908763885498e-01 8.0781273543834686e-02</leafValues></_>
        <_>
          <internalNodes>
            0 -1 68 -3.0912007205188274e-03</internalNodes>
          <leafValues>
            2.1509301662445068e-01 -2.4152109026908875e-01</leafValues></_>
        <_>
          <internalNodes>
            0 -1 213 2.6657941634766757e-04</internalNodes>
          <leafValues>
            -2.3363228142261505e-01 2.4054549634456635e-01</leafValues></_>
        <_>
          <internalNodes>
            0 -1 153 -1.5152175910770893e-04</internalNodes>
          <leafValues>
            -6.6628140211105347e-01 7.0148080587387085e-02</leafValues></_>
        <_>
          <internalNodes>
            0 -1 390 1.3355755945667624e-03</internalNodes>
          <leafValues>
            -1.8985739350318909e-01 2.8020083904266357e-01</leafValues></_>
        <_>
          <internalNodes>
            0 -1 273 1.6971406876109540e-04</internalNodes>
          <leafValues>
            6.5282762050628662e-02 -7.4463272094726562e-01</leafValues></_>
        <_>
          <internalNodes>
            0 -1 244 6.6955434158444405e-04</internalNodes>
          <leafValues>
            -1.5736502408981323e-01 3.0626687407493591e-01</leafValues></_>
        <_>
          <internalNodes>
            0 -1 148 -4.8293726285919547e-04</internalNodes>
          <leafValues>
            -7.3570102453231812e-01 8.6791798472404480e-02</leafValues></_>
        <_>
          <internalNodes>
            0 -1 367 1.5454689855687320e-04</internalNodes>
          <leafValues>
            -1.5492963790893555e-01 2.9533082246780396e-01</leafValues></_>
        <_>
          <internalNodes>
            0 -1 18 2.1122777834534645e-02</internalNodes>
          <leafValues>
            5.3322181105613708e-02 -6.6980850696563721e-01</leafValues></_>
        <_>
          <internalNodes>
            0 -1 264 4.3096859008073807e-03</internalNodes>
          <leafValues>
            -2.0799325406551361e-01 2.2010481357574463e-01</leafValues></_>
        <_>
          <internalNodes>
            0 -1 133 -2.6385611272417009e-04</internalNodes>
          <leafValues>
            -5.3965997695922852e-01 8.9390844106674194e-02</leafValues></_>
        <_>
          <internalNodes>
            0 -1 316 -2.7443831640994176e-05</internalNodes>
          <leafValues>
            -2.5841814279556274e-01 1.5299084782600403e-01</leafValues></_>
        <_>
          <internalNodes>
            0 -1 14 1.6879086615517735e-04</internalNodes>
          <leafValues>
            1.1944115906953812e-01 -3.3246183395385742e-01</leafValues></_>
        <_>
          <internalNodes>
            0 -1 331 1.2995987199246883e-03</internalNodes>
          <leafValues>
            -1.2843327224254608e-01 3.1892156600952148e-01</leafValues></_>
        <_>
          <internalNodes>
            0 -1 312 -5.8743413537740707e-03</internalNodes>
          <leafValues>
            3.5198292136192322e-01 -1.3939484953880310e-01</leafValues></_>
        <_>
          <internalNodes>
            0 -1 227 -5.1680440083146095e-03</internalNodes>
          <leafValues>
            -5.9942322969436646e-01 8.1810250878334045e-02</leafValues></_>
        <_>
          <internalNodes>
            0 -1 51 -3.9576916606165469e-05</internalNodes>
          <leafValues>
            1.8449458479881287e-01 -2.2256548702716827e-01</leafValues></_>
        <_>
          <internalNodes>
            0 -1 270 9.5648305432405323e-05</internalNodes>
          <leafValues>
            -2.2949063777923584e-01 2.1011197566986084e-01</leafValues></_>
        <_>
          <internalNodes>
            0 -1 290 -1.2204020458739251e-04</internalNodes>
          <leafValues>
            2.2414556145668030e-01 -2.0915326476097107e-01</leafValues></_>
        <_>
          <internalNodes>
            0 -1 242 1.9218625966459513e-03</internalNodes>
          <leafValues>
            5.9206467121839523e-02 -7.4106931686401367e-01</leafValues></_>
        <_>
          <internalNodes>
            0 -1 35 -9.5694802701473236e-02</internalNodes>
          <leafValues>
            -5.0590139627456665e-01 7.6243512332439423e-02</leafValues></_>
        <_>
          <internalNodes>
            0 -1 255 2.3500551469624043e-04</internalNodes>
          <leafValues>
            -1.9368170201778412e-01 2.2896832227706909e-01</leafValues></_>
        <_>
          <internalNodes>
            0 -1 134 -1.9117063493467867e-04</internalNodes>
          <leafValues>
            2.6532956957817078e-01 -1.6690725088119507e-01</leafValues></_>
        <_>
          <internalNodes>
            0 -1 203 -2.6007490232586861e-03</internalNodes>
          <leafValues>
            -7.6797747611999512e-01 5.2989315241575241e-02</leafValues></_>
        <_>
          <internalNodes>
            0 -1 41 -7.4427708750590682e-04</internalNodes>
          <leafValues>
            1.9920782744884491e-01 -2.0544265210628510e-01</leafValues></_>
        <_>
          <internalNodes>
            0 -1 122 1.9536020699888468e-03</internalNodes>
          <leafValues>
            7.1334928274154663e-02 -6.1699384450912476e-01</leafValues></_>
        <_>
          <internalNodes>
            0 -1 344 1.5997824084479362e-04</internalNodes>
          <leafValues>
            5.0788473337888718e-02 -6.5099924802780151e-01</leafValues></_>
        <_>
          <internalNodes>
            0 -1 202 2.6551340124569833e-04</internalNodes>
          <leafValues>
            -1.4487062394618988e-01 2.7310055494308472e-01</leafValues></_></weakClassifiers></_>
    <!-- stage 10 -->
    <_>
      <maxWeakCount>35</maxWeakCount>
      <stageThreshold>-1.4837095737457275e+00</stageThreshold>
      <weakClassifiers>
        <_>
          <internalNodes>
            0 -1 95 -3.7852689623832703e-02</internalNodes>
          <leafValues>
            8.2224912941455841e-02 -5.7484185695648193e-01</leafValues></_>
        <_>
          <internalNodes>
            0 -1 30 -1.2595474720001221e-01</internalNodes>
          <leafValues>
            4.8833778500556946e-01 -1.9170144200325012e-01</leafValues></_>
        <_>
          <internalNodes>
            0 -1 236 7.7099906047806144e-04</internalNodes>
          <leafValues>
            -2.1025957167148590e-01 2.8820011019706726e-01</leafValues></_>
        <_>
          <internalNodes>
            0 -1 11 5.6927250698208809e-03</internalNodes>
          <leafValues>
            -1.4684963226318359e-01 3.3190438151359558e-01</leafValues></_>
        <_>
          <internalNodes>
            0 -1 328 -3.1485222280025482e-04</internalNodes>
          <leafValues>
            1.6811309754848480e-01 -2.8534573316574097e-01</leafValues></_>
        <_>
          <internalNodes>
            0 -1 73 -2.0300950563978404e-04</internalNodes>
          <leafValues>
            -4.4592994451522827e-01 1.5108060836791992e-01</leafValues></_>
        <_>
          <internalNodes>
            0 -1 323 1.9661863916553557e-04</internalNodes>
          <leafValues>
            -2.3619551956653595e-01 1.7716670036315918e-01</leafValues></_>
        <_>
          <internalNodes>
            0 -1 89 -5.5280467495322227e-03</internalNodes>
          <leafValues>
            -5.8969277143478394e-01 7.4352383613586426e-02</leafValues></_>
        <_>
          <internalNodes>
            0 -1 12 -1.5086649218574166e-03</internalNodes>
          <leafValues>
            3.5438862442970276e-01 -1.1881957948207855e-01</leafValues></_>
        <_>
          <internalNodes>
            0 -1 304 2.1674274466931820e-04</internalNodes>
          <leafValues>
            6.3704594969749451e-02 -6.7130321264266968e-01</leafValues></_>
        <_>
          <internalNodes>
            0 -1 386 2.3106686421670020e-04</internalNodes>
          <leafValues>
            -1.3240976631641388e-01 3.5184529423713684e-01</leafValues></_>
        <_>
          <internalNodes>
            0 -1 360 -1.4524582365993410e-04</internalNodes>
          <leafValues>
            2.8041875362396240e-01 -1.5194982290267944e-01</leafValues></_>
        <_>
          <internalNodes>
            0 -1 234 1.1744233779609203e-03</internalNodes>
          <leafValues>
            -1.5222007036209106e-01 2.8087139129638672e-01</leafValues></_>
        <_>
          <internalNodes>
            0 -1 374 9.0515743067953736e-05</internalNodes>
          <leafValues>
            -1.9800633192062378e-01 2.4118347465991974e-01</leafValues></_>
        <_>
          <internalNodes>
            0 -1 45 -3.9635777473449707e-02</internalNodes>
          <leafValues>
            -7.7208894491195679e-01 5.7002808898687363e-02</leafValues></_>
        <_>
          <internalNodes>
            0 -1 269 7.8383199870586395e-03</internalNodes>
          <leafValues>
            -1.6515594720840454e-01 2.8562712669372559e-01</leafValues></_>
        <_>
          <internalNodes>
            0 -1 358 6.7315530031919479e-04</internalNodes>
          <leafValues>
            -1.3381598889827728e-01 3.2735711336135864e-01</leafValues></_>
        <_>
          <internalNodes>
            0 -1 222 8.0705620348453522e-03</internalNodes>
          <leafValues>
            7.4413955211639404e-02 -5.9236681461334229e-01</leafValues></_>
        <_>
          <internalNodes>
            0 -1 40 -2.6265003252774477e-03</internalNodes>
          <leafValues>
            -5.4762828350067139e-01 6.2606446444988251e-02</leafValues></_>
        <_>
          <internalNodes>
            0 -1 56 -1.3626641884911805e-04</internalNodes>
          <leafValues>
            2.0349170267581940e-01 -2.4291618168354034e-01</leafValues></_>
        <_>
          <internalNodes>
            0 -1 162 -3.1746203603688627e-05</internalNodes>
          <leafValues>
            1.9390830397605896e-01 -2.4150446057319641e-01</leafValues></_>
        <_>
          <internalNodes>
            0 -1 252 4.5762833906337619e-04</internalNodes>
          <leafValues>
            -1.6625711321830750e-01 2.6807203888893127e-01</leafValues></_>
        <_>
          <internalNodes>
            0 -1 306 7.0868188049644232e-04</internalNodes>
          <leafValues>
            6.4925424754619598e-02 -7.0868396759033203e-01</leafValues></_>
        <_>
          <internalNodes>
            0 -1 17 -4.1444627568125725e-03</internalNodes>
          <leafValues>
            1.9666577875614166e-01 -2.1339151263237000e-01</leafValues></_>
        <_>
          <internalNodes>
            0 -1 352 4.1802221676334739e-04</internalNodes>
          <leafValues>
            7.4748232960700989e-02 -5.3942996263504028e-01</leafValues></_>
        <_>
          <internalNodes>
            0 -1 37 1.5459252754226327e-03</internalNodes>
          <leafValues>
            -1.6456216573715210e-01 2.5121587514877319e-01</leafValues></_>
        <_>
          <internalNodes>
            0 -1 392 4.8738339683040977e-04</internalNodes>
          <leafValues>
            -1.5183660387992859e-01 2.6226019859313965e-01</leafValues></_>
        <_>
          <internalNodes>
            0 -1 184 3.5612303763628006e-03</internalNodes>
          <leafValues>
            1.2136168777942657e-01 -3.5443493723869324e-01</leafValues></_>
        <_>
          <internalNodes>
            0 -1 120 3.1214352929964662e-04</internalNodes>
          <leafValues>
            -1.8925045430660248e-01 2.7478802204132080e-01</leafValues></_>
        <_>
          <internalNodes>
            0 -1 158 -4.6570841223001480e-03</internalNodes>
          <leafValues>
            2.8066569566726685e-01 -1.5218158066272736e-01</leafValues></_>
        <_>
          <internalNodes>
            0 -1 62 -5.1318649202585220e-02</internalNodes>
          <leafValues>
            -6.3402980566024780e-01 6.8206377327442169e-02</leafValues></_>
        <_>
          <internalNodes>
            0 -1 214 2.1303407265804708e-04</internalNodes>
          <leafValues>
            7.6850973069667816e-02 -4.8506134748458862e-01</leafValues></_>
        <_>
          <internalNodes>
            0 -1 251 -2.0279502496123314e-04</internalNodes>
          <leafValues>
            1.9580322504043579e-01 -1.9694465398788452e-01</leafValues></_>
        <_>
          <internalNodes>
            0 -1 205 -2.5165351107716560e-03</internalNodes>
          <leafValues>
            -9.3388503789901733e-01 4.4558022171258926e-02</leafValues></_>
        <_>
          <internalNodes>
            0 -1 381 4.0071252733469009e-03</internalNodes>
          <leafValues>
            -1.0050348937511444e-01 4.3545487523078918e-01</leafValues></_></weakClassifiers></_>
    <!-- stage 11 -->
    <_>
      <maxWeakCount>36</maxWeakCount>
      <stageThreshold>-1.5692895650863647e+00</stageThreshold>
      <weakClassifiers>
        <_>
          <internalNodes>
            0 -1 28 -7.0614486932754517e-02</internalNodes>
          <leafValues>
            1.0127531737089157e-01 -5.1626145839691162e-01</leafValues></_>
        <_>
          <internalNodes>
            0 -1 178 -1.2745225802063942e-02</internalNodes>
          <leafValues>
            1.7562937736511230e-01 -4.4560068845748901e-01</leafValues></_>
        <_>
          <internalNodes>
            0 -1 170 -1.5668311389163136e-03</internalNodes>
          <leafValues>
            -4.7799286246299744e-01 1.1455110460519791e-01</leafValues></_>
        <_>
          <internalNodes>
            0 -1 16 -1.4544740319252014e-01</internalNodes>
          <leafValues>
            -3.6385557055473328e-01 1.6291515529155731e-01</leafValues></_>
        <_>
          <internalNodes>
            0 -1 324 -2.4694792926311493e-02</internalNodes>
          <leafValues>
            -4.7875732183456421e-01 1.3751363754272461e-01</leafValues></_>
        <_>
          <internalNodes>
            0 -1 314 3.9704842492938042e-03</internalNodes>
          <leafValues>
            -1.2029297649860382e-01 5.3415328264236450e-01</leafValues></_>
        <_>
          <internalNodes>
            0 -1 118 -2.5705765932798386e-02</internalNodes>
          <leafValues>
            -7.2763234376907349e-01 4.7745123505592346e-02</leafValues></_>
        <_>
          <internalNodes>
            0 -1 220 -4.1208777474821545e-06</internalNodes>
          <leafValues>
            -4.0713068842887878e-01 1.0116364061832428e-01</leafValues></_>
        <_>
          <internalNodes>
            0 -1 2 5.5745027959346771e-02</internalNodes>
          <leafValues>
            -8.8538803160190582e-02 5.4792624711990356e-01</leafValues></_>
        <_>
          <internalNodes>
            0 -1 55 3.2129373867064714e-03</internalNodes>
          <leafValues>
            1.0089641809463501e-01 -4.3873921036720276e-01</leafValues></_>
        <_>
          <internalNodes>
            0 -1 84 8.7247474584728479e-04</internalNodes>
          <leafValues>
            -1.4871121942996979e-01 3.5127565264701843e-01</leafValues></_>
        <_>
          <internalNodes>
            0 -1 75 5.3621083498001099e-04</internalNodes>
          <leafValues>
            -1.7918257415294647e-01 3.1546616554260254e-01</leafValues></_>
        <_>
          <internalNodes>
            0 -1 117 -3.6962209269404411e-03</internalNodes>
          <leafValues>
            2.5905421376228333e-01 -1.9885239005088806e-01</leafValues></_>
        <_>
          <internalNodes>
            0 -1 175 -6.3114543445408344e-04</internalNodes>
          <leafValues>
            -6.5343225002288818e-01 7.3281280696392059e-02</leafValues></_>
        <_>
          <internalNodes>
            0 -1 360 3.6524800816550851e-04</internalNodes>
          <leafValues>
            -1.1579903960227966e-01 3.9269819855690002e-01</leafValues></_>
        <_>
          <internalNodes>
            0 -1 382 3.2803820795379579e-04</internalNodes>
          <leafValues>
            -1.5502142906188965e-01 2.9119503498077393e-01</leafValues></_>
        <_>
          <internalNodes>
            0 -1 291 1.6939319903030992e-04</internalNodes>
          <leafValues>
            -1.9786918163299561e-01 2.1674671769142151e-01</leafValues></_>
        <_>
          <internalNodes>
            0 -1 230 1.0507864644750953e-03</internalNodes>
          <leafValues>
            -1.7940144240856171e-01 2.7885553240776062e-01</leafValues></_>
        <_>
          <internalNodes>
            0 -1 46 -1.4440985396504402e-03</internalNodes>
          <leafValues>
            -4.6785026788711548e-01 8.1655338406562805e-02</leafValues></_>
        <_>
          <internalNodes>
            0 -1 173 7.7870607376098633e-02</internalNodes>
          <leafValues>
            4.3104104697704315e-02 -8.8659816980361938e-01</leafValues></_>
        <_>
          <internalNodes>
            0 -1 150 -3.4844015317503363e-05</internalNodes>
          <leafValues>
            1.5504150092601776e-01 -2.5689858198165894e-01</leafValues></_>
        <_>
          <internalNodes>
            0 -1 183 2.4483164772391319e-02</internalNodes>
          <leafValues>
            6.0982439666986465e-02 -7.5443613529205322e-01</leafValues></_>
        <_>
          <internalNodes>
            0 -1 177 -9.7781736403703690e-03</internalNodes>
          <leafValues>
            4.1701823472976685e-01 -1.1566304415464401e-01</leafValues></_>
        <_>
          <internalNodes>
            0 -1 355 4.0182177326641977e-04</internalNodes>
          <leafValues>
            6.5076261758804321e-02 -6.7686617374420166e-01</leafValues></_>
        <_>
          <internalNodes>
            0 -1 333 -4.5839513768441975e-04</internalNodes>
          <leafValues>
            2.6575309038162231e-01 -1.5319176018238068e-01</leafValues></_>
        <_>
          <internalNodes>
            0 -1 263 1.9489770056679845e-04</internalNodes>
          <leafValues>
            5.0678264349699020e-02 -7.7929061651229858e-01</leafValues></_>
        <_>
          <internalNodes>
            0 -1 240 8.4143845015205443e-05</internalNodes>
          <leafValues>
            -1.3485962152481079e-01 3.0030602216720581e-01</leafValues></_>
        <_>
          <internalNodes>
            0 -1 349 -1.3776103151030838e-04</internalNodes>
          <leafValues>
            -5.5752348899841309e-01 7.2487026453018188e-02</leafValues></_>
        <_>
          <internalNodes>
            0 -1 274 7.5608128099702299e-05</internalNodes>
          <leafValues>
            5.6942407041788101e-02 -6.0408097505569458e-01</leafValues></_>
        <_>
          <internalNodes>
            0 -1 110 1.7072443733923137e-04</internalNodes>
          <leafValues>
            -1.5936656296253204e-01 2.5393530726432800e-01</leafValues></_>
        <_>
          <internalNodes>
            0 -1 369 2.8436384163796902e-03</internalNodes>
          <leafValues>
            -1.1431530863046646e-01 3.3429977297782898e-01</leafValues></_>
        <_>
          <internalNodes>
            0 -1 387 -2.1490556537173688e-04</internalNodes>
          <leafValues>
            3.3478274941444397e-01 -1.2319895625114441e-01</leafValues></_>
        <_>
          <internalNodes>
            0 -1 98 -6.7350163590162992e-05</internalNodes>
          <leafValues>
            -3.7966284155845642e-01 9.7883038222789764e-02</leafValues></_>
        <_>
          <internalNodes>
            0 -1 289 -8.8974440586753190e-05</internalNodes>
          <leafValues>
            1.7908410727977753e-01 -2.0766927301883698e-01</leafValues></_>
        <_>
          <internalNodes>
            0 -1 219 -6.9147879257798195e-03</internalNodes>
          <leafValues>
            -7.0740610361099243e-01 6.0050457715988159e-02</leafValues></_>
        <_>
          <internalNodes>
            0 -1 100 4.5936467358842492e-04</internalNodes>
          <leafValues>
            -1.7553061246871948e-01 2.2452320158481598e-01</leafValues></_></weakClassifiers></_>
    <!-- stage 12 -->
    <_>
      <maxWeakCount>32</maxWeakCount>
      <stageThreshold>-1.4781187772750854e+00</stageThreshold>
      <weakClassifiers>
        <_>
          <internalNodes>
            0 -1 6 2.6324376463890076e-02</internalNodes>
          <leafValues>
            -5.0716167688369751e-01 2.1779425442218781e-01</leafValues></_>
        <_>
          <internalNodes>
            0 -1 139 -6.9538275711238384e-03</internalNodes>
          <leafValues>
            1.6128687560558319e-01 -4.7432160377502441e-01</leafValues></_>
        <_>
          <internalNodes>
            0 -1 54 2.0404830574989319e-03</internalNodes>
          <leafValues>
            1.0565186291933060e-01 -5.9554463624954224e-01</leafValues></_>
        <_>
          <internalNodes>
            0 -1 81 -4.1491826996207237e-03</internalNodes>
          <leafValues>
            -4.7070446610450745e-01 1.5586043894290924e-01</leafValues></_>
        <_>
          <internalNodes>
            0 -1 116 2.2329296916723251e-03</internalNodes>
          <leafValues>
            1.6388733685016632e-01 -4.1419479250907898e-01</leafValues></_>
        <_>
          <internalNodes>
            0 -1 276 -2.9835656285285950e-02</internalNodes>
          <leafValues>
            -6.9310057163238525e-01 7.4775502085685730e-02</leafValues></_>
        <_>
          <internalNodes>
            0 -1 343 2.1672822185792029e-04</internalNodes>
          <leafValues>
            1.1864457279443741e-01 -3.8799536228179932e-01</leafValues></_>
        <_>
          <internalNodes>
            0 -1 140 -1.1270374059677124e-02</internalNodes>
          <leafValues>
            -2.3823522031307220e-01 1.9843877851963043e-01</leafValues></_>
        <_>
          <internalNodes>
            0 -1 259 3.9626089856028557e-03</internalNodes>
          <leafValues>
            -1.4833496510982513e-01 3.3679363131523132e-01</leafValues></_>
        <_>
          <internalNodes>
            0 -1 233 -4.7766522038727999e-04</internalNodes>
          <leafValues>
            -7.3351073265075684e-01 5.8187566697597504e-02</leafValues></_>
        <_>
          <internalNodes>
            0 -1 378 5.1640667952597141e-03</internalNodes>
          <leafValues>
            -1.8181797862052917e-01 2.8080236911773682e-01</leafValues></_>
        <_>
          <internalNodes>
            0 -1 245 -8.8902341667562723e-04</internalNodes>
          <leafValues>
            3.5733169317245483e-01 -1.3110074400901794e-01</leafValues></_>
        <_>
          <internalNodes>
            0 -1 332 3.7325828452594578e-04</internalNodes>
          <leafValues>
            -1.6354566812515259e-01 2.9997357726097107e-01</leafValues></_>
        <_>
          <internalNodes>
            0 -1 318 -1.7122665303759277e-04</internalNodes>
          <leafValues>
            1.8899595737457275e-01 -2.4320055544376373e-01</leafValues></_>
        <_>
          <internalNodes>
            0 -1 322 4.3776642996817827e-05</internalNodes>
          <leafValues>
            -2.2670432925224304e-01 2.1270088851451874e-01</leafValues></_>
        <_>
          <internalNodes>
            0 -1 238 -2.4002319574356079e-01</internalNodes>
          <leafValues>
            -7.9478782415390015e-01 5.0201322883367538e-02</leafValues></_>
        <_>
          <internalNodes>
            0 -1 74 -5.3711451590061188e-02</internalNodes>
          <leafValues>
            -6.4145374298095703e-01 5.2517760545015335e-02</leafValues></_>
        <_>
          <internalNodes>
            0 -1 307 5.0585670396685600e-04</internalNodes>
          <leafValues>
            3.2991111278533936e-02 -8.9746272563934326e-01</leafValues></_>
        <_>
          <internalNodes>
            0 -1 221 -6.2455976149067283e-04</internalNodes>
          <leafValues>
            2.6994055509567261e-01 -1.6665183007717133e-01</leafValues></_>
        <_>
          <internalNodes>
            0 -1 66 -8.5338018834590912e-03</internalNodes>
          <leafValues>
            2.6313707232475281e-01 -1.8070632219314575e-01</leafValues></_>
        <_>
          <internalNodes>
            0 -1 85 1.6523873433470726e-02</internalNodes>
          <leafValues>
            -1.1217271536588669e-01 5.2660512924194336e-01</leafValues></_>
        <_>
          <internalNodes>
            0 -1 295 -1.6999294166453183e-04</internalNodes>
          <leafValues>
            -6.4213287830352783e-01 9.7606196999549866e-02</leafValues></_>
        <_>
          <internalNodes>
            0 -1 281 1.8886026737163775e-05</internalNodes>
          <leafValues>
            -3.3670681715011597e-01 1.1849453300237656e-01</leafValues></_>
        <_>
          <internalNodes>
            0 -1 136 -1.0997964069247246e-02</internalNodes>
          <leafValues>
            5.1924449205398560e-01 -7.9538866877555847e-02</leafValues></_>
        <_>
          <internalNodes>
            0 -1 92 1.7338786274194717e-03</internalNodes>
          <leafValues>
            -5.9587992727756500e-02 5.8013403415679932e-01</leafValues></_>
        <_>
          <internalNodes>
            0 -1 389 5.7723978534340858e-04</internalNodes>
          <leafValues>
            -2.0363870263099670e-01 1.9338531792163849e-01</leafValues></_>
        <_>
          <internalNodes>
            0 -1 283 -1.8293097673449665e-04</internalNodes>
          <leafValues>
            -5.6620079278945923e-01 6.8509049713611603e-02</leafValues></_>
        <_>
          <internalNodes>
            0 -1 257 -5.4996535181999207e-03</internalNodes>
          <leafValues>
            4.7807037830352783e-01 -9.6438817679882050e-02</leafValues></_>
        <_>
          <internalNodes>
            0 -1 315 1.2084592599421740e-03</internalNodes>
          <leafValues>
            -1.2941496074199677e-01 3.1451717019081116e-01</leafValues></_>
        <_>
          <internalNodes>
            0 -1 347 1.8489867215976119e-04</internalNodes>
          <leafValues>
            -1.5290462970733643e-01 2.7222526073455811e-01</leafValues></_>
        <_>
          <internalNodes>
            0 -1 341 6.8589765578508377e-04</internalNodes>
          <leafValues>
            -1.5876308083534241e-01 3.4138745069503784e-01</leafValues></_>
        <_>
          <internalNodes>
            0 -1 127 -3.4346873871982098e-03</internalNodes>
          <leafValues>
            -5.3748959302902222e-01 8.6198896169662476e-02</leafValues></_></weakClassifiers></_>
    <!-- stage 13 -->
    <_>
      <maxWeakCount>30</maxWeakCount>
      <stageThreshold>-1.4776698350906372e+00</stageThreshold>
      <weakClassifiers>
        <_>
          <internalNodes>
            0 -1 87 2.9042571783065796e-02</internalNodes>
          <leafValues>
            -5.8752167224884033e-01 1.2074303627014160e-01</leafValues></_>
        <_>
          <internalNodes>
            0 -1 169 -3.4860551822930574e-03</internalNodes>
          <leafValues>
            -4.9523773789405823e-01 9.8892338573932648e-02</leafValues></_>
        <_>
          <internalNodes>
            0 -1 119 1.2899900320917368e-03</internalNodes>
          <leafValues>
            1.1719021946191788e-01 -5.4011720418930054e-01</leafValues></_>
        <_>
          <internalNodes>
            0 -1 313 1.1338433250784874e-03</internalNodes>
          <leafValues>
            -1.6931740939617157e-01 3.3884885907173157e-01</leafValues></_>
        <_>
          <internalNodes>
            0 -1 215 2.6205335743725300e-03</internalNodes>
          <leafValues>
            1.9348704814910889e-01 -3.6126324534416199e-01</leafValues></_>
        <_>
          <internalNodes>
            0 -1 298 6.4575625583529472e-04</internalNodes>
          <leafValues>
            -2.6311409473419189e-01 2.3190310597419739e-01</leafValues></_>
        <_>
          <internalNodes>
            0 -1 88 -2.2768888447899371e-04</internalNodes>
          <leafValues>
            2.5545540452003479e-01 -2.0419996976852417e-01</leafValues></_>
        <_>
          <internalNodes>
            0 -1 246 1.8766883295029402e-03</internalNodes>
          <leafValues>
            -1.8782256543636322e-01 2.6490595936775208e-01</leafValues></_>
        <_>
          <internalNodes>
            0 -1 187 1.2613637372851372e-02</internalNodes>
          <leafValues>
            6.1677247285842896e-02 -7.3846447467803955e-01</leafValues></_>
        <_>
          <internalNodes>
            0 -1 321 -5.3428451064974070e-04</internalNodes>
          <leafValues>
            3.1503954529762268e-01 -1.6639170050621033e-01</leafValues></_>
        <_>
          <internalNodes>
            0 -1 350 -2.3409686982631683e-02</internalNodes>
          <leafValues>
            -6.4888101816177368e-01 7.7239811420440674e-02</leafValues></_>
        <_>
          <internalNodes>
            0 -1 212 1.4856181223876774e-04</internalNodes>
          <leafValues>
            -1.7586442828178406e-01 2.9588022828102112e-01</leafValues></_>
        <_>
          <internalNodes>
            0 -1 138 3.0443014111369848e-04</internalNodes>
          <leafValues>
            9.4142846763134003e-02 -4.7416436672210693e-01</leafValues></_>
        <_>
          <internalNodes>
            0 -1 115 -3.6050439812242985e-03</internalNodes>
          <leafValues>
            4.2208808660507202e-01 -1.0944803059101105e-01</leafValues></_>
        <_>
          <internalNodes>
            0 -1 13 1.7246287316083908e-03</internalNodes>
          <leafValues>
            -1.3557623326778412e-01 3.1618919968605042e-01</leafValues></_>
        <_>
          <internalNodes>
            0 -1 123 2.0599324256181717e-02</internalNodes>
          <leafValues>
            6.3243664801120758e-02 -6.5572899580001831e-01</leafValues></_>
        <_>
          <internalNodes>
            0 -1 277 9.8966003861278296e-05</internalNodes>
          <leafValues>
            -2.4465596675872803e-01 1.7431020736694336e-01</leafValues></_>
        <_>
          <internalNodes>
            0 -1 114 1.3453786959871650e-04</internalNodes>
          <leafValues>
            7.6284043490886688e-02 -6.2956267595291138e-01</leafValues></_>
        <_>
          <internalNodes>
            0 -1 101 -2.6075672358274460e-03</internalNodes>
          <leafValues>
            4.0480172634124756e-01 -1.1982862651348114e-01</leafValues></_>
        <_>
          <internalNodes>
            0 -1 211 -2.8236117213964462e-04</internalNodes>
          <leafValues>
            -6.1870747804641724e-01 7.6553255319595337e-02</leafValues></_>
        <_>
          <internalNodes>
            0 -1 210 1.9166963465977460e-04</internalNodes>
          <leafValues>
            6.1775524169206619e-02 -6.3313740491867065e-01</leafValues></_>
        <_>
          <internalNodes>
            0 -1 339 5.2698480430990458e-04</internalNodes>
          <leafValues>
            -1.6461399197578430e-01 2.3238161206245422e-01</leafValues></_>
        <_>
          <internalNodes>
            0 -1 172 2.8709639445878565e-04</internalNodes>
          <leafValues>
            -1.6905243694782257e-01 2.3250611126422882e-01</leafValues></_>
        <_>
          <internalNodes>
            0 -1 112 -2.2477408492704853e-05</internalNodes>
          <leafValues>
            1.6554465889930725e-01 -2.5816664099693298e-01</leafValues></_>
        <_>
          <internalNodes>
            0 -1 91 -1.3532381271943450e-03</internalNodes>
          <leafValues>
            -4.7093528509140015e-01 8.7002813816070557e-02</leafValues></_>
        <_>
          <internalNodes>
            0 -1 25 5.4230273235589266e-04</internalNodes>
          <leafValues>
            -2.3567676544189453e-01 1.6939206421375275e-01</leafValues></_>
        <_>
          <internalNodes>
            0 -1 280 1.9581406377255917e-03</internalNodes>
          <leafValues>
            5.3462639451026917e-02 -6.6771721839904785e-01</leafValues></_>
        <_>
          <internalNodes>
            0 -1 356 2.2203856497071683e-04</internalNodes>
          <leafValues>
            -1.2997262179851532e-01 3.0503317713737488e-01</leafValues></_>
        <_>
          <internalNodes>
            0 -1 167 5.3477063775062561e-03</internalNodes>
          <leafValues>
            4.8731159418821335e-02 -8.1929093599319458e-01</leafValues></_>
        <_>
          <internalNodes>
            0 -1 113 -3.5028319805860519e-02</internalNodes>
          <leafValues>
            4.1183832287788391e-01 -1.1381353437900543e-01</leafValues></_></weakClassifiers></_>
    <!-- stage 14 -->
    <_>
      <maxWeakCount>36</maxWeakCount>
      <stageThreshold>-1.5147259235382080e+00</stageThreshold>
      <weakClassifiers>
        <_>
          <internalNodes>
            0 -1 125 5.2385501563549042e-02</internalNodes>
          <leafValues>
            -5.3112900257110596e-01 2.4759404361248016e-01</leafValues></_>
        <_>
          <internalNodes>
            0 -1 224 -8.2881292328238487e-03</internalNodes>
          <leafValues>
            1.9390925765037537e-01 -4.2471495270729065e-01</leafValues></_>
        <_>
          <internalNodes>
            0 -1 380 9.4538033008575439e-03</internalNodes>
          <leafValues>
            -2.0358240604400635e-01 3.5317414999008179e-01</leafValues></_>
        <_>
          <internalNodes>
            0 -1 228 3.2537647057324648e-03</internalNodes>
          <leafValues>
            -1.4217491447925568e-01 3.8037669658660889e-01</leafValues></_>
        <_>
          <internalNodes>
            0 -1 83 -6.8675217335112393e-05</internalNodes>
          <leafValues>
            -3.6494871973991394e-01 1.3002659380435944e-01</leafValues></_>
        <_>
          <internalNodes>
            0 -1 334 -8.6663247202523053e-05</internalNodes>
          <leafValues>
            -2.2258107364177704e-01 2.6793104410171509e-01</leafValues></_>
        <_>
          <internalNodes>
            0 -1 99 1.8157284706830978e-02</internalNodes>
          <leafValues>
            1.5203599631786346e-01 -5.2389556169509888e-01</leafValues></_>
        <_>
          <internalNodes>
            0 -1 50 -3.4254826605319977e-03</internalNodes>
          <leafValues>
            2.0882332324981689e-01 -2.1066392958164215e-01</leafValues></_>
        <_>
          <internalNodes>
            0 -1 8 -3.1718820333480835e-02</internalNodes>
          <leafValues>
            5.4973685741424561e-01 -1.0416926443576813e-01</leafValues></_>
        <_>
          <internalNodes>
            0 -1 48 -1.6508779663126916e-04</internalNodes>
          <leafValues>
            1.9468298554420471e-01 -2.1272741258144379e-01</leafValues></_>
        <_>
          <internalNodes>
            0 -1 61 1.9650207832455635e-03</internalNodes>
          <leafValues>
            -1.6080033779144287e-01 2.6868546009063721e-01</leafValues></_>
        <_>
          <internalNodes>
            0 -1 384 -1.0658800601959229e-04</internalNodes>
          <leafValues>
            -2.9029807448387146e-01 1.5334124863147736e-01</leafValues></_>
        <_>
          <internalNodes>
            0 -1 319 1.5630019333912060e-05</internalNodes>
          <leafValues>
            -2.5491699576377869e-01 1.5670907497406006e-01</leafValues></_>
        <_>
          <internalNodes>
            0 -1 396 2.2318896662909538e-04</internalNodes>
          <leafValues>
            -1.2730565667152405e-01 3.1941214203834534e-01</leafValues></_>
        <_>
          <internalNodes>
            0 -1 308 -3.3807009458541870e-05</internalNodes>
          <leafValues>
            -3.2481637597084045e-01 1.1580868810415268e-01</leafValues></_>
        <_>
          <internalNodes>
            0 -1 176 6.7928526550531387e-03</internalNodes>
          <leafValues>
            -1.2654854357242584e-01 3.1797125935554504e-01</leafValues></_>
        <_>
          <internalNodes>
            0 -1 59 3.1717583537101746e-02</internalNodes>
          <leafValues>
            5.6797318160533905e-02 -7.8992331027984619e-01</leafValues></_>
        <_>
          <internalNodes>
            0 -1 232 3.4232257166877389e-04</internalNodes>
          <leafValues>
            3.5622075200080872e-02 -7.9317528009414673e-01</leafValues></_>
        <_>
          <internalNodes>
            0 -1 364 -2.7040943969041109e-03</internalNodes>
          <leafValues>
            3.3822256326675415e-01 -1.1735562980175018e-01</leafValues></_>
        <_>
          <internalNodes>
            0 -1 383 -1.7004162073135376e-03</internalNodes>
          <leafValues>
            3.1854829192161560e-01 -1.2114758789539337e-01</leafValues></_>
        <_>
          <internalNodes>
            0 -1 156 5.2874640095978975e-04</internalNodes>
          <leafValues>
            1.5317779779434204e-01 -2.4327929317951202e-01</leafValues></_>
        <_>
          <internalNodes>
            0 -1 296 1.1244940105825663e-03</internalNodes>
          <leafValues>
            -1.3649158179759979e-01 2.6784038543701172e-01</leafValues></_>
        <_>
          <internalNodes>
            0 -1 174 -3.3891038037836552e-04</internalNodes>
          <leafValues>
            -8.3274883031845093e-01 4.0453460067510605e-02</leafValues></_>
        <_>
          <internalNodes>
            0 -1 141 -1.0854400898097083e-04</internalNodes>
          <leafValues>
            -3.6203441023826599e-01 9.2257164418697357e-02</leafValues></_>
        <_>
          <internalNodes>
            0 -1 9 -2.2009254898875952e-03</internalNodes>
          <leafValues>
            5.2427220344543457e-01 -7.5468897819519043e-02</leafValues></_>
        <_>
          <internalNodes>
            0 -1 145 2.4476479738950729e-03</internalNodes>
          <leafValues>
            -1.0100571066141129e-01 3.5697400569915771e-01</leafValues></_>
        <_>
          <internalNodes>
            0 -1 143 -1.8041770672425628e-03</internalNodes>
          <leafValues>
            3.5473212599754333e-01 -1.4039801061153412e-01</leafValues></_>
        <_>
          <internalNodes>
            0 -1 142 4.3917540460824966e-04</internalNodes>
          <leafValues>
            1.2001492083072662e-01 -3.2844126224517822e-01</leafValues></_>
        <_>
          <internalNodes>
            0 -1 282 -2.0393426530063152e-03</internalNodes>
          <leafValues>
            4.2937561869621277e-01 -9.3339785933494568e-02</leafValues></_>
        <_>
          <internalNodes>
            0 -1 201 7.3808652814477682e-05</internalNodes>
          <leafValues>
            -2.0074415206909180e-01 1.8954986333847046e-01</leafValues></_>
        <_>
          <internalNodes>
            0 -1 199 2.2639740258455276e-02</internalNodes>
          <leafValues>
            4.7198068350553513e-02 -8.5970354080200195e-01</leafValues></_>
        <_>
          <internalNodes>
            0 -1 365 4.9114890862256289e-04</internalNodes>
          <leafValues>
            -1.5193881094455719e-01 2.8622975945472717e-01</leafValues></_>
        <_>
          <internalNodes>
            0 -1 361 -1.5727649442851543e-03</internalNodes>
          <leafValues>
            3.1278738379478455e-01 -1.2356808781623840e-01</leafValues></_>
        <_>
          <internalNodes>
            0 -1 329 -1.6350579971913248e-04</internalNodes>
          <leafValues>
            -6.5832257270812988e-01 5.7725194841623306e-02</leafValues></_>
        <_>
          <internalNodes>
            0 -1 3 2.0037986338138580e-02</internalNodes>
          <leafValues>
            -1.8193079531192780e-01 2.1814282238483429e-01</leafValues></_>
        <_>
          <internalNodes>
            0 -1 34 1.9161964301019907e-03</internalNodes>
          <leafValues>
            7.7476739883422852e-02 -6.0430592298507690e-01</leafValues></_></weakClassifiers></_></stages>
  <features>
    <_>
      <rects>
        <_>
          0 0 24 6 -1.</_>
        <_>
          0 0 12 3 2.</_>
        <_>
          12 3 12 3 2.</_></rects>
      <tilted>0</tilted></_>
    <_>
      <rects>
        <_>
          0 6 28 7 -1.</_>
        <_>
          14 6 14 7 2.</_></rects>
      <tilted>0</tilted></_>
    <_>
      <rects>
        <_>
          0 7 48 4 -1.</_>
        <_>
          16 7 16 4 3.</_></rects>
      <tilted>0</tilted></_>
    <_>
      <rects>
        <_>
          0 10 20 20 -1.</_>
        <_>
          10 10 10 20 2.</_></rects>
      <tilted>0</tilted></_>
    <_>
      <rects>
        <_>
          0 15 8 16 -1.</_>
        <_>
          4 15 4 16 2.</_></rects>
      <tilted>0</tilted></_>
    <_>
      <rects>
        <_>
          0 15 10 23 -1.</_>
        <_>
          5 15 5 23 2.</_></rects>
      <tilted>0</tilted></_>
    <_>
      <rects>
        <_>
          0 17 8 23 -1.</_>
        <_>
          4 17 4 23 2.</_></rects>
      <tilted>0</tilted></_>
    <_>
      <rects>
        <_>
          0 19 6 2 -1.</_>
        <_>
          3 19 3 2 2.</_></rects>
      <tilted>0</tilted></_>
    <_>
      <rects>
        <_>
          0 19 21 18 -1.</_>
        <_>
          7 19 7 18 3.</_></rects>
      <tilted>0</tilted></_>
    <_>
      <rects>
        <_>
          0 43 4 7 -1.</_>
        <_>
          2 43 2 7 2.</_></rects>
      <tilted>0</tilted></_>
    <_>
      <rects>
        <_>
          1 15 4 8 -1.</_>
        <_>
          3 15 2 8 2.</_></rects>
      <tilted>0</tilted></_>
    <_>
      <rects>
        <_>
          1 17 4 23 -1.</_>
        <_>
          3 17 2 23 2.</_></rects>
      <tilted>0</tilted></_>
    <_>
      <rects>
        <_>
          1 24 6 3 -1.</_>
        <_>
          3 24 2 3 3.</_></rects>
      <tilted>0</tilted></_>
    <_>
      <rects>
        <_>
          1 31 6 8 -1.</_>
        <_>
          3 31 2 8 3.</_></rects>
      <tilted>0</tilted></_>
    <_>
      <rects>
        <_>
          2 19 33 2 -1.</_>
        <_>
          2 20 33 1 2.</_></rects>
      <tilted>0</tilted></_>
    <_>
      <rects>
        <_>
          2 23 12 6 -1.</_>
        <_>
          6 23 4 6 3.</_></rects>
      <tilted>0</tilted></_>
    <_>
      <rects>
        <_>
          3 2 35 48 -1.</_>
        <_>
          3 18 35 16 3.</_></rects>
      <tilted>0</tilted></_>
    <_>
      <rects>
        <_>
          3 7 20 12 -1.</_>
        <_>
          3 7 10 6 2.</_>
        <_>
          13 13 10 6 2.</_></rects>
      <tilted>0</tilted></_>
    <_>
      <rects>
        <_>
          3 26 23 8 -1.</_>
        <_>
          3 30 23 4 2.</_></rects>
      <tilted>0</tilted></_>
    <_>
      <rects>
        <_>
          4 18 36 10 -1.</_>
        <_>
          16 18 12 10 3.</_></rects>
      <tilted>0</tilted></_>
    <_>
      <rects>
        <_>
          4 19 24 20 -1.</_>
        <_>
          4 29 24 10 2.</_></rects>
      <tilted>0</tilted></_>
    <_>
      <rects>
        <_>
          4 22 6 6 -1.</_>
        <_>
          6 22 2 6 3.</_></rects>
      <tilted>0</tilted></_>
    <_>
      <rects>
        <_>
          4 23 9 6 -1.</_>
        <_>
          7 23 3 6 3.</_></rects>
      <tilted>0</tilted></_>
    <_>
      <rects>
        <_>
          4 26 6 1 -1.</_>
        <_>
          6 26 2 1 3.</_></rects>
      <tilted>0</tilted></_>
    <_>
      <rects>
        <_>
          4 31 14 6 -1.</_>
        <_>
          4 31 7 3 2.</_>
        <_>
          11 34 7 3 2.</_></rects>
      <tilted>0</tilted></_>
    <_>
      <rects>
        <_>
          5 21 6 7 -1.</_>
        <_>
          7 21 2 7 3.</_></rects>
      <tilted>0</tilted></_>
    <_>
      <rects>
        <_>
          5 30 39 3 -1.</_>
        <_>
          18 30 13 3 3.</_></rects>
      <tilted>0</tilted></_>
    <_>
      <rects>
        <_>
          6 15 6 14 -1.</_>
        <_>
          6 15 3 7 2.</_>
        <_>
          9 22 3 7 2.</_></rects>
      <tilted>0</tilted></_>
    <_>
      <rects>
        <_>
          6 18 36 20 -1.</_>
        <_>
          24 18 18 20 2.</_></rects>
      <tilted>0</tilted></_>
    <_>
      <rects>
        <_>
          6 20 6 11 -1.</_>
        <_>
          8 20 2 11 3.</_></rects>
      <tilted>0</tilted></_>
    <_>
      <rects>
        <_>
          6 23 44 20 -1.</_>
        <_>
          28 23 22 20 2.</_></rects>
      <tilted>0</tilted></_>
    <_>
      <rects>
        <_>
          6 26 9 6 -1.</_>
        <_>
          9 26 3 6 3.</_></rects>
      <tilted>0</tilted></_>
    <_>
      <rects>
        <_>
          7 11 24 8 -1.</_>
        <_>
          7 11 12 4 2.</_>
        <_>
          19 15 12 4 2.</_></rects>
      <tilted>0</tilted></_>
    <_>
      <rects>
        <_>
          7 13 25 3 -1.</_>
        <_>
          7 14 25 1 3.</_></rects>
      <tilted>0</tilted></_>
    <_>
      <rects>
        <_>
          7 17 12 1 -1.</_>
        <_>
          13 17 6 1 2.</_></rects>
      <tilted>0</tilted></_>
    <_>
      <rects>
        <_>
          7 18 30 24 -1.</_>
        <_>
          17 18 10 24 3.</_></rects>
      <tilted>0</tilted></_>
    <_>
      <rects>
        <_>
          7 26 4 3 -1.</_>
        <_>
          7 27 4 1 3.</_></rects>
      <tilted>0</tilted></_>
    <_>
      <rects>
        <_>
          7 27 9 5 -1.</_>
        <_>
          10 27 3 5 3.</_></rects>
      <tilted>0</tilted></_>
    <_>
      <rects>
        <_>
          8 0 33 16 -1.</_>
        <_>
          8 8 33 8 2.</_></rects>
      <tilted>0</tilted></_>
    <_>
      <rects>
        <_>
          8 14 30 8 -1.</_>
        <_>
          8 18 30 4 2.</_></rects>
      <tilted>0</tilted></_>
    <_>
      <rects>
        <_>
          8 19 2 10 -1.</_>
        <_>
          8 24 2 5 2.</_></rects>
      <tilted>0</tilted></_>
    <_>
      <rects>
        <_>
          9 6 14 8 -1.</_>
        <_>
          9 6 7 4 2.</_>
        <_>
          16 10 7 4 2.</_></rects>
      <tilted>0</tilted></_>
    <_>
      <rects>
        <_>
          9 6 28 38 -1.</_>
        <_>
          9 6 14 19 2.</_>
        <_>
          23 25 14 19 2.</_></rects>
      <tilted>0</tilted></_>
    <_>
      <rects>
        <_>
          9 6 34 34 -1.</_>
        <_>
          26 6 17 34 2.</_></rects>
      <tilted>0</tilted></_>
    <_>
      <rects>
        <_>
          9 11 24 20 -1.</_>
        <_>
          17 11 8 20 3.</_></rects>
      <tilted>0</tilted></_>
    <_>
      <rects>
        <_>
          9 12 18 17 -1.</_>
        <_>
          15 12 6 17 3.</_></rects>
      <tilted>0</tilted></_>
    <_>
      <rects>
        <_>
          9 17 38 3 -1.</_>
        <_>
          9 18 38 1 3.</_></rects>
      <tilted>0</tilted></_>
    <_>
      <rects>
        <_>
          9 27 6 10 -1.</_>
        <_>
          9 27 3 5 2.</_>
        <_>
          12 32 3 5 2.</_></rects>
      <tilted>0</tilted></_>
    <_>
      <rects>
        <_>
          9 28 1 10 -1.</_>
        <_>
          9 33 1 5 2.</_></rects>
      <tilted>0</tilted></_>
    <_>
      <rects>
        <_>
          9 30 21 9 -1.</_>
        <_>
          9 33 21 3 3.</_></rects>
      <tilted>0</tilted></_>
    <_>
      <rects>
        <_>
          9 31 24 5 -1.</_>
        <_>
          21 31 12 5 2.</_></rects>
      <tilted>0</tilted></_>
    <_>
      <rects>
        <_>
          9 34 1 6 -1.</_>
        <_>
          9 37 1 3 2.</_></rects>
      <tilted>0</tilted></_>
    <_>
      <rects>
        <_>
          10 4 2 26 -1.</_>
        <_>
          10 4 1 13 2.</_>
        <_>
          11 17 1 13 2.</_></rects>
      <tilted>0</tilted></_>
    <_>
      <rects>
        <_>
          10 11 24 5 -1.</_>
        <_>
          18 11 8 5 3.</_></rects>
      <tilted>0</tilted></_>
    <_>
      <rects>
        <_>
          10 15 24 1 -1.</_>
        <_>
          18 15 8 1 3.</_></rects>
      <tilted>0</tilted></_>
    <_>
      <rects>
        <_>
          10 16 24 2 -1.</_>
        <_>
          18 16 8 2 3.</_></rects>
      <tilted>0</tilted></_>
    <_>
      <rects>
        <_>
          10 17 1 10 -1.</_>
        <_>
          10 22 1 5 2.</_></rects>
      <tilted>0</tilted></_>
    <_>
      <rects>
        <_>
          10 19 6 16 -1.</_>
        <_>
          10 19 3 8 2.</_>
        <_>
          13 27 3 8 2.</_></rects>
      <tilted>0</tilted></_>
    <_>
      <rects>
        <_>
          10 25 2 3 -1.</_>
        <_>
          10 26 2 1 3.</_></rects>
      <tilted>0</tilted></_>
    <_>
      <rects>
        <_>
          10 33 33 5 -1.</_>
        <_>
          21 33 11 5 3.</_></rects>
      <tilted>0</tilted></_>
    <_>
      <rects>
        <_>
          10 36 10 6 -1.</_>
        <_>
          10 36 5 3 2.</_>
        <_>
          15 39 5 3 2.</_></rects>
      <tilted>0</tilted></_>
    <_>
      <rects>
        <_>
          10 42 19 6 -1.</_>
        <_>
          10 44 19 2 3.</_></rects>
      <tilted>0</tilted></_>
    <_>
      <rects>
        <_>
          11 7 15 16 -1.</_>
        <_>
          11 15 15 8 2.</_></rects>
      <tilted>0</tilted></_>
    <_>
      <rects>
        <_>
          11 9 24 5 -1.</_>
        <_>
          19 9 8 5 3.</_></rects>
      <tilted>0</tilted></_>
    <_>
      <rects>
        <_>
          11 12 18 7 -1.</_>
        <_>
          17 12 6 7 3.</_></rects>
      <tilted>0</tilted></_>
    <_>
      <rects>
        <_>
          11 13 24 3 -1.</_>
        <_>
          19 13 8 3 3.</_></rects>
      <tilted>0</tilted></_>
    <_>
      <rects>
        <_>
          11 20 10 20 -1.</_>
        <_>
          16 20 5 20 2.</_></rects>
      <tilted>0</tilted></_>
    <_>
      <rects>
        <_>
          11 27 19 15 -1.</_>
        <_>
          11 32 19 5 3.</_></rects>
      <tilted>0</tilted></_>
    <_>
      <rects>
        <_>
          11 28 8 11 -1.</_>
        <_>
          15 28 4 11 2.</_></rects>
      <tilted>0</tilted></_>
    <_>
      <rects>
        <_>
          11 30 27 3 -1.</_>
        <_>
          11 31 27 1 3.</_></rects>
      <tilted>0</tilted></_>
    <_>
      <rects>
        <_>
          12 0 27 27 -1.</_>
        <_>
          12 9 27 9 3.</_></rects>
      <tilted>0</tilted></_>
    <_>
      <rects>
        <_>
          12 11 21 4 -1.</_>
        <_>
          19 11 7 4 3.</_></rects>
      <tilted>0</tilted></_>
    <_>
      <rects>
        <_>
          12 12 24 2 -1.</_>
        <_>
          20 12 8 2 3.</_></rects>
      <tilted>0</tilted></_>
    <_>
      <rects>
        <_>
          12 14 3 3 -1.</_>
        <_>
          13 14 1 3 3.</_></rects>
      <tilted>0</tilted></_>
    <_>
      <rects>
        <_>
          12 14 21 16 -1.</_>
        <_>
          19 14 7 16 3.</_></rects>
      <tilted>0</tilted></_>
    <_>
      <rects>
        <_>
          12 19 6 6 -1.</_>
        <_>
          12 19 3 3 2.</_>
        <_>
          15 22 3 3 2.</_></rects>
      <tilted>0</tilted></_>
    <_>
      <rects>
        <_>
          12 25 12 10 -1.</_>
        <_>
          16 25 4 10 3.</_></rects>
      <tilted>0</tilted></_>
    <_>
      <rects>
        <_>
          12 31 14 3 -1.</_>
        <_>
          12 32 14 1 3.</_></rects>
      <tilted>0</tilted></_>
    <_>
      <rects>
        <_>
          13 0 18 6 -1.</_>
        <_>
          13 0 9 3 2.</_>
        <_>
          22 3 9 3 2.</_></rects>
      <tilted>0</tilted></_>
    <_>
      <rects>
        <_>
          13 5 22 4 -1.</_>
        <_>
          13 5 11 2 2.</_>
        <_>
          24 7 11 2 2.</_></rects>
      <tilted>0</tilted></_>
    <_>
      <rects>
        <_>
          13 5 34 10 -1.</_>
        <_>
          13 5 17 5 2.</_>
        <_>
          30 10 17 5 2.</_></rects>
      <tilted>0</tilted></_>
    <_>
      <rects>
        <_>
          13 11 21 4 -1.</_>
        <_>
          20 11 7 4 3.</_></rects>
      <tilted>0</tilted></_>
    <_>
      <rects>
        <_>
          13 11 16 18 -1.</_>
        <_>
          13 20 16 9 2.</_></rects>
      <tilted>0</tilted></_>
    <_>
      <rects>
        <_>
          13 12 3 2 -1.</_>
        <_>
          14 12 1 2 3.</_></rects>
      <tilted>0</tilted></_>
    <_>
      <rects>
        <_>
          13 18 6 4 -1.</_>
        <_>
          16 18 3 4 2.</_></rects>
      <tilted>0</tilted></_>
    <_>
      <rects>
        <_>
          13 18 18 18 -1.</_>
        <_>
          13 24 18 6 3.</_></rects>
      <tilted>0</tilted></_>
    <_>
      <rects>
        <_>
          13 19 6 8 -1.</_>
        <_>
          13 19 3 4 2.</_>
        <_>
          16 23 3 4 2.</_></rects>
      <tilted>0</tilted></_>
    <_>
      <rects>
        <_>
          13 25 16 21 -1.</_>
        <_>
          13 32 16 7 3.</_></rects>
      <tilted>0</tilted></_>
    <_>
      <rects>
        <_>
          13 29 2 12 -1.</_>
        <_>
          14 29 1 12 2.</_></rects>
      <tilted>0</tilted></_>
    <_>
      <rects>
        <_>
          13 29 18 3 -1.</_>
        <_>
          22 29 9 3 2.</_></rects>
      <tilted>0</tilted></_>
    <_>
      <rects>
        <_>
          13 30 8 8 -1.</_>
        <_>
          13 30 4 4 2.</_>
        <_>
          17 34 4 4 2.</_></rects>
      <tilted>0</tilted></_>
    <_>
      <rects>
        <_>
          13 30 16 1 -1.</_>
        <_>
          21 30 8 1 2.</_></rects>
      <tilted>0</tilted></_>
    <_>
      <rects>
        <_>
          13 47 20 2 -1.</_>
        <_>
          13 47 10 1 2.</_>
        <_>
          23 48 10 1 2.</_></rects>
      <tilted>0</tilted></_>
    <_>
      <rects>
        <_>
          14 0 25 27 -1.</_>
        <_>
          14 9 25 9 3.</_></rects>
      <tilted>0</tilted></_>
    <_>
      <rects>
        <_>
          14 15 24 1 -1.</_>
        <_>
          22 15 8 1 3.</_></rects>
      <tilted>0</tilted></_>
    <_>
      <rects>
        <_>
          14 15 17 21 -1.</_>
        <_>
          14 22 17 7 3.</_></rects>
      <tilted>0</tilted></_>
    <_>
      <rects>
        <_>
          14 19 4 8 -1.</_>
        <_>
          14 19 2 4 2.</_>
        <_>
          16 23 2 4 2.</_></rects>
      <tilted>0</tilted></_>
    <_>
      <rects>
        <_>
          14 33 4 8 -1.</_>
        <_>
          16 33 2 8 2.</_></rects>
      <tilted>0</tilted></_>
    <_>
      <rects>
        <_>
          15 11 3 1 -1.</_>
        <_>
          16 11 1 1 3.</_></rects>
      <tilted>0</tilted></_>
    <_>
      <rects>
        <_>
          15 11 22 12 -1.</_>
        <_>
          15 11 11 6 2.</_>
        <_>
          26 17 11 6 2.</_></rects>
      <tilted>0</tilted></_>
    <_>
      <rects>
        <_>
          15 15 6 4 -1.</_>
        <_>
          18 15 3 4 2.</_></rects>
      <tilted>0</tilted></_>
    <_>
      <rects>
        <_>
          15 17 6 6 -1.</_>
        <_>
          17 17 2 6 3.</_></rects>
      <tilted>0</tilted></_>
    <_>
      <rects>
        <_>
          15 21 24 3 -1.</_>
        <_>
          15 22 24 1 3.</_></rects>
      <tilted>0</tilted></_>
    <_>
      <rects>
        <_>
          15 23 12 12 -1.</_>
        <_>
          21 23 6 12 2.</_></rects>
      <tilted>0</tilted></_>
    <_>
      <rects>
        <_>
          15 23 16 13 -1.</_>
        <_>
          23 23 8 13 2.</_></rects>
      <tilted>0</tilted></_>
    <_>
      <rects>
        <_>
          15 24 18 6 -1.</_>
        <_>
          21 24 6 6 3.</_></rects>
      <tilted>0</tilted></_>
    <_>
      <rects>
        <_>
          15 27 8 5 -1.</_>
        <_>
          19 27 4 5 2.</_></rects>
      <tilted>0</tilted></_>
    <_>
      <rects>
        <_>
          15 28 6 4 -1.</_>
        <_>
          18 28 3 4 2.</_></rects>
      <tilted>0</tilted></_>
    <_>
      <rects>
        <_>
          15 28 8 3 -1.</_>
        <_>
          19 28 4 3 2.</_></rects>
      <tilted>0</tilted></_>
    <_>
      <rects>
        <_>
          15 28 10 5 -1.</_>
        <_>
          20 28 5 5 2.</_></rects>
      <tilted>0</tilted></_>
    <_>
      <rects>
        <_>
          15 30 2 6 -1.</_>
        <_>
          15 32 2 2 3.</_></rects>
      <tilted>0</tilted></_>
    <_>
      <rects>
        <_>
          15 30 8 1 -1.</_>
        <_>
          19 30 4 1 2.</_></rects>
      <tilted>0</tilted></_>
    <_>
      <rects>
        <_>
          15 30 10 1 -1.</_>
        <_>
          20 30 5 1 2.</_></rects>
      <tilted>0</tilted></_>
    <_>
      <rects>
        <_>
          15 31 28 18 -1.</_>
        <_>
          15 37 28 6 3.</_></rects>
      <tilted>0</tilted></_>
    <_>
      <rects>
        <_>
          15 32 3 1 -1.</_>
        <_>
          16 32 1 1 3.</_></rects>
      <tilted>0</tilted></_>
    <_>
      <rects>
        <_>
          15 44 6 6 -1.</_>
        <_>
          15 47 6 3 2.</_></rects>
      <tilted>0</tilted></_>
    <_>
      <rects>
        <_>
