<?xml version="1.0"?>
<opencv_storage>
<cascade>
  <stageType>BOOST</stageType>
  <featureType>HAAR</featureType>
  <height>40</height>
  <width>40</width>
  <stageParams>
    <boostType>GAB</boostType>
    <minHitRate>9.9500000476837158e-01</minHitRate>
    <maxFalseAlarm>5.0000000000000000e-01</maxFalseAlarm>
    <weightTrimRate>9.4999999999999996e-01</weightTrimRate>
    <maxDepth>1</maxDepth>
    <maxWeakCount>100</maxWeakCount></stageParams>
  <featureParams>
    <maxCatCount>0</maxCatCount>
    <featSize>1</featSize>
    <mode>BASIC</mode></featureParams>
  <stageNum>12</stageNum>
  <stages>
    <!-- stage 0 -->
    <_>
      <maxWeakCount>22</maxWeakCount>
      <stageThreshold>-9.8059993982315063e-01</stageThreshold>
      <weakClassifiers>
        <_>
          <internalNodes>
            0 -1 216 2.7594794519245625e-03</internalNodes>
          <leafValues>
            -1.7199184000492096e-01 7.3177844285964966e-01</leafValues></_>
        <_>
          <internalNodes>
            0 -1 6 2.7202558517456055e-01</internalNodes>
          <leafValues>
            -2.0995707809925079e-01 6.5957081317901611e-01</leafValues></_>
        <_>
          <internalNodes>
            0 -1 417 -2.0743075758218765e-02</internalNodes>
          <leafValues>
            5.0011557340621948e-01 -1.1398638039827347e-01</leafValues></_>
        <_>
          <internalNodes>
            0 -1 242 7.4899429455399513e-03</internalNodes>
          <leafValues>
            7.7060520648956299e-02 -7.1120810508728027e-01</leafValues></_>
        <_>
          <internalNodes>
            0 -1 206 -1.6097794286906719e-03</internalNodes>
          <leafValues>
            -6.3420587778091431e-01 8.4008663892745972e-02</leafValues></_>
        <_>
          <internalNodes>
            0 -1 229 -1.0617033694870770e-04</internalNodes>
          <leafValues>
            2.0807564258575439e-01 -2.8873467445373535e-01</leafValues></_>
        <_>
          <internalNodes>
            0 -1 348 5.6308240164071321e-04</internalNodes>
          <leafValues>
            6.1895705759525299e-02 -7.0337390899658203e-01</leafValues></_>
        <_>
          <internalNodes>
            0 -1 366 6.2629976309835911e-04</internalNodes>
          <leafValues>
            8.1236295402050018e-02 -6.7385607957839966e-01</leafValues></_>
        <_>
          <internalNodes>
            0 -1 83 -2.0058201625943184e-02</internalNodes>
          <leafValues>
            3.2613664865493774e-01 -1.7775969207286835e-01</leafValues></_>
        <_>
          <internalNodes>
            0 -1 124 1.7142854630947113e-02</internalNodes>
          <leafValues>
            -1.3782009482383728e-01 4.9150297045707703e-01</leafValues></_>
        <_>
          <internalNodes>
            0 -1 380 5.0377054139971733e-04</internalNodes>
          <leafValues>
            8.1125475466251373e-02 -7.1194201707839966e-01</leafValues></_>
        <_>
          <internalNodes>
            0 -1 374 -9.8133133724331856e-04</internalNodes>
          <leafValues>
            -5.6179928779602051e-01 8.5111662745475769e-02</leafValues></_>
        <_>
          <internalNodes>
            0 -1 171 -1.5521323075518012e-03</internalNodes>
          <leafValues>
            -4.7710415720939636e-01 1.0177669674158096e-01</leafValues></_>
        <_>
          <internalNodes>
            0 -1 250 6.2698107212781906e-03</internalNodes>
          <leafValues>
            -1.3778276741504669e-01 3.9053493738174438e-01</leafValues></_>
        <_>
          <internalNodes>
            0 -1 277 -2.4346850812435150e-02</internalNodes>
          <leafValues>
            -8.4838187694549561e-01 5.7361871004104614e-02</leafValues></_>
        <_>
          <internalNodes>
            0 -1 325 5.3073215531185269e-04</internalNodes>
          <leafValues>
            6.0117486864328384e-02 -7.2285860776901245e-01</leafValues></_>
        <_>
          <internalNodes>
            0 -1 67 9.1959512792527676e-04</internalNodes>
          <leafValues>
            -1.6113895177841187e-01 3.3850139379501343e-01</leafValues></_>
        <_>
          <internalNodes>
            0 -1 97 2.6734927669167519e-03</internalNodes>
          <leafValues>
            9.2152133584022522e-02 -6.2014782428741455e-01</leafValues></_>
        <_>
          <internalNodes>
            0 -1 363 5.2017718553543091e-04</internalNodes>
          <leafValues>
            7.6133139431476593e-02 -5.8234316110610962e-01</leafValues></_>
        <_>
          <internalNodes>
            0 -1 318 2.8488861396908760e-02</internalNodes>
          <leafValues>
            4.9258749932050705e-02 -8.9347738027572632e-01</leafValues></_>
        <_>
          <internalNodes>
            0 -1 413 6.1077042482793331e-04</internalNodes>
          <leafValues>
            -1.8412877619266510e-01 2.7685242891311646e-01</leafValues></_>
        <_>
          <internalNodes>
            0 -1 207 -1.6981563530862331e-03</internalNodes>
          <leafValues>
            -6.2885856628417969e-01 8.1313051283359528e-02</leafValues></_></weakClassifiers></_>
    <!-- stage 1 -->
    <_>
      <maxWeakCount>26</maxWeakCount>
      <stageThreshold>-9.4678676128387451e-01</stageThreshold>
      <weakClassifiers>
        <_>
          <internalNodes>
            0 -1 253 4.3942360207438469e-03</internalNodes>
          <leafValues>
            -7.7012836933135986e-02 8.0407124757766724e-01</leafValues></_>
        <_>
          <internalNodes>
            0 -1 8 2.3696780204772949e-01</internalNodes>
          <leafValues>
            -1.7771326005458832e-01 5.0740945339202881e-01</leafValues></_>
        <_>
          <internalNodes>
            0 -1 353 4.8977613914757967e-05</internalNodes>
          <leafValues>
            -3.1471171975135803e-01 2.3501855134963989e-01</leafValues></_>
        <_>
          <internalNodes>
            0 -1 183 1.1152827739715576e-01</internalNodes>
          <leafValues>
            -7.8011907637119293e-02 7.5928401947021484e-01</leafValues></_>
        <_>
          <internalNodes>
            0 -1 81 -3.6388978362083435e-02</internalNodes>
          <leafValues>
            3.1120079755783081e-01 -2.2590412199497223e-01</leafValues></_>
        <_>
          <internalNodes>
            0 -1 252 -4.6111049596220255e-04</internalNodes>
          <leafValues>
            3.6981797218322754e-01 -1.8601395189762115e-01</leafValues></_>
        <_>
          <internalNodes>
            0 -1 149 3.2961390912532806e-02</internalNodes>
          <leafValues>
            8.1704117357730865e-02 -8.2820117473602295e-01</leafValues></_>
        <_>
          <internalNodes>
            0 -1 141 1.3886441010981798e-03</internalNodes>
          <leafValues>
            7.5232073664665222e-02 -5.9980714321136475e-01</leafValues></_>
        <_>
          <internalNodes>
            0 -1 169 6.9698924198746681e-04</internalNodes>
          <leafValues>
            -2.0622177422046661e-01 2.5427916646003723e-01</leafValues></_>
        <_>
          <internalNodes>
            0 -1 64 -1.3749313075095415e-03</internalNodes>
          <leafValues>
            3.4884193539619446e-01 -1.5431593358516693e-01</leafValues></_>
        <_>
          <internalNodes>
            0 -1 170 -1.8047110643237829e-03</internalNodes>
          <leafValues>
            -6.0863137245178223e-01 8.9706286787986755e-02</leafValues></_>
        <_>
          <internalNodes>
            0 -1 106 1.5984878409653902e-03</internalNodes>
          <leafValues>
            6.3268251717090607e-02 -6.6055202484130859e-01</leafValues></_>
        <_>
          <internalNodes>
            0 -1 401 6.6605764441192150e-03</internalNodes>
          <leafValues>
            -1.9444631040096283e-01 2.8731203079223633e-01</leafValues></_>
        <_>
          <internalNodes>
            0 -1 168 -8.5641155019402504e-03</internalNodes>
          <leafValues>
            -5.0047761201858521e-01 9.9118538200855255e-02</leafValues></_>
        <_>
          <internalNodes>
            0 -1 164 5.2499480079859495e-04</internalNodes>
          <leafValues>
            -1.8871848285198212e-01 2.9689496755599976e-01</leafValues></_>
        <_>
          <internalNodes>
            0 -1 203 5.2270218729972839e-02</internalNodes>
          <leafValues>
            5.5686023086309433e-02 -9.3503069877624512e-01</leafValues></_>
        <_>
          <internalNodes>
            0 -1 62 3.0836714431643486e-03</internalNodes>
          <leafValues>
            6.1804413795471191e-02 -6.0841333866119385e-01</leafValues></_>
        <_>
          <internalNodes>
            0 -1 270 -1.9799245637841523e-04</internalNodes>
          <leafValues>
            2.8264939785003662e-01 -1.6312013566493988e-01</leafValues></_>
        <_>
          <internalNodes>
            0 -1 194 2.7421750128269196e-03</internalNodes>
          <leafValues>
            9.0748168528079987e-02 -5.0357222557067871e-01</leafValues></_>
        <_>
          <internalNodes>
            0 -1 237 -5.0998403457924724e-04</internalNodes>
          <leafValues>
            3.2083547115325928e-01 -1.3581968843936920e-01</leafValues></_>
        <_>
          <internalNodes>
            0 -1 122 8.5707325488328934e-03</internalNodes>
          <leafValues>
            6.9550856947898865e-02 -5.9541374444961548e-01</leafValues></_>
        <_>
          <internalNodes>
            0 -1 75 2.1853891666978598e-03</internalNodes>
          <leafValues>
            6.0593511909246445e-02 -6.1656659841537476e-01</leafValues></_>
        <_>
          <internalNodes>
            0 -1 319 7.2403153171762824e-04</internalNodes>
          <leafValues>
            -1.5865303575992584e-01 2.5779417157173157e-01</leafValues></_>
        <_>
          <internalNodes>
            0 -1 406 -1.3486854732036591e-03</internalNodes>
          <leafValues>
            2.5956019759178162e-01 -1.7423877120018005e-01</leafValues></_>
        <_>
          <internalNodes>
            0 -1 202 -1.5701808035373688e-02</internalNodes>
          <leafValues>
            -7.4915987253189087e-01 6.8634383380413055e-02</leafValues></_>
        <_>
          <internalNodes>
            0 -1 52 8.2839059177786112e-04</internalNodes>
          <leafValues>
            -1.3301748037338257e-01 3.5690069198608398e-01</leafValues></_></weakClassifiers></_>
    <!-- stage 2 -->
    <_>
      <maxWeakCount>32</maxWeakCount>
      <stageThreshold>-1.0528947114944458e+00</stageThreshold>
      <weakClassifiers>
        <_>
          <internalNodes>
            0 -1 352 1.9713498186320066e-03</internalNodes>
          <leafValues>
            -1.3725490868091583e-01 6.4925372600555420e-01</leafValues></_>
        <_>
          <internalNodes>
            0 -1 355 -6.6878452897071838e-02</internalNodes>
          <leafValues>
            5.0657999515533447e-01 -1.7813794314861298e-01</leafValues></_>
        <_>
          <internalNodes>
            0 -1 15 2.0686697214841843e-02</internalNodes>
          <leafValues>
            -1.4855302870273590e-01 4.1773810982704163e-01</leafValues></_>
        <_>
          <internalNodes>
            0 -1 49 1.0299697518348694e-02</internalNodes>
          <leafValues>
            -1.2632501125335693e-01 6.8846899271011353e-01</leafValues></_>
        <_>
          <internalNodes>
            0 -1 220 -1.8230125308036804e-02</internalNodes>
          <leafValues>
            2.9058852791786194e-01 -1.8705640733242035e-01</leafValues></_>
        <_>
          <internalNodes>
            0 -1 263 1.8753623589873314e-04</internalNodes>
          <leafValues>
            1.0021200776100159e-01 -4.7431093454360962e-01</leafValues></_>
        <_>
          <internalNodes>
            0 -1 390 9.4705633819103241e-03</internalNodes>
          <leafValues>
            -1.3717025518417358e-01 3.2135713100433350e-01</leafValues></_>
        <_>
          <internalNodes>
            0 -1 231 -1.7486419528722763e-02</internalNodes>
          <leafValues>
            3.8264298439025879e-01 -1.1380469799041748e-01</leafValues></_>
        <_>
          <internalNodes>
            0 -1 334 1.2635766324819997e-05</internalNodes>
          <leafValues>
            -2.2806254029273987e-01 1.8788690865039825e-01</leafValues></_>
        <_>
          <internalNodes>
            0 -1 139 -2.1618367172777653e-03</internalNodes>
          <leafValues>
            -7.8773021697998047e-01 4.5141123235225677e-02</leafValues></_>
        <_>
          <internalNodes>
            0 -1 172 -1.6657318337820470e-04</internalNodes>
          <leafValues>
            2.1655037999153137e-01 -1.9082613289356232e-01</leafValues></_>
        <_>
          <internalNodes>
            0 -1 134 -9.2161446809768677e-03</internalNodes>
          <leafValues>
            -7.3621410131454468e-01 7.1158587932586670e-02</leafValues></_>
        <_>
          <internalNodes>
            0 -1 384 -1.2438651174306870e-03</internalNodes>
          <leafValues>
            -4.9392557144165039e-01 7.5546935200691223e-02</leafValues></_>
        <_>
          <internalNodes>
            0 -1 163 -4.7335762064903975e-04</internalNodes>
          <leafValues>
            3.3002844452857971e-01 -1.2756308913230896e-01</leafValues></_>
        <_>
          <internalNodes>
            0 -1 184 1.0124955326318741e-02</internalNodes>
          <leafValues>
            7.9520888626575470e-02 -5.1329308748245239e-01</leafValues></_>
        <_>
          <internalNodes>
            0 -1 239 -1.5178535250015557e-04</internalNodes>
          <leafValues>
            2.6395970582962036e-01 -1.6466881334781647e-01</leafValues></_>
        <_>
          <internalNodes>
            0 -1 173 5.7079002726823092e-04</internalNodes>
          <leafValues>
            7.4034519493579865e-02 -5.8205521106719971e-01</leafValues></_>
        <_>
          <internalNodes>
            0 -1 39 -1.3852719217538834e-02</internalNodes>
          <leafValues>
            4.0539798140525818e-01 -1.1211193352937698e-01</leafValues></_>
        <_>
          <internalNodes>
            0 -1 174 -3.1661007087677717e-03</internalNodes>
          <leafValues>
            3.4881040453910828e-01 -1.4286494255065918e-01</leafValues></_>
        <_>
          <internalNodes>
            0 -1 37 4.4651124626398087e-03</internalNodes>
          <leafValues>
            -9.7222618758678436e-02 4.2620775103569031e-01</leafValues></_>
        <_>
          <internalNodes>
            0 -1 3 -6.0672510415315628e-02</internalNodes>
          <leafValues>
            3.6032551527023315e-01 -1.2527315318584442e-01</leafValues></_>
        <_>
          <internalNodes>
            0 -1 200 -4.9747887533158064e-04</internalNodes>
          <leafValues>
            3.7765187025070190e-01 -1.1378721147775650e-01</leafValues></_>
        <_>
          <internalNodes>
            0 -1 383 1.0439727921038866e-03</internalNodes>
          <leafValues>
            7.6256781816482544e-02 -5.8184605836868286e-01</leafValues></_>
        <_>
          <internalNodes>
            0 -1 120 4.0213037282228470e-03</internalNodes>
          <leafValues>
            4.3360244482755661e-02 -8.0729341506958008e-01</leafValues></_>
        <_>
          <internalNodes>
            0 -1 82 4.6867661178112030e-02</internalNodes>
          <leafValues>
            4.7500930726528168e-02 -7.0111548900604248e-01</leafValues></_>
        <_>
          <internalNodes>
            0 -1 232 -8.6721626576036215e-04</internalNodes>
          <leafValues>
            3.5020828247070312e-01 -1.2539352476596832e-01</leafValues></_>
        <_>
          <internalNodes>
            0 -1 145 7.0829043397679925e-04</internalNodes>
          <leafValues>
            -1.0622372478246689e-01 3.7162610888481140e-01</leafValues></_>
        <_>
          <internalNodes>
            0 -1 373 -2.7603324269875884e-04</internalNodes>
          <leafValues>
            -4.7084698081016541e-01 9.1710269451141357e-02</leafValues></_>
        <_>
          <internalNodes>
            0 -1 379 1.2143221683800220e-03</internalNodes>
          <leafValues>
            -1.3200938701629639e-01 3.5049739480018616e-01</leafValues></_>
        <_>
          <internalNodes>
            0 -1 361 -7.0432794746011496e-04</internalNodes>
          <leafValues>
            -6.7005276679992676e-01 7.6929718255996704e-02</leafValues></_>
        <_>
          <internalNodes>
            0 -1 132 -4.3846736662089825e-04</internalNodes>
          <leafValues>
            3.7040442228317261e-01 -1.1155749112367630e-01</leafValues></_>
        <_>
          <internalNodes>
            0 -1 210 -3.1505250371992588e-03</internalNodes>
          <leafValues>
            -5.9209531545639038e-01 6.7729979753494263e-02</leafValues></_></weakClassifiers></_>
    <!-- stage 3 -->
    <_>
      <maxWeakCount>39</maxWeakCount>
      <stageThreshold>-1.0898333787918091e+00</stageThreshold>
      <weakClassifiers>
        <_>
          <internalNodes>
            0 -1 217 4.3134195730090141e-03</internalNodes>
          <leafValues>
            -9.0163931250572205e-02 6.1003863811492920e-01</leafValues></_>
        <_>
          <internalNodes>
            0 -1 9 4.2594057321548462e-01</internalNodes>
          <leafValues>
            -1.2374490499496460e-01 5.8099830150604248e-01</leafValues></_>
        <_>
          <internalNodes>
            0 -1 226 -3.0133745167404413e-04</internalNodes>
          <leafValues>
            -4.6691760420799255e-01 1.4373962581157684e-01</leafValues></_>
        <_>
          <internalNodes>
            0 -1 223 6.2724325107410550e-04</internalNodes>
          <leafValues>
            1.0247389972209930e-01 -4.6428835391998291e-01</leafValues></_>
        <_>
          <internalNodes>
            0 -1 148 -3.4720037365332246e-04</internalNodes>
          <leafValues>
            3.8288870453834534e-01 -1.2947374582290649e-01</leafValues></_>
        <_>
          <internalNodes>
            0 -1 345 4.5131400838727131e-05</internalNodes>
          <leafValues>
            -1.9986036419868469e-01 2.1495522558689117e-01</leafValues></_>
        <_>
          <internalNodes>
            0 -1 398 -5.2309792954474688e-04</internalNodes>
          <leafValues>
            2.3521701991558075e-01 -1.9183312356472015e-01</leafValues></_>
        <_>
          <internalNodes>
            0 -1 94 -3.1004247721284628e-03</internalNodes>
          <leafValues>
            -6.3320511579513550e-01 3.6502774804830551e-02</leafValues></_>
        <_>
          <internalNodes>
            0 -1 316 -3.3193931449204683e-04</internalNodes>
          <leafValues>
            3.1896418333053589e-01 -1.2953342497348785e-01</leafValues></_>
        <_>
          <internalNodes>
            0 -1 340 -1.9552203593775630e-04</internalNodes>
          <leafValues>
            4.1702803969383240e-01 -1.2002298980951309e-01</leafValues></_>
        <_>
          <internalNodes>
            0 -1 430 1.5656971663702279e-04</internalNodes>
          <leafValues>
            1.0086943954229355e-01 -4.2980921268463135e-01</leafValues></_>
        <_>
          <internalNodes>
            0 -1 73 1.7079081386327744e-02</internalNodes>
          <leafValues>
            4.6650744974613190e-02 -7.9224956035614014e-01</leafValues></_>
        <_>
          <internalNodes>
            0 -1 233 -2.5123050436377525e-03</internalNodes>
          <leafValues>
            2.8202828764915466e-01 -1.4109188318252563e-01</leafValues></_>
        <_>
          <internalNodes>
            0 -1 127 5.4588541388511658e-04</internalNodes>
          <leafValues>
            -1.1027859896421432e-01 3.4135636687278748e-01</leafValues></_>
        <_>
          <internalNodes>
            0 -1 17 7.9417387023568153e-03</internalNodes>
          <leafValues>
            -1.4412045478820801e-01 2.8144022822380066e-01</leafValues></_>
        <_>
          <internalNodes>
            0 -1 385 6.2202825210988522e-04</internalNodes>
          <leafValues>
            6.5380692481994629e-02 -6.4090776443481445e-01</leafValues></_>
        <_>
          <internalNodes>
            0 -1 186 -2.3825484095141292e-04</internalNodes>
          <leafValues>
            -4.6566459536552429e-01 7.1450620889663696e-02</leafValues></_>
        <_>
          <internalNodes>
            0 -1 215 -9.8106567747890949e-04</internalNodes>
          <leafValues>
            4.1984954476356506e-01 -1.0011738538742065e-01</leafValues></_>
        <_>
          <internalNodes>
            0 -1 151 1.5890414942987263e-04</internalNodes>
          <leafValues>
            -1.9974865019321442e-01 2.0803752541542053e-01</leafValues></_>
        <_>
          <internalNodes>
            0 -1 16 -2.3430952569469810e-04</internalNodes>
          <leafValues>
            2.5409755110740662e-01 -1.9293084740638733e-01</leafValues></_>
        <_>
          <internalNodes>
            0 -1 136 -1.0240737348794937e-02</internalNodes>
          <leafValues>
            -7.7214288711547852e-01 6.0792896896600723e-02</leafValues></_>
        <_>
          <internalNodes>
            0 -1 246 -5.8519195590633899e-05</internalNodes>
          <leafValues>
            2.1528504788875580e-01 -1.8125639855861664e-01</leafValues></_>
        <_>
          <internalNodes>
            0 -1 306 8.9632871095091105e-04</internalNodes>
          <leafValues>
            -1.3941629230976105e-01 2.8992930054664612e-01</leafValues></_>
        <_>
          <internalNodes>
            0 -1 230 -8.2661327905952930e-04</internalNodes>
          <leafValues>
            -8.1039524078369141e-01 5.9029169380664825e-02</leafValues></_>
        <_>
          <internalNodes>
            0 -1 117 3.8773147389292717e-03</internalNodes>
          <leafValues>
            9.4876520335674286e-02 -3.9156827330589294e-01</leafValues></_>
        <_>
          <internalNodes>
            0 -1 371 -1.5078517608344555e-03</internalNodes>
          <leafValues>
            3.6508384346961975e-01 -1.1882691085338593e-01</leafValues></_>
        <_>
          <internalNodes>
            0 -1 19 -7.8218020498752594e-02</internalNodes>
          <leafValues>
            5.3396070003509521e-01 -7.5553521513938904e-02</leafValues></_>
        <_>
          <internalNodes>
            0 -1 102 4.9579469487071037e-04</internalNodes>
          <leafValues>
            -1.0988012701272964e-01 3.8527530431747437e-01</leafValues></_>
        <_>
          <internalNodes>
            0 -1 407 3.5150613985024393e-04</internalNodes>
          <leafValues>
            -1.3028484582901001e-01 2.8838232159614563e-01</leafValues></_>
        <_>
          <internalNodes>
            0 -1 175 3.4388925414532423e-03</internalNodes>
          <leafValues>
            7.2467319667339325e-02 -5.5852532386779785e-01</leafValues></_>
        <_>
          <internalNodes>
            0 -1 78 -7.4986303225159645e-03</internalNodes>
          <leafValues>
            -5.3996926546096802e-01 6.9473050534725189e-02</leafValues></_>
        <_>
          <internalNodes>
            0 -1 347 8.3409642684273422e-05</internalNodes>
          <leafValues>
            -1.7120033502578735e-01 2.2851620614528656e-01</leafValues></_>
        <_>
          <internalNodes>
            0 -1 425 7.6012813951820135e-04</internalNodes>
          <leafValues>
            -1.2855210900306702e-01 3.2090646028518677e-01</leafValues></_>
        <_>
          <internalNodes>
            0 -1 227 4.5941420830786228e-04</internalNodes>
          <leafValues>
            9.0901739895343781e-02 -5.0656253099441528e-01</leafValues></_>
        <_>
          <internalNodes>
            0 -1 439 4.5822391984984279e-04</internalNodes>
          <leafValues>
            -1.8878276646137238e-01 2.2603090107440948e-01</leafValues></_>
        <_>
          <internalNodes>
            0 -1 427 -2.7782516553997993e-02</internalNodes>
          <leafValues>
            5.8676332235336304e-01 -6.3753560185432434e-02</leafValues></_>
        <_>
          <internalNodes>
            0 -1 88 -1.6034013824537396e-03</internalNodes>
          <leafValues>
            -6.4152276515960693e-01 6.3462458550930023e-02</leafValues></_>
        <_>
          <internalNodes>
            0 -1 426 -1.7886003479361534e-03</internalNodes>
          <leafValues>
            -5.6032621860504150e-01 6.2679417431354523e-02</leafValues></_>
        <_>
          <internalNodes>
            0 -1 27 -3.8065176922827959e-03</internalNodes>
          <leafValues>
            3.8233739137649536e-01 -1.0366520285606384e-01</leafValues></_></weakClassifiers></_>
    <!-- stage 4 -->
    <_>
      <maxWeakCount>37</maxWeakCount>
      <stageThreshold>-9.3666213750839233e-01</stageThreshold>
      <weakClassifiers>
        <_>
          <internalNodes>
            0 -1 92 6.6072447225451469e-03</internalNodes>
          <leafValues>
            -7.0580884814262390e-02 6.8186873197555542e-01</leafValues></_>
        <_>
          <internalNodes>
            0 -1 50 2.1602686494588852e-02</internalNodes>
          <leafValues>
            -8.9841894805431366e-02 6.7662268877029419e-01</leafValues></_>
        <_>
          <internalNodes>
            0 -1 118 -1.0684861801564693e-02</internalNodes>
          <leafValues>
            3.8561278581619263e-01 -2.0980176329612732e-01</leafValues></_>
        <_>
          <internalNodes>
            0 -1 433 -2.6569645851850510e-02</internalNodes>
          <leafValues>
            4.4194468855857849e-01 -1.2972055375576019e-01</leafValues></_>
        <_>
          <internalNodes>
            0 -1 125 5.7074963115155697e-03</internalNodes>
          <leafValues>
            -1.8545408546924591e-01 3.4161421656608582e-01</leafValues></_>
        <_>
          <internalNodes>
            0 -1 354 -6.7544286139309406e-05</internalNodes>
          <leafValues>
            -3.7272161245346069e-01 1.4574004709720612e-01</leafValues></_>
        <_>
          <internalNodes>
            0 -1 71 -9.4496421515941620e-03</internalNodes>
          <leafValues>
            -6.4493370056152344e-01 3.4665472805500031e-02</leafValues></_>
        <_>
          <internalNodes>
            0 -1 251 -1.2277616187930107e-03</internalNodes>
          <leafValues>
            5.0989079475402832e-01 -8.7874658405780792e-02</leafValues></_>
        <_>
          <internalNodes>
            0 -1 303 5.5580064654350281e-03</internalNodes>
          <leafValues>
            -1.4553770422935486e-01 2.6062577962875366e-01</leafValues></_>
        <_>
          <internalNodes>
            0 -1 137 7.4364317697472870e-05</internalNodes>
          <leafValues>
            -2.2660042345523834e-01 1.7528879642486572e-01</leafValues></_>
        <_>
          <internalNodes>
            0 -1 279 -4.0190694853663445e-03</internalNodes>
          <leafValues>
            -5.5922830104827881e-01 7.8866153955459595e-02</leafValues></_>
        <_>
          <internalNodes>
            0 -1 310 -4.0554103907197714e-04</internalNodes>
          <leafValues>
            3.5587888956069946e-01 -1.1961296945810318e-01</leafValues></_>
        <_>
          <internalNodes>
            0 -1 320 1.9378875149413943e-03</internalNodes>
          <leafValues>
            -1.4349040389060974e-01 2.8133109211921692e-01</leafValues></_>
        <_>
          <internalNodes>
            0 -1 84 2.9722093604505062e-03</internalNodes>
          <leafValues>
            5.2383214235305786e-02 -7.0995378494262695e-01</leafValues></_>
        <_>
          <internalNodes>
            0 -1 191 6.1643730849027634e-02</internalNodes>
          <leafValues>
            5.7154439389705658e-02 -6.8370407819747925e-01</leafValues></_>
        <_>
          <internalNodes>
            0 -1 418 9.1649335809051991e-04</internalNodes>
          <leafValues>
            -1.3104854524135590e-01 3.0340582132339478e-01</leafValues></_>
        <_>
          <internalNodes>
            0 -1 326 2.3248232901096344e-03</internalNodes>
          <leafValues>
            6.0282502323389053e-02 -6.6635137796401978e-01</leafValues></_>
        <_>
          <internalNodes>
            0 -1 150 -8.6081516928970814e-04</internalNodes>
          <leafValues>
            -4.5827326178550720e-01 7.7320344746112823e-02</leafValues></_>
        <_>
          <internalNodes>
            0 -1 396 -2.5751674547791481e-03</internalNodes>
          <leafValues>
            -5.5691134929656982e-01 6.1158493161201477e-02</leafValues></_>
        <_>
          <internalNodes>
            0 -1 410 -2.4004387669265270e-03</internalNodes>
          <leafValues>
            -5.6155961751937866e-01 5.9753023087978363e-02</leafValues></_>
        <_>
          <internalNodes>
            0 -1 392 4.3430030345916748e-03</internalNodes>
          <leafValues>
            -1.1392138898372650e-01 3.4690174460411072e-01</leafValues></_>
        <_>
          <internalNodes>
            0 -1 362 -2.8234566561877728e-03</internalNodes>
          <leafValues>
            3.4365883469581604e-01 -1.1674521118402481e-01</leafValues></_>
        <_>
          <internalNodes>
            0 -1 123 -2.6340493932366371e-03</internalNodes>
          <leafValues>
            -5.5597603321075439e-01 7.3262736201286316e-02</leafValues></_>
        <_>
          <internalNodes>
            0 -1 341 -6.9691496901214123e-04</internalNodes>
          <leafValues>
            4.6450996398925781e-01 -8.8166490197181702e-02</leafValues></_>
        <_>
          <internalNodes>
            0 -1 264 -5.1270760595798492e-02</internalNodes>
          <leafValues>
            -9.5561546087265015e-01 4.7925092279911041e-02</leafValues></_>
        <_>
          <internalNodes>
            0 -1 54 -2.8564763069152832e-01</internalNodes>
          <leafValues>
            -7.9571121931076050e-01 3.0918784439563751e-02</leafValues></_>
        <_>
          <internalNodes>
            0 -1 13 -4.0415599942207336e-02</internalNodes>
          <leafValues>
            5.2490329742431641e-01 -7.6869897544384003e-02</leafValues></_>
        <_>
          <internalNodes>
            0 -1 286 2.9269940569065511e-04</internalNodes>
          <leafValues>
            1.0764731466770172e-01 -3.5141780972480774e-01</leafValues></_>
        <_>
          <internalNodes>
            0 -1 208 -6.3438696088269353e-05</internalNodes>
          <leafValues>
            1.8220800161361694e-01 -2.0333798229694366e-01</leafValues></_>
        <_>
          <internalNodes>
            0 -1 167 -6.5527926199138165e-03</internalNodes>
          <leafValues>
            -5.9747338294982910e-01 7.5563862919807434e-02</leafValues></_>
        <_>
          <internalNodes>
            0 -1 29 -3.5155240446329117e-02</internalNodes>
          <leafValues>
            7.4504321813583374e-01 -5.3893845528364182e-02</leafValues></_>
        <_>
          <internalNodes>
            0 -1 112 -1.7382990336045623e-03</internalNodes>
          <leafValues>
            -2.9619213938713074e-01 1.3623410463333130e-01</leafValues></_>
        <_>
          <internalNodes>
            0 -1 20 2.7015496045351028e-02</internalNodes>
          <leafValues>
            -1.0100390017032623e-01 4.1336530447006226e-01</leafValues></_>
        <_>
          <internalNodes>
            0 -1 209 1.9068212714046240e-03</internalNodes>
          <leafValues>
            7.5712300837039948e-02 -5.2452242374420166e-01</leafValues></_>
        <_>
          <internalNodes>
            0 -1 281 -3.0895909294486046e-03</internalNodes>
          <leafValues>
            3.5083508491516113e-01 -1.2050576508045197e-01</leafValues></_>
        <_>
          <internalNodes>
            0 -1 248 -6.4871981739997864e-03</internalNodes>
          <leafValues>
            3.6136370897293091e-01 -1.0635180771350861e-01</leafValues></_>
        <_>
          <internalNodes>
            0 -1 415 1.2733537005260587e-04</internalNodes>
          <leafValues>
            -1.7371961474418640e-01 2.0326186716556549e-01</leafValues></_></weakClassifiers></_>
    <!-- stage 5 -->
    <_>
      <maxWeakCount>37</maxWeakCount>
      <stageThreshold>-8.9689391851425171e-01</stageThreshold>
      <weakClassifiers>
        <_>
          <internalNodes>
            0 -1 214 4.4908253476023674e-03</internalNodes>
          <leafValues>
            -4.0385775268077850e-02 6.7419737577438354e-01</leafValues></_>
        <_>
          <internalNodes>
            0 -1 33 8.9480653405189514e-02</internalNodes>
          <leafValues>
            -7.1883894503116608e-02 6.9701480865478516e-01</leafValues></_>
        <_>
          <internalNodes>
            0 -1 158 -1.8177457153797150e-02</internalNodes>
          <leafValues>
            3.4878638386726379e-01 -1.8336755037307739e-01</leafValues></_>
        <_>
          <internalNodes>
            0 -1 429 -4.0562652051448822e-02</internalNodes>
          <leafValues>
            4.6779581904411316e-01 -1.1065582931041718e-01</leafValues></_>
        <_>
          <internalNodes>
            0 -1 379 -1.8816805677488446e-03</internalNodes>
          <leafValues>
            4.2410165071487427e-01 -1.2328950315713882e-01</leafValues></_>
        <_>
          <internalNodes>
            0 -1 114 1.0689374059438705e-02</internalNodes>
          <leafValues>
            8.8912345468997955e-02 -4.7216644883155823e-01</leafValues></_>
        <_>
          <internalNodes>
            0 -1 188 -9.2441891320049763e-04</internalNodes>
          <leafValues>
            -3.5852012038230896e-01 9.8923832178115845e-02</leafValues></_>
        <_>
          <internalNodes>
            0 -1 271 6.5379141597077250e-04</internalNodes>
          <leafValues>
            -1.2491557747125626e-01 3.2560449838638306e-01</leafValues></_>
        <_>
          <internalNodes>
            0 -1 342 -2.7317092753946781e-03</internalNodes>
          <leafValues>
            3.5087817907333374e-01 -1.2293390184640884e-01</leafValues></_>
        <_>
          <internalNodes>
            0 -1 57 -1.1100555956363678e-01</internalNodes>
          <leafValues>
            -7.6083660125732422e-01 5.5785495787858963e-02</leafValues></_>
        <_>
          <internalNodes>
            0 -1 22 2.7909398078918457e-02</internalNodes>
          <leafValues>
            -9.7908392548561096e-02 4.0433219075202942e-01</leafValues></_>
        <_>
          <internalNodes>
            0 -1 282 6.3766641542315483e-03</internalNodes>
          <leafValues>
            3.9815891534090042e-02 -8.8388466835021973e-01</leafValues></_>
        <_>
          <internalNodes>
            0 -1 293 1.4971353113651276e-02</internalNodes>
          <leafValues>
            3.7433896213769913e-02 -8.3497095108032227e-01</leafValues></_>
        <_>
          <internalNodes>
            0 -1 272 -1.1533424258232117e-03</internalNodes>
          <leafValues>
            3.4005832672119141e-01 -1.0644832253456116e-01</leafValues></_>
        <_>
          <internalNodes>
            0 -1 300 3.0514635727740824e-04</internalNodes>
          <leafValues>
            5.8182369917631149e-02 -6.0432136058807373e-01</leafValues></_>
        <_>
          <internalNodes>
            0 -1 336 4.5502657303586602e-04</internalNodes>
          <leafValues>
            4.0171507745981216e-02 -6.8696331977844238e-01</leafValues></_>
        <_>
          <internalNodes>
            0 -1 218 -9.9146296270191669e-04</internalNodes>
          <leafValues>
            3.3923202753067017e-01 -1.1308033019304276e-01</leafValues></_>
        <_>
          <internalNodes>
            0 -1 119 -2.4098802357912064e-02</internalNodes>
          <leafValues>
            -6.0383790731430054e-01 6.4464122056961060e-02</leafValues></_>
        <_>
          <internalNodes>
            0 -1 205 -2.5069504772545770e-05</internalNodes>
          <leafValues>
            1.8001215159893036e-01 -2.2116337716579437e-01</leafValues></_>
        <_>
          <internalNodes>
            0 -1 351 1.6463936772197485e-03</internalNodes>
          <leafValues>
            -1.2772119045257568e-01 2.5631648302078247e-01</leafValues></_>
        <_>
          <internalNodes>
            0 -1 436 2.9117599478922784e-04</internalNodes>
          <leafValues>
            -1.4278580248355865e-01 2.2803632915019989e-01</leafValues></_>
        <_>
          <internalNodes>
            0 -1 262 2.8526884852908552e-04</internalNodes>
          <leafValues>
            7.8540034592151642e-02 -4.6969336271286011e-01</leafValues></_>
        <_>
          <internalNodes>
            0 -1 34 9.0366173535585403e-03</internalNodes>
          <leafValues>
            -5.5109750479459763e-02 7.1301424503326416e-01</leafValues></_>
        <_>
          <internalNodes>
            0 -1 249 6.4825755544006824e-04</internalNodes>
          <leafValues>
            6.5006554126739502e-02 -5.8053523302078247e-01</leafValues></_>
        <_>
          <internalNodes>
            0 -1 176 1.4522373676300049e-03</internalNodes>
          <leafValues>
            -1.4798314869403839e-01 2.5801834464073181e-01</leafValues></_>
        <_>
          <internalNodes>
            0 -1 68 1.3770505785942078e-02</internalNodes>
          <leafValues>
            5.0333194434642792e-02 -6.6289186477661133e-01</leafValues></_>
        <_>
          <internalNodes>
            0 -1 357 2.6723025366663933e-03</internalNodes>
          <leafValues>
            4.3359421193599701e-02 -6.6940081119537354e-01</leafValues></_>
        <_>
          <internalNodes>
            0 -1 265 5.0912354141473770e-02</internalNodes>
          <leafValues>
            4.8498410731554031e-02 -6.3353520631790161e-01</leafValues></_>
        <_>
          <internalNodes>
            0 -1 292 -5.9654179494827986e-04</internalNodes>
          <leafValues>
            2.7866652607917786e-01 -1.2743750214576721e-01</leafValues></_>
        <_>
          <internalNodes>
            0 -1 307 7.9530279617756605e-04</internalNodes>
          <leafValues>
            -1.7830450832843781e-01 2.7764496207237244e-01</leafValues></_>
        <_>
          <internalNodes>
            0 -1 103 -1.2861569412052631e-03</internalNodes>
          <leafValues>
            -4.1871789097785950e-01 8.0333955585956573e-02</leafValues></_>
        <_>
          <internalNodes>
            0 -1 386 2.1365584689192474e-04</internalNodes>
          <leafValues>
            -1.9782736897468567e-01 1.8126609921455383e-01</leafValues></_>
        <_>
          <internalNodes>
            0 -1 285 1.0191225010203198e-04</internalNodes>
          <leafValues>
            9.3741320073604584e-02 -3.1986388564109802e-01</leafValues></_>
        <_>
          <internalNodes>
            0 -1 12 -7.2151253698393703e-04</internalNodes>
          <leafValues>
            4.8853811621665955e-01 -7.4092715978622437e-02</leafValues></_>
        <_>
          <internalNodes>
            0 -1 140 -3.4797709668055177e-04</internalNodes>
          <leafValues>
            -5.4214429855346680e-01 7.1631267666816711e-02</leafValues></_>
        <_>
          <internalNodes>
            0 -1 109 9.3272596132010221e-04</internalNodes>
          <leafValues>
            -1.2489539384841919e-01 2.7668085694313049e-01</leafValues></_>
        <_>
          <internalNodes>
            0 -1 26 -1.1821652296930552e-03</internalNodes>
          <leafValues>
            2.7953827381134033e-01 -1.2753862142562866e-01</leafValues></_></weakClassifiers></_>
    <!-- stage 6 -->
    <_>
      <maxWeakCount>41</maxWeakCount>
      <stageThreshold>-9.2467778921127319e-01</stageThreshold>
      <weakClassifiers>
        <_>
          <internalNodes>
            0 -1 301 -4.5038799726171419e-05</internalNodes>
          <leafValues>
            -3.0447331070899963e-01 3.9346984028816223e-01</leafValues></_>
        <_>
          <internalNodes>
            0 -1 254 3.2938830554485321e-03</internalNodes>
          <leafValues>
            -2.1255928277969360e-01 4.5325839519500732e-01</leafValues></_>
        <_>
          <internalNodes>
            0 -1 192 2.3854348808526993e-02</internalNodes>
          <leafValues>
            -1.1934116482734680e-01 5.6092613935470581e-01</leafValues></_>
        <_>
          <internalNodes>
            0 -1 180 -1.4248221181333065e-02</internalNodes>
          <leafValues>
            2.5982254743576050e-01 -2.6736703515052795e-01</leafValues></_>
        <_>
          <internalNodes>
            0 -1 257 -1.7073331400752068e-04</internalNodes>
          <leafValues>
            -4.4155594706535339e-01 1.1222612112760544e-01</leafValues></_>
        <_>
          <internalNodes>
            0 -1 144 -5.5037643760442734e-03</internalNodes>
          <leafValues>
            2.9197427630424500e-01 -1.6156537830829620e-01</leafValues></_>
        <_>
          <internalNodes>
            0 -1 146 -1.0463751852512360e-02</internalNodes>
          <leafValues>
            3.4221985936164856e-01 -1.7349949479103088e-01</leafValues></_>
        <_>
          <internalNodes>
            0 -1 24 6.8246582522988319e-03</internalNodes>
          <leafValues>
            -1.1478684097528458e-01 3.7642925977706909e-01</leafValues></_>
        <_>
          <internalNodes>
            0 -1 304 3.1606280244886875e-03</internalNodes>
          <leafValues>
            9.9915213882923126e-02 -4.2226165533065796e-01</leafValues></_>
        <_>
          <internalNodes>
            0 -1 409 -3.0243017245084047e-03</internalNodes>
          <leafValues>
            3.3143258094787598e-01 -1.3238884508609772e-01</leafValues></_>
        <_>
          <internalNodes>
            0 -1 324 -5.6942465016618371e-04</internalNodes>
          <leafValues>
            -5.9518504142761230e-01 6.5720036625862122e-02</leafValues></_>
        <_>
          <internalNodes>
            0 -1 59 -1.5670802444219589e-02</internalNodes>
          <leafValues>
            -6.4160150289535522e-01 5.6386668235063553e-02</leafValues></_>
        <_>
          <internalNodes>
            0 -1 165 1.8154969438910484e-04</internalNodes>
          <leafValues>
            -1.6266946494579315e-01 2.3164685070514679e-01</leafValues></_>
        <_>
          <internalNodes>
            0 -1 221 1.6906748060137033e-03</internalNodes>
          <leafValues>
            6.7741788923740387e-02 -4.8904210329055786e-01</leafValues></_>
        <_>
          <internalNodes>
            0 -1 147 -1.7018634825944901e-03</internalNodes>
          <leafValues>
            3.1119284033775330e-01 -1.2011428922414780e-01</leafValues></_>
        <_>
          <internalNodes>
            0 -1 21 7.5924107804894447e-03</internalNodes>
          <leafValues>
            -7.8185476362705231e-02 5.1822185516357422e-01</leafValues></_>
        <_>
          <internalNodes>
            0 -1 359 -8.0717699602246284e-03</internalNodes>
          <leafValues>
            3.7200561165809631e-01 -9.6573919057846069e-02</leafValues></_>
        <_>
          <internalNodes>
            0 -1 394 1.2390678748488426e-03</internalNodes>
          <leafValues>
            -1.1459785699844360e-01 2.7934855222702026e-01</leafValues></_>
        <_>
          <internalNodes>
            0 -1 133 6.6902278922498226e-04</internalNodes>
          <leafValues>
            -1.2740841507911682e-01 2.5362396240234375e-01</leafValues></_>
        <_>
          <internalNodes>
            0 -1 142 -1.2926121708005667e-03</internalNodes>
          <leafValues>
            -4.8751693964004517e-01 6.9966293871402740e-02</leafValues></_>
        <_>
          <internalNodes>
            0 -1 66 3.2256739214062691e-03</internalNodes>
          <leafValues>
            6.5972641110420227e-02 -5.4178649187088013e-01</leafValues></_>
        <_>
          <internalNodes>
            0 -1 238 -1.3796258717775345e-03</internalNodes>
          <leafValues>
            -7.3064005374908447e-01 3.9753213524818420e-02</leafValues></_>
        <_>
          <internalNodes>
            0 -1 268 -4.0481914766132832e-04</internalNodes>
          <leafValues>
            2.4229905009269714e-01 -1.4675065875053406e-01</leafValues></_>
        <_>
          <internalNodes>
            0 -1 35 2.4372215848416090e-03</internalNodes>
          <leafValues>
            -7.6184228062629700e-02 4.4709521532058716e-01</leafValues></_>
        <_>
          <internalNodes>
            0 -1 228 -2.1126701030880213e-03</internalNodes>
          <leafValues>
            -5.8105283975601196e-01 6.3507974147796631e-02</leafValues></_>
        <_>
          <internalNodes>
            0 -1 40 -3.0222956091165543e-02</internalNodes>
          <leafValues>
            -4.7038474678993225e-01 6.8779498338699341e-02</leafValues></_>
        <_>
          <internalNodes>
            0 -1 76 -4.1443298687227070e-04</internalNodes>
          <leafValues>
            2.8075414896011353e-01 -1.3441914319992065e-01</leafValues></_>
        <_>
          <internalNodes>
            0 -1 269 -1.0263719595968723e-03</internalNodes>
          <leafValues>
            4.7497525811195374e-01 -7.3233619332313538e-02</leafValues></_>
        <_>
          <internalNodes>
            0 -1 443 -2.0295333117246628e-02</internalNodes>
          <leafValues>
            5.2195537090301514e-01 -6.4393736422061920e-02</leafValues></_>
        <_>
          <internalNodes>
            0 -1 241 -7.7163763344287872e-03</internalNodes>
          <leafValues>
            -5.1687610149383545e-01 7.4496261775493622e-02</leafValues></_>
        <_>
          <internalNodes>
            0 -1 247 3.4186020493507385e-03</internalNodes>
          <leafValues>
            3.8048259913921356e-02 -8.0520075559616089e-01</leafValues></_>
        <_>
          <internalNodes>
            0 -1 399 -3.6166792269796133e-03</internalNodes>
          <leafValues>
            4.3322163820266724e-01 -8.3264149725437164e-02</leafValues></_>
        <_>
          <internalNodes>
            0 -1 278 1.3255712110549212e-03</internalNodes>
          <leafValues>
            -9.1955274343490601e-02 3.6596792936325073e-01</leafValues></_>
        <_>
          <internalNodes>
            0 -1 129 2.1311878226697445e-03</internalNodes>
          <leafValues>
            6.5415099263191223e-02 -5.5994737148284912e-01</leafValues></_>
        <_>
          <internalNodes>
            0 -1 338 1.0238750837743282e-03</internalNodes>
          <leafValues>
            -1.4254721999168396e-01 2.5602069497108459e-01</leafValues></_>
        <_>
          <internalNodes>
            0 -1 121 -3.0343832448124886e-02</internalNodes>
          <leafValues>
            -6.2290215492248535e-01 6.1180215328931808e-02</leafValues></_>
        <_>
          <internalNodes>
            0 -1 222 -3.5314174601808190e-04</internalNodes>
          <leafValues>
            -3.7501451373100281e-01 8.3692207932472229e-02</leafValues></_>
        <_>
          <internalNodes>
            0 -1 360 4.4045391405234113e-05</internalNodes>
          <leafValues>
            -1.8822774291038513e-01 1.7880894243717194e-01</leafValues></_>
        <_>
          <internalNodes>
            0 -1 416 4.7413013817276806e-05</internalNodes>
          <leafValues>
            -1.8731018900871277e-01 1.8714104592800140e-01</leafValues></_>
        <_>
          <internalNodes>
            0 -1 280 1.9112267182208598e-04</internalNodes>
          <leafValues>
            9.4521440565586090e-02 -3.6095282435417175e-01</leafValues></_>
        <_>
          <internalNodes>
            0 -1 5 -1.6086904797703028e-03</internalNodes>
          <leafValues>
            3.9399859309196472e-01 -9.4906173646450043e-02</leafValues></_></weakClassifiers></_>
    <!-- stage 7 -->
    <_>
      <maxWeakCount>46</maxWeakCount>
      <stageThreshold>-9.8692727088928223e-01</stageThreshold>
      <weakClassifiers>
        <_>
          <internalNodes>
            0 -1 0 3.8552526384592056e-03</internalNodes>
          <leafValues>
            -7.8618660569190979e-02 5.3292363882064819e-01</leafValues></_>
        <_>
          <internalNodes>
            0 -1 185 -3.1390885123983026e-04</internalNodes>
          <leafValues>
            -5.1976108551025391e-01 1.5560519695281982e-01</leafValues></_>
        <_>
          <internalNodes>
            0 -1 437 -6.3587855547666550e-03</internalNodes>
          <leafValues>
            3.5803246498107910e-01 -1.6449391841888428e-01</leafValues></_>
        <_>
          <internalNodes>
            0 -1 189 1.2442716956138611e-01</internalNodes>
          <leafValues>
            -8.6521141231060028e-02 5.9775966405868530e-01</leafValues></_>
        <_>
          <internalNodes>
            0 -1 299 -5.9816837310791016e-03</internalNodes>
          <leafValues>
            2.3334419727325439e-01 -2.6214265823364258e-01</leafValues></_>
        <_>
          <internalNodes>
            0 -1 428 -1.3193828053772449e-03</internalNodes>
          <leafValues>
            -2.4679556488990784e-01 1.6512101888656616e-01</leafValues></_>
        <_>
          <internalNodes>
            0 -1 302 -1.0167569853365421e-02</internalNodes>
          <leafValues>
            2.1623459458351135e-01 -2.2107551991939545e-01</leafValues></_>
        <_>
          <internalNodes>
            0 -1 48 1.3067654799669981e-03</internalNodes>
          <leafValues>
            -9.4229035079479218e-02 3.5726270079612732e-01</leafValues></_>
        <_>
          <internalNodes>
            0 -1 431 -1.1951275169849396e-02</internalNodes>
          <leafValues>
            -6.8651783466339111e-01 4.1592378169298172e-02</leafValues></_>
        <_>
          <internalNodes>
            0 -1 55 1.5518200397491455e-01</internalNodes>
          <leafValues>
            3.6610212177038193e-02 -8.7170577049255371e-01</leafValues></_>
        <_>
          <internalNodes>
            0 -1 329 -1.0553048923611641e-04</internalNodes>
          <leafValues>
            3.0883499979972839e-01 -1.1809226125478745e-01</leafValues></_>
        <_>
          <internalNodes>
            0 -1 422 -5.6420806795358658e-03</internalNodes>
          <leafValues>
            3.8926902413368225e-01 -9.5903940498828888e-02</leafValues></_>
        <_>
          <internalNodes>
            0 -1 243 -3.2153348438441753e-03</internalNodes>
          <leafValues>
            -5.3146642446517944e-01 6.4470075070858002e-02</leafValues></_>
        <_>
          <internalNodes>
            0 -1 378 -1.0548151331022382e-03</internalNodes>
          <leafValues>
            -7.4006086587905884e-01 3.7448346614837646e-02</leafValues></_>
        <_>
          <internalNodes>
            0 -1 110 1.8118200823664665e-03</internalNodes>
          <leafValues>
            -7.7391348779201508e-02 4.6138244867324829e-01</leafValues></_>
        <_>
          <internalNodes>
            0 -1 274 8.7471154984086752e-04</internalNodes>
          <leafValues>
            -7.9733461141586304e-02 4.1588523983955383e-01</leafValues></_>
        <_>
          <internalNodes>
            0 -1 187 2.2288959007710218e-03</internalNodes>
          <leafValues>
            9.2524819076061249e-02 -4.3067649006843567e-01</leafValues></_>
        <_>
          <internalNodes>
            0 -1 245 -6.5650136093609035e-05</internalNodes>
          <leafValues>
            1.9089299440383911e-01 -1.9324903190135956e-01</leafValues></_>
        <_>
          <internalNodes>
            0 -1 367 2.3148823529481888e-03</internalNodes>
          <leafValues>
            4.6677518635988235e-02 -7.2816568613052368e-01</leafValues></_>
        <_>
          <internalNodes>
            0 -1 116 5.7862750254571438e-03</internalNodes>
          <leafValues>
            8.2071162760257721e-02 -3.9463344216346741e-01</leafValues></_>
        <_>
          <internalNodes>
            0 -1 179 1.0265420132782310e-04</internalNodes>
          <leafValues>
            -1.7603851854801178e-01 1.7512649297714233e-01</leafValues></_>
        <_>
          <internalNodes>
            0 -1 111 -3.3190625254064798e-04</internalNodes>
          <leafValues>
            2.9069170355796814e-01 -1.1877072602510452e-01</leafValues></_>
        <_>
          <internalNodes>
            0 -1 382 8.2981167361140251e-04</internalNodes>
          <leafValues>
            -1.0577906668186188e-01 2.7796459197998047e-01</leafValues></_>
        <_>
          <internalNodes>
            0 -1 283 1.6511913854628801e-03</internalNodes>
          <leafValues>
            5.6636232882738113e-02 -5.5342000722885132e-01</leafValues></_>
        <_>
          <internalNodes>
            0 -1 204 2.9654603451490402e-02</internalNodes>
          <leafValues>
            4.5184094458818436e-02 -6.6070789098739624e-01</leafValues></_>
        <_>
          <internalNodes>
            0 -1 128 2.0626632031053305e-03</internalNodes>
          <leafValues>
            -1.2655481696128845e-01 2.6898759603500366e-01</leafValues></_>
        <_>
          <internalNodes>
            0 -1 160 -3.7983565125614405e-03</internalNodes>
          <leafValues>
            2.5353839993476868e-01 -1.6755519807338715e-01</leafValues></_>
        <_>
          <internalNodes>
            0 -1 350 4.4608997995965183e-04</internalNodes>
          <leafValues>
            -1.4598879218101501e-01 2.1800501644611359e-01</leafValues></_>
        <_>
          <internalNodes>
            0 -1 411 3.2944949343800545e-03</internalNodes>
          <leafValues>
            -8.1107370555400848e-02 4.1210365295410156e-01</leafValues></_>
        <_>
          <internalNodes>
            0 -1 240 1.7775810556486249e-03</internalNodes>
          <leafValues>
            5.8603063225746155e-02 -6.3958901166915894e-01</leafValues></_>
        <_>
          <internalNodes>
            0 -1 193 -2.0219489932060242e-02</internalNodes>
          <leafValues>
            -5.8711439371109009e-01 4.5399535447359085e-02</leafValues></_>
        <_>
          <internalNodes>
            0 -1 393 1.8124922644346952e-03</internalNodes>
          <leafValues>
            -1.0860273241996765e-01 3.0025702714920044e-01</leafValues></_>
        <_>
          <internalNodes>
            0 -1 296 -4.3694403022527695e-02</internalNodes>
          <leafValues>
            -8.7533533573150635e-01 4.1264105588197708e-02</leafValues></_>
        <_>
          <internalNodes>
            0 -1 397 -2.2425155621021986e-03</internalNodes>
          <leafValues>
            -7.5017142295837402e-01 2.9296074062585831e-02</leafValues></_>
        <_>
          <internalNodes>
            0 -1 446 5.4289749823510647e-03</internalNodes>
          <leafValues>
            -1.0681126266717911e-01 2.9869571328163147e-01</leafValues></_>
        <_>
          <internalNodes>
            0 -1 260 9.5069321105256677e-04</internalNodes>
          <leafValues>
            5.7750727981328964e-02 -5.6578111648559570e-01</leafValues></_>
        <_>
          <internalNodes>
            0 -1 100 3.6033982178196311e-04</internalNodes>
          <leafValues>
            -1.1247242987155914e-01 2.8127950429916382e-01</leafValues></_>
        <_>
          <internalNodes>
            0 -1 47 -1.5125110745429993e-02</internalNodes>
          <leafValues>
            3.3850708603858948e-01 -1.0435036569833755e-01</leafValues></_>
        <_>
          <internalNodes>
            0 -1 115 9.0998582891188562e-05</internalNodes>
          <leafValues>
            -2.0178270339965820e-01 1.7134302854537964e-01</leafValues></_>
        <_>
          <internalNodes>
            0 -1 11 1.0909298807382584e-01</internalNodes>
          <leafValues>
            -6.2014192342758179e-02 5.3879100084304810e-01</leafValues></_>
        <_>
          <internalNodes>
            0 -1 244 1.3713445514440536e-03</internalNodes>
          <leafValues>
            9.8234303295612335e-02 -3.8025769591331482e-01</leafValues></_>
        <_>
          <internalNodes>
            0 -1 159 8.6868589278310537e-04</internalNodes>
          <leafValues>
            1.1117573082447052e-01 -2.8728395700454712e-01</leafValues></_>
        <_>
          <internalNodes>
            0 -1 321 2.7615982107818127e-03</internalNodes>
          <leafValues>
            -1.2784451246261597e-01 2.7074512839317322e-01</leafValues></_>
        <_>
          <internalNodes>
            0 -1 412 1.8123051268048584e-04</internalNodes>
          <leafValues>
            -1.4714968204498291e-01 2.0898050069808960e-01</leafValues></_>
        <_>
          <internalNodes>
            0 -1 391 2.3841530084609985e-02</internalNodes>
          <leafValues>
            6.8633988499641418e-02 -5.1112568378448486e-01</leafValues></_>
        <_>
          <internalNodes>
            0 -1 432 2.6478467043489218e-04</internalNodes>
          <leafValues>
            1.4848875999450684e-01 -2.1137216687202454e-01</leafValues></_></weakClassifiers></_>
    <!-- stage 8 -->
    <_>
      <maxWeakCount>38</maxWeakCount>
      <stageThreshold>-9.0220111608505249e-01</stageThreshold>
      <weakClassifiers>
        <_>
          <internalNodes>
            0 -1 53 2.3871941491961479e-02</internalNodes>
          <leafValues>
            -4.8812665045261383e-02 5.8333331346511841e-01</leafValues></_>
        <_>
          <internalNodes>
            0 -1 259 -7.6807365985587239e-04</internalNodes>
          <leafValues>
            -4.6877431869506836e-01 1.6691400110721588e-01</leafValues></_>
        <_>
          <internalNodes>
            0 -1 258 7.2465953417122364e-04</internalNodes>
          <leafValues>
            1.0538709163665771e-01 -5.7076054811477661e-01</leafValues></_>
        <_>
          <internalNodes>
            0 -1 224 1.3763582706451416e-01</internalNodes>
          <leafValues>
            -1.0217691212892532e-01 5.6585478782653809e-01</leafValues></_>
        <_>
          <internalNodes>
            0 -1 90 8.2950014621019363e-03</internalNodes>
          <leafValues>
            -1.5648856759071350e-01 2.8720211982727051e-01</leafValues></_>
        <_>
          <internalNodes>
            0 -1 389 7.7901047188788652e-04</internalNodes>
          <leafValues>
            7.6875016093254089e-02 -5.1455950736999512e-01</leafValues></_>
        <_>
          <internalNodes>
            0 -1 421 2.4643557844683528e-04</internalNodes>
          <leafValues>
            -1.6981784999370575e-01 2.4960187077522278e-01</leafValues></_>
        <_>
          <internalNodes>
            0 -1 438 2.2697590757161379e-03</internalNodes>
          <leafValues>
            -1.6534867882728577e-01 2.4271085858345032e-01</leafValues></_>
        <_>
          <internalNodes>
            0 -1 395 2.1799574606120586e-03</internalNodes>
          <leafValues>
            -8.9632950723171234e-02 4.1662114858627319e-01</leafValues></_>
        <_>
          <internalNodes>
            0 -1 358 5.6523695820942521e-04</internalNodes>
          <leafValues>
            -8.4645651280879974e-02 4.0286833047866821e-01</leafValues></_>
        <_>
          <internalNodes>
            0 -1 70 -5.8687038719654083e-02</internalNodes>
          <leafValues>
            -7.2102749347686768e-01 5.4987836629152298e-02</leafValues></_>
        <_>
          <internalNodes>
            0 -1 315 3.2649555942043662e-04</internalNodes>
          <leafValues>
            -1.3513526320457458e-01 3.1917020678520203e-01</leafValues></_>
        <_>
          <internalNodes>
            0 -1 312 4.5870614121668041e-04</internalNodes>
          <leafValues>
            -1.8007288873195648e-01 2.6758977770805359e-01</leafValues></_>
        <_>
          <internalNodes>
            0 -1 403 -1.1763197835534811e-03</internalNodes>
          <leafValues>
            -4.6990770101547241e-01 9.2046186327934265e-02</leafValues></_>
        <_>
          <internalNodes>
            0 -1 364 -7.4329157359898090e-03</internalNodes>
          <leafValues>
            2.6961246132850647e-01 -1.4905127882957458e-01</leafValues></_>
        <_>
          <internalNodes>
            0 -1 368 3.1394466757774353e-02</internalNodes>
          <leafValues>
            -9.0885199606418610e-02 4.5413166284561157e-01</leafValues></_>
        <_>
          <internalNodes>
            0 -1 45 1.6889533726498485e-03</internalNodes>
          <leafValues>
            -1.7854966223239899e-01 1.9003848731517792e-01</leafValues></_>
        <_>
          <internalNodes>
            0 -1 419 1.7978020478039980e-03</internalNodes>
          <leafValues>
            6.3281223177909851e-02 -5.8075511455535889e-01</leafValues></_>
        <_>
          <internalNodes>
            0 -1 77 -2.4467648472636938e-03</internalNodes>
          <leafValues>
            3.0408224463462830e-01 -1.2241255491971970e-01</leafValues></_>
        <_>
          <internalNodes>
            0 -1 58 -3.0586048960685730e-02</internalNodes>
          <leafValues>
            -6.7109024524688721e-01 5.6270223110914230e-02</leafValues></_>
        <_>
          <internalNodes>
            0 -1 131 9.7823256510309875e-05</internalNodes>
          <leafValues>
            -1.6237469017505646e-01 2.4053846299648285e-01</leafValues></_>
        <_>
          <internalNodes>
            0 -1 156 3.9196144789457321e-02</internalNodes>
          <leafValues>
            4.3713595718145370e-02 -8.0840128660202026e-01</leafValues></_>
        <_>
          <internalNodes>
            0 -1 314 -5.8760177344083786e-03</internalNodes>
          <leafValues>
            -6.0074716806411743e-01 4.4783070683479309e-02</leafValues></_>
        <_>
          <internalNodes>
            0 -1 162 -1.0460519697517157e-03</internalNodes>
          <leafValues>
            3.6949172616004944e-01 -9.4239264726638794e-02</leafValues></_>
        <_>
          <internalNodes>
            0 -1 138 3.1867809593677521e-03</internalNodes>
          <leafValues>
            6.6756337881088257e-02 -5.2738815546035767e-01</leafValues></_>
        <_>
          <internalNodes>
            0 -1 340 3.6397465737536550e-04</internalNodes>
          <leafValues>
            -9.0567260980606079e-02 3.8119167089462280e-01</leafValues></_>
        <_>
          <internalNodes>
            0 -1 323 -1.3719743583351374e-03</internalNodes>
          <leafValues>
            -4.3819066882133484e-01 8.4614530205726624e-02</leafValues></_>
        <_>
          <internalNodes>
            0 -1 51 7.9696805914863944e-04</internalNodes>
          <leafValues>
            1.0124794393777847e-01 -3.3165600895881653e-01</leafValues></_>
        <_>
          <internalNodes>
            0 -1 369 -2.8203137218952179e-02</internalNodes>
          <leafValues>
            2.7963706851005554e-01 -1.1726290732622147e-01</leafValues></_>
        <_>
          <internalNodes>
            0 -1 261 3.4458471927791834e-03</internalNodes>
          <leafValues>
            7.9054005444049835e-02 -4.5178505778312683e-01</leafValues></_>
        <_>
          <internalNodes>
            0 -1 442 -1.1369874700903893e-02</internalNodes>
          <leafValues>
            5.5397593975067139e-01 -6.6210553050041199e-02</leafValues></_>
        <_>
          <internalNodes>
            0 -1 32 -8.3775573875755072e-04</internalNodes>
          <leafValues>
            4.0237778425216675e-01 -7.4738465249538422e-02</leafValues></_>
        <_>
          <internalNodes>
            0 -1 219 8.6532978457398713e-05</internalNodes>
          <leafValues>
            -1.8741254508495331e-01 1.7158688604831696e-01</leafValues></_>
        <_>
          <internalNodes>
            0 -1 38 -4.4062379747629166e-03</internalNodes>
          <leafValues>
            -6.2549674510955811e-01 5.1582336425781250e-02</leafValues></_>
        <_>
          <internalNodes>
            0 -1 80 -2.7236831374466419e-03</internalNodes>
          <leafValues>
            -5.8024573326110840e-01 4.7895014286041260e-02</leafValues></_>
        <_>
          <internalNodes>
            0 -1 91 -2.1158681192900985e-05</internalNodes>
          <leafValues>
            2.0583991706371307e-01 -1.5763565897941589e-01</leafValues></_>
        <_>
          <internalNodes>
            0 -1 199 -1.6451218398287892e-03</internalNodes>
          <leafValues>
            -7.8096401691436768e-01 4.2804218828678131e-02</leafValues></_>
        <_>
          <internalNodes>
            0 -1 152 4.6948269009590149e-02</internalNodes>
          <leafValues>
            4.7894608229398727e-02 -5.6351047754287720e-01</leafValues></_></weakClassifiers></_>
    <!-- stage 9 -->
    <_>
      <maxWeakCount>41</maxWeakCount>
      <stageThreshold>-8.0952483415603638e-01</stageThreshold>
      <weakClassifiers>
        <_>
          <internalNodes>
            0 -1 216 7.7821547165513039e-03</internalNodes>
          <leafValues>
            1.0925819166004658e-02 6.3206309080123901e-01</leafValues></_>
        <_>
          <internalNodes>
            0 -1 154 6.8513847887516022e-02</internalNodes>
          <leafValues>
            -8.8787630200386047e-02 5.5498510599136353e-01</leafValues></_>
        <_>
          <internalNodes>
            0 -1 7 1.4608769118785858e-01</internalNodes>
          <leafValues>
            -1.7892731726169586e-01 3.8274198770523071e-01</leafValues></_>
        <_>
          <internalNodes>
            0 -1 74 -9.1629298403859138e-03</internalNodes>
          <leafValues>
            3.9094924926757812e-01 -1.4281602203845978e-01</leafValues></_>
        <_>
          <internalNodes>
            0 -1 63 3.2712507992982864e-02</internalNodes>
          <leafValues>
            -1.2089242041110992e-01 3.7130084633827209e-01</leafValues></_>
        <_>
          <internalNodes>
            0 -1 201 -7.9436425585299730e-04</internalNodes>
          <leafValues>
            3.2127848267555237e-01 -1.1864856630563736e-01</leafValues></_>
        <_>
          <internalNodes>
            0 -1 198 8.1654603127390146e-04</internalNodes>
          <leafValues>
            -1.1761466413736343e-01 3.3451089262962341e-01</leafValues></_>
        <_>
          <internalNodes>
            0 -1 72 6.3529005274176598e-03</internalNodes>
          <leafValues>
            6.5843440592288971e-02 -6.8897134065628052e-01</leafValues></_>
        <_>
          <internalNodes>
            0 -1 161 1.8041126430034637e-02</internalNodes>
          <leafValues>
            3.8694944232702255e-02 -7.4354451894760132e-01</leafValues></_>
        <_>
          <internalNodes>
            0 -1 377 -1.0320998262614012e-03</internalNodes>
          <leafValues>
            3.0959892272949219e-01 -1.0860554128885269e-01</leafValues></_>
        <_>
          <internalNodes>
            0 -1 113 6.3816213514655828e-04</internalNodes>
          <leafValues>
            7.2176739573478699e-02 -3.9984443783760071e-01</leafValues></_>
        <_>
          <internalNodes>
            0 -1 311 -1.0740575380623341e-03</internalNodes>
          <leafValues>
            3.2251074910163879e-01 -9.7256094217300415e-02</leafValues></_>
        <_>
          <internalNodes>
            0 -1 388 -1.7572892829775810e-03</internalNodes>
          <leafValues>
            -6.5427523851394653e-01 4.6611092984676361e-02</leafValues></_>
        <_>
          <internalNodes>
            0 -1 365 4.9439510330557823e-03</internalNodes>
          <leafValues>
            5.2588153630495071e-02 -5.4396724700927734e-01</leafValues></_>
        <_>
          <internalNodes>
            0 -1 41 -2.7477711439132690e-01</internalNodes>
          <leafValues>
            -6.5053534507751465e-01 4.3841246515512466e-02</leafValues></_>
        <_>
          <internalNodes>
            0 -1 288 9.9319708533585072e-04</internalNodes>
          <leafValues>
            -1.1052054911851883e-01 3.2575255632400513e-01</leafValues></_>
        <_>
          <internalNodes>
            0 -1 333 6.9809924752917141e-05</internalNodes>
          <leafValues>
            1.2090246379375458e-01 -3.1185224652290344e-01</leafValues></_>
        <_>
          <internalNodes>
            0 -1 330 -8.8743463857099414e-04</internalNodes>
          <leafValues>
            3.3417829871177673e-01 -1.0763106495141983e-01</leafValues></_>
        <_>
          <internalNodes>
            0 -1 297 2.1487259073182940e-04</internalNodes>
          <leafValues>
            -1.8432086706161499e-01 1.9160573184490204e-01</leafValues></_>
        <_>
          <internalNodes>
            0 -1 408 -4.2603281326591969e-03</internalNodes>
          <leafValues>
            4.4707107543945312e-01 -7.8682266175746918e-02</leafValues></_>
        <_>
          <internalNodes>
            0 -1 190 9.9352933466434479e-04</internalNodes>
          <leafValues>
            9.3308396637439728e-02 -3.6255395412445068e-01</leafValues></_>
        <_>
          <internalNodes>
            0 -1 89 6.1278918292373419e-04</internalNodes>
          <leafValues>
            -1.5995444357395172e-01 2.0933327078819275e-01</leafValues></_>
        <_>
          <internalNodes>
            0 -1 273 -1.0489329724805430e-04</internalNodes>
          <leafValues>
            2.9438629746437073e-01 -1.0989791899919510e-01</leafValues></_>
        <_>
          <internalNodes>
            0 -1 317 1.0963307693600655e-02</internalNodes>
          <leafValues>
            6.2897153198719025e-02 -5.2318537235260010e-01</leafValues></_>
        <_>
          <internalNodes>
            0 -1 197 -1.1237103492021561e-02</internalNodes>
          <leafValues>
            -6.4309847354888916e-01 5.2800267934799194e-02</leafValues></_>
        <_>
          <internalNodes>
            0 -1 404 2.1029501222074032e-03</internalNodes>
          <leafValues>
            4.7412086278200150e-02 -6.1396515369415283e-01</leafValues></_>
        <_>
          <internalNodes>
            0 -1 370 4.7156325308606029e-04</internalNodes>
          <leafValues>
            -1.7407670617103577e-01 1.7774499952793121e-01</leafValues></_>
        <_>
          <internalNodes>
            0 -1 135 3.0374986818060279e-04</internalNodes>
          <leafValues>
            -1.6337558627128601e-01 1.9068852066993713e-01</leafValues></_>
        <_>
          <internalNodes>
            0 -1 65 3.3644697396084666e-04</internalNodes>
          <leafValues>
            -1.3989625871181488e-01 2.4846599996089935e-01</leafValues></_>
        <_>
          <internalNodes>
            0 -1 405 1.1293127201497555e-02</internalNodes>
          <leafValues>
            -9.9759280681610107e-02 3.3677414059638977e-01</leafValues></_>
        <_>
          <internalNodes>
            0 -1 157 1.2147106230258942e-02</internalNodes>
          <leafValues>
            6.0392823070287704e-02 -6.2536704540252686e-01</leafValues></_>
        <_>
          <internalNodes>
            0 -1 4 -5.3585210116580129e-04</internalNodes>
          <leafValues>
            5.4213738441467285e-01 -6.6819369792938232e-02</leafValues></_>
        <_>
          <internalNodes>
            0 -1 294 -3.4330135677009821e-03</internalNodes>
          <leafValues>
            -8.0354338884353638e-01 4.4604692608118057e-02</leafValues></_>
        <_>
          <internalNodes>
            0 -1 420 7.8126019798219204e-04</internalNodes>
          <leafValues>
            -1.0307055711746216e-01 3.2285824418067932e-01</leafValues></_>
        <_>
          <internalNodes>
            0 -1 414 1.5497200656682253e-03</internalNodes>
          <leafValues>
            7.0991411805152893e-02 -4.5840689539909363e-01</leafValues></_>
        <_>
          <internalNodes>
            0 -1 107 -1.2227702245581895e-04</internalNodes>
          <leafValues>
            1.8711705505847931e-01 -1.6620199382305145e-01</leafValues></_>
        <_>
          <internalNodes>
            0 -1 440 1.6150372102856636e-03</internalNodes>
          <leafValues>
            -5.9237096458673477e-02 5.2114164829254150e-01</leafValues></_>
        <_>
          <internalNodes>
            0 -1 101 -3.6930022179149091e-04</internalNodes>
          <leafValues>
            2.9151695966720581e-01 -1.0062602907419205e-01</leafValues></_>
        <_>
          <internalNodes>
            0 -1 346 5.1812087185680866e-03</internalNodes>
          <leafValues>
            5.1061686128377914e-02 -6.9425493478775024e-01</leafValues></_>
        <_>
          <internalNodes>
            0 -1 424 5.3935935720801353e-03</internalNodes>
          <leafValues>
            3.8088608533143997e-02 -6.8104273080825806e-01</leafValues></_>
        <_>
          <internalNodes>
            0 -1 42 -5.5072117596864700e-02</internalNodes>
          <leafValues>
            2.4225100874900818e-01 -1.3563622534275055e-01</leafValues></_></weakClassifiers></_>
    <!-- stage 10 -->
    <_>
      <maxWeakCount>45</maxWeakCount>
      <stageThreshold>-8.9409142732620239e-01</stageThreshold>
      <weakClassifiers>
        <_>
          <internalNodes>
            0 -1 1 8.4186702966690063e-02</internalNodes>
          <leafValues>
            -9.1614909470081329e-02 5.0990098714828491e-01</leafValues></_>
        <_>
          <internalNodes>
            0 -1 14 1.2540871277451515e-02</internalNodes>
          <leafValues>
            -9.4755299389362335e-02 5.1428282260894775e-01</leafValues></_>
        <_>
          <internalNodes>
            0 -1 441 -1.8882511649280787e-03</internalNodes>
          <leafValues>
            4.4353693723678589e-01 -1.1254020035266876e-01</leafValues></_>
        <_>
          <internalNodes>
            0 -1 98 8.0159366130828857e-02</internalNodes>
          <leafValues>
            -1.0660668462514877e-01 4.8370626568794250e-01</leafValues></_>
        <_>
          <internalNodes>
            0 -1 153 -2.7301583439111710e-02</internalNodes>
          <leafValues>
            2.6730972528457642e-01 -2.4629648029804230e-01</leafValues></_>
        <_>
          <internalNodes>
            0 -1 195 -5.4834166076034307e-04</internalNodes>
          <leafValues>
            4.0704056620597839e-01 -9.4674259424209595e-02</leafValues></_>
        <_>
          <internalNodes>
            0 -1 56 5.8744673151522875e-04</internalNodes>
          <leafValues>
            1.2367814034223557e-01 -3.3211970329284668e-01</leafValues></_>
        <_>
          <internalNodes>
            0 -1 166 -7.9523231834173203e-03</internalNodes>
          <leafValues>
            -8.3734786510467529e-01 3.5442497581243515e-02</leafValues></_>
        <_>
          <internalNodes>
            0 -1 196 1.0236602975055575e-03</internalNodes>
          <leafValues>
            -1.0448916256427765e-01 3.6408635973930359e-01</leafValues></_>
        <_>
          <internalNodes>
            0 -1 287 4.7467059630434960e-05</internalNodes>
          <leafValues>
            -2.2140313684940338e-01 1.7666336894035339e-01</leafValues></_>
        <_>
          <internalNodes>
            0 -1 332 5.8602617355063558e-04</internalNodes>
          <leafValues>
            8.7183266878128052e-02 -4.6744248270988464e-01</leafValues></_>
        <_>
          <internalNodes>
            0 -1 234 7.2153389919549227e-04</internalNodes>
          <leafValues>
            -1.4791062474250793e-01 3.0655100941658020e-01</leafValues></_>
        <_>
          <internalNodes>
            0 -1 96 1.3037922792136669e-02</internalNodes>
          <leafValues>
            6.5645642578601837e-02 -5.8530360460281372e-01</leafValues></_>
        <_>
          <internalNodes>
            0 -1 313 1.5840111300349236e-02</internalNodes>
          <leafValues>
            3.9038427174091339e-02 -8.2939028739929199e-01</leafValues></_>
        <_>
          <internalNodes>
            0 -1 87 1.5027407556772232e-02</internalNodes>
          <leafValues>
            -1.2654325366020203e-01 3.0390259623527527e-01</leafValues></_>
        <_>
          <internalNodes>
            0 -1 61 -2.2647038567811251e-03</internalNodes>
          <leafValues>
            -6.1939811706542969e-01 5.5781591683626175e-02</leafValues></_>
        <_>
          <internalNodes>
            0 -1 295 1.6993931494653225e-03</internalNodes>
          <leafValues>
            -1.4750027656555176e-01 2.3603780567646027e-01</leafValues></_>
        <_>
          <internalNodes>
            0 -1 31 5.0764232873916626e-02</internalNodes>
          <leafValues>
            1.0860960930585861e-01 -4.1513296961784363e-01</leafValues></_>
        <_>
          <internalNodes>
            0 -1 387 5.9643838554620743e-02</internalNodes>
          <leafValues>
            3.8949918001890182e-02 -7.0850872993469238e-01</leafValues></_>
        <_>
          <internalNodes>
            0 -1 86 4.4358804821968079e-02</internalNodes>
          <leafValues>
            4.7454625368118286e-02 -5.9332257509231567e-01</leafValues></_>
        <_>
          <internalNodes>
            0 -1 335 -3.6960281431674957e-02</internalNodes>
          <leafValues>
            -6.6624921560287476e-01 4.3866787105798721e-02</leafValues></_>
        <_>
          <internalNodes>
            0 -1 375 1.6183362458832562e-04</internalNodes>
          <leafValues>
            -1.8992558121681213e-01 1.7360363900661469e-01</leafValues></_>
        <_>
          <internalNodes>
            0 -1 225 1.8160948820877820e-04</internalNodes>
          <leafValues>
            1.1695031076669693e-01 -2.6749259233474731e-01</leafValues></_>
        <_>
          <internalNodes>
            0 -1 445 1.4570683706551790e-03</internalNodes>
          <leafValues>
            -8.2356192171573639e-02 4.0950167179107666e-01</leafValues></_>
        <_>
          <internalNodes>
            0 -1 305 -1.6500190831720829e-03</internalNodes>
          <leafValues>
            4.6265888214111328e-01 -6.9562070071697235e-02</leafValues></_>
        <_>
          <internalNodes>
            0 -1 356 1.2587873497977853e-03</internalNodes>
          <leafValues>
            -8.4709353744983673e-02 3.8781690597534180e-01</leafValues></_>
        <_>
          <internalNodes>
            0 -1 308 8.8865566067397594e-04</internalNodes>
          <leafValues>
            -1.3565842807292938e-01 2.4556455016136169e-01</leafValues></_>
        <_>
          <internalNodes>
            0 -1 447 6.5827125217765570e-04</internalNodes>
          <leafValues>
            1.3995145261287689e-01 -2.4682998657226562e-01</leafValues></_>
        <_>
          <internalNodes>
            0 -1 108 1.0038657346740365e-03</internalNodes>
          <leafValues>
            6.4288660883903503e-02 -4.9434703588485718e-01</leafValues></_>
        <_>
          <internalNodes>
            0 -1 381 2.4458195548504591e-03</internalNodes>
          <leafValues>
            3.7950932979583740e-02 -7.1319359540939331e-01</leafValues></_>
        <_>
          <internalNodes>
            0 -1 290 -9.9870515987277031e-04</internalNodes>
          <leafValues>
            2.6823699474334717e-01 -1.2107078731060028e-01</leafValues></_>
        <_>
          <internalNodes>
            0 -1 289 5.6493724696338177e-04</internalNodes>
          <leafValues>
            -1.3989883661270142e-01 2.8011628985404968e-01</leafValues></_>
        <_>
          <internalNodes>
            0 -1 213 -3.6227423697710037e-04</internalNodes>
          <leafValues>
            2.8759336471557617e-01 -1.0941860824823380e-01</leafValues></_>
        <_>
          <internalNodes>
            0 -1 309 2.5679145008325577e-02</internalNodes>
          <leafValues>
            3.6452602595090866e-02 -8.5930716991424561e-01</leafValues></_>
        <_>
          <internalNodes>
            0 -1 337 1.1565964668989182e-02</internalNodes>
          <leafValues>
            -1.1817333102226257e-01 3.1015735864639282e-01</leafValues></_>
        <_>
          <internalNodes>
            0 -1 25 4.2470050975680351e-03</internalNodes>
          <leafValues>
            -1.4169353246688843e-01 2.6345449686050415e-01</leafValues></_>
        <_>
          <internalNodes>
            0 -1 271 6.9325760705396533e-04</internalNodes>
          <leafValues>
            -1.1157456785440445e-01 2.7747255563735962e-01</leafValues></_>
        <_>
          <internalNodes>
            0 -1 44 1.0417057201266289e-02</internalNodes>
          <leafValues>
            1.0095738619565964e-01 -3.2662826776504517e-01</leafValues></_>
        <_>
          <internalNodes>
            0 -1 126 -7.4394379043951631e-04</internalNodes>
          <leafValues>
            3.9525285363197327e-01 -8.3540357649326324e-02</leafValues></_>
        <_>
          <internalNodes>
            0 -1 291 7.9006777377799153e-04</internalNodes>
          <leafValues>
            8.0834418535232544e-02 -4.6045592427253723e-01</leafValues></_>
        <_>
          <internalNodes>
            0 -1 18 -1.2591850012540817e-02</internalNodes>
          <leafValues>
            2.5634914636611938e-01 -1.2715661525726318e-01</leafValues></_>
        <_>
          <internalNodes>
            0 -1 60 -2.1029019262641668e-03</internalNodes>
          <leafValues>
            3.4597709774971008e-01 -9.0358465909957886e-02</leafValues></_>
        <_>
          <internalNodes>
            0 -1 284 5.6350087106693536e-05</internalNodes>
          <leafValues>
            -1.5920367836952209e-01 1.9748401641845703e-01</leafValues></_>
        <_>
          <internalNodes>
            0 -1 93 9.0919711510650814e-05</internalNodes>
          <leafValues>
            1.2024740129709244e-01 -2.4443344771862030e-01</leafValues></_>
        <_>
          <internalNodes>
            0 -1 177 -8.8028586469590664e-04</internalNodes>
          <leafValues>
            -2.8934225440025330e-01 1.0736697167158127e-01</leafValues></_></weakClassifiers></_>
    <!-- stage 11 -->
    <_>
      <maxWeakCount>48</maxWeakCount>
      <stageThreshold>-8.8799214363098145e-01</stageThreshold>
      <weakClassifiers>
        <_>
          <internalNodes>
            0 -1 298 1.1416127672418952e-03</internalNodes>
          <leafValues>
            -1.6967509686946869e-01 3.8406231999397278e-01</leafValues></_>
        <_>
          <internalNodes>
            0 -1 331 2.8715463122352958e-04</internalNodes>
          <leafValues>
            1.2001240998506546e-01 -5.0370454788208008e-01</leafValues></_>
        <_>
          <internalNodes>
            0 -1 349 -6.3284579664468765e-03</internalNodes>
          <leafValues>
            2.1489454805850983e-01 -2.4032394587993622e-01</leafValues></_>
        <_>
          <internalNodes>
            0 -1 2 4.7769088298082352e-02</internalNodes>
          <leafValues>
            -1.1892722547054291e-01 3.5897561907768250e-01</leafValues></_>
        <_>
          <internalNodes>
            0 -1 36 1.4329183101654053e-01</internalNodes>
          <leafValues>
            -6.5592169761657715e-02 6.2408602237701416e-01</leafValues></_>
        <_>
          <internalNodes>
            0 -1 46 -1.1330610141158104e-02</internalNodes>
          <leafValues>
            2.6154002547264099e-01 -2.0051279664039612e-01</leafValues></_>
        <_>
          <internalNodes>
            0 -1 95 -1.6051921993494034e-02</internalNodes>
          <leafValues>
            -7.1215379238128662e-01 3.9614222943782806e-02</leafValues></_>
        <_>
          <internalNodes>
            0 -1 266 2.6087092701345682e-03</internalNodes>
          <leafValues>
            -1.3937444984912872e-01 2.6115426421165466e-01</leafValues></_>
        <_>
          <internalNodes>
            0 -1 256 -9.7430432215332985e-03</internalNodes>
          <leafValues>
            2.2705391049385071e-01 -2.4714630842208862e-01</leafValues></_>
        <_>
          <internalNodes>
            0 -1 372 -1.8890645354986191e-02</internalNodes>
          <leafValues>
            -5.7410591840744019e-01 5.1994536072015762e-02</leafValues></_>
        <_>
          <internalNodes>
            0 -1 235 -2.2286456078290939e-03</internalNodes>
          <leafValues>
            -5.6726938486099243e-01 5.4878324270248413e-02</leafValues></_>
        <_>
          <internalNodes>
            0 -1 276 -5.5827880278229713e-03</internalNodes>
          <leafValues>
            3.0055195093154907e-01 -1.1016348004341125e-01</leafValues></_>
        <_>
          <internalNodes>
            0 -1 181 -7.3746658861637115e-02</internalNodes>
          <leafValues>
            -8.1152492761611938e-01 4.0984611958265305e-02</leafValues></_>
        <_>
          <internalNodes>
            0 -1 327 1.3372923713177443e-03</internalNodes>
          <leafValues>
            -1.4302477240562439e-01 2.5372397899627686e-01</leafValues></_>
        <_>
          <internalNodes>
            0 -1 322 -4.2367698624730110e-03</internalNodes>
          <leafValues>
            3.6284366250038147e-01 -7.2352595627307892e-02</leafValues></_>
        <_>
          <internalNodes>
            0 -1 178 -3.3739276695996523e-03</internalNodes>
          <leafValues>
            3.7012615799903870e-01 -9.2578187584877014e-02</leafValues></_>
        <_>
          <internalNodes>
            0 -1 255 6.8075046874582767e-04</internalNodes>
          <leafValues>
            -1.1665896326303482e-01 2.9614731669425964e-01</leafValues></_>
        <_>
          <internalNodes>
            0 -1 435 -4.8425310524180532e-05</internalNodes>
          <leafValues>
            -2.5657656788825989e-01 1.2634085118770599e-01</leafValues></_>
        <_>
          <internalNodes>
            0 -1 267 1.3632293790578842e-02</internalNodes>
          <leafValues>
            -1.0960964113473892e-01 3.0419075489044189e-01</leafValues></_>
        <_>
          <internalNodes>
            0 -1 155 4.9856077879667282e-02</internalNodes>
          <leafValues>
            7.2854049503803253e-02 -5.9820955991744995e-01</leafValues></_>
        <_>
          <internalNodes>
            0 -1 104 2.4457280524075031e-03</internalNodes>
          <leafValues>
            -1.0524129122495651e-01 2.7415212988853455e-01</leafValues></_>
        <_>
          <internalNodes>
            0 -1 85 -2.0782304636668414e-04</internalNodes>
          <leafValues>
            2.3776881396770477e-01 -1.1521510779857635e-01</leafValues></_>
        <_>
          <internalNodes>
            0 -1 10 -5.5543176829814911e-02</internalNodes>
          <leafValues>
            7.1824580430984497e-01 -3.9880678057670593e-02</leafValues></_>
        <_>
          <internalNodes>
            0 -1 236 5.0808378728106618e-04</internalNodes>
          <leafValues>
            -8.0666564404964447e-02 3.4467327594757080e-01</leafValues></_>
        <_>
          <internalNodes>
            0 -1 182 -4.4036770123057067e-04</internalNodes>
          <leafValues>
            -3.9924940466880798e-01 7.5718596577644348e-02</leafValues></_>
        <_>
          <internalNodes>
            0 -1 130 -7.9410581383854151e-04</internalNodes>
          <leafValues>
            -8.0818867683410645e-01 2.8836885467171669e-02</leafValues></_>
        <_>
          <internalNodes>
            0 -1 328 -1.2151938863098621e-03</internalNodes>
          <leafValues>
            -4.1430866718292236e-01 5.9965141117572784e-02</leafValues></_>
        <_>
          <internalNodes>
            0 -1 400 1.8528498912928626e-05</internalNodes>
          <leafValues>
            -2.0643663406372070e-01 1.3866613805294037e-01</leafValues></_>
        <_>
          <internalNodes>
            0 -1 343 4.6639437787234783e-03</internalNodes>
          <leafValues>
            3.8354735821485519e-02 -8.3313411474227905e-01</leafValues></_>
        <_>
          <internalNodes>
            0 -1 344 3.8383532228181139e-05</internalNodes>
          <leafValues>
            -1.9392769038677216e-01 1.6806232929229736e-01</leafValues></_>
        <_>
          <internalNodes>
            0 -1 79 5.7292403653264046e-04</internalNodes>
          <leafValues>
            -1.0710777342319489e-01 2.5562617182731628e-01</leafValues></_>
        <_>
          <internalNodes>
            0 -1 23 9.5648989081382751e-03</internalNodes>
          <leafValues>
            7.3312312364578247e-02 -5.0801408290863037e-01</leafValues></_>
        <_>
          <internalNodes>
            0 -1 28 -1.0827317833900452e-02</internalNodes>
          <leafValues>
            -6.8342655897140503e-01 3.7108518183231354e-02</leafValues></_>
        <_>
          <internalNodes>
            0 -1 99 -2.5301834102720022e-04</internalNodes>
          <leafValues>
            -2.0858763158321381e-01 1.3407263159751892e-01</leafValues></_>
        <_>
          <internalNodes>
            0 -1 339 -7.0046447217464447e-04</internalNodes>
          <leafValues>
            3.0047076940536499e-01 -9.6800290048122406e-02</leafValues></_>
        <_>
          <internalNodes>
            0 -1 30 2.3158714175224304e-03</internalNodes>
          <leafValues>
            5.6139901280403137e-02 -5.1794487237930298e-01</leafValues></_>
        <_>
          <internalNodes>
            0 -1 212 2.4675123859196901e-04</internalNodes>
          <leafValues>
            -1.4454025030136108e-01 2.1775627136230469e-01</leafValues></_>
        <_>
          <internalNodes>
            0 -1 444 8.0387806519865990e-04</internalNodes>
          <leafValues>
            -8.7055072188377380e-02 3.3700785040855408e-01</leafValues></_>
        <_>
          <internalNodes>
            0 -1 105 1.6824504360556602e-02</internalNodes>
          <leafValues>
            3.7364855408668518e-02 -8.2089859247207642e-01</leafValues></_>
        <_>
          <internalNodes>
            0 -1 211 1.7019208520650864e-02</internalNodes>
          <leafValues>
            -8.6928784847259521e-02 3.6438012123107910e-01</leafValues></_>
        <_>
          <internalNodes>
            0 -1 275 -1.3915852468926460e-04</internalNodes>
          <leafValues>
            1.7289328575134277e-01 -1.6454291343688965e-01</leafValues></_>
        <_>
          <internalNodes>
            0 -1 43 4.1523434221744537e-02</internalNodes>
          <leafValues>
            4.1959322988986969e-02 -6.9896149635314941e-01</leafValues></_>
        <_>
          <internalNodes>
            0 -1 376 9.9881784990429878e-04</internalNodes>
          <leafValues>
            -7.0788465440273285e-02 4.4668349623680115e-01</leafValues></_>
        <_>
          <internalNodes>
            0 -1 69 2.3110683541744947e-03</internalNodes>
          <leafValues>
            7.0145532488822937e-02 -4.4345349073410034e-01</leafValues></_>
        <_>
          <internalNodes>
            0 -1 423 -3.3529235224705189e-05</internalNodes>
          <leafValues>
            1.9632852077484131e-01 -1.4541336894035339e-01</leafValues></_>
        <_>
          <internalNodes>
            0 -1 143 6.3368771225214005e-03</internalNodes>
          <leafValues>
            3.5634886473417282e-02 -8.0519306659698486e-01</leafValues></_>
        <_>
          <internalNodes>
            0 -1 402 -1.7758160829544067e-02</internalNodes>
          <leafValues>
            4.0205165743827820e-01 -7.6853133738040924e-02</leafValues></_>
        <_>
          <internalNodes>
            0 -1 434 3.9890659973025322e-03</internalNodes>
          <leafValues>
            -9.3417793512344360e-02 3.8656747341156006e-01</leafValues></_></weakClassifiers></_></stages>
  <features>
    <_>
      <rects>
        <_>
          0 0 22 4 -1.</_>
        <_>
          0 0 11 2 2.</_>
        <_>
          11 2 11 2 2.</_></rects>
      <tilted>0</tilted></_>
    <_>
      <rects>
        <_>
          0 4 20 30 -1.</_>
        <_>
          10 4 10 30 2.</_></rects>
      <tilted>0</tilted></_>
    <_>
      <rects>
        <_>
          0 9 16 10 -1.</_>
        <_>
          8 9 8 10 2.</_></rects>
      <tilted>0</tilted></_>
    <_>
      <rects>
        <_>
          0 11 24 19 -1.</_>
        <_>
          8 11 8 19 3.</_></rects>
      <tilted>0</tilted></_>
    <_>
      <rects>
        <_>
          0 12 2 1 -1.</_>
        <_>
          1 12 1 1 2.</_></rects>
      <tilted>0</tilted></_>
    <_>
      <rects>
        <_>
          0 23 1 8 -1.</_>
        <_>
          0 27 1 4 2.</_></rects>
      <tilted>0</tilted></_>
    <_>
      <rects>
        <_>
          1 0 39 37 -1.</_>
        <_>
          14 0 13 37 3.</_></rects>
      <tilted>0</tilted></_>
    <_>
      <rects>
        <_>
          1 1 39 12 -1.</_>
        <_>
          14 1 13 12 3.</_></rects>
      <tilted>0</tilted></_>
    <_>
      <rects>
        <_>
          1 1 39 30 -1.</_>
        <_>
          14 1 13 30 3.</_></rects>
      <tilted>0</tilted></_>
    <_>
      <rects>
        <_>
          1 2 39 35 -1.</_>
        <_>
          14 2 13 35 3.</_></rects>
      <tilted>0</tilted></_>
    <_>
      <rects>
        <_>
          1 3 24 6 -1.</_>
        <_>
          13 3 12 6 2.</_></rects>
      <tilted>0</tilted></_>
    <_>
      <rects>
        <_>
          1 5 36 22 -1.</_>
        <_>
          1 5 18 11 2.</_>
        <_>
          19 16 18 11 2.</_></rects>
      <tilted>0</tilted></_>
    <_>
      <rects>
        <_>
          1 7 2 3 -1.</_>
        <_>
          2 7 1 3 2.</_></rects>
      <tilted>0</tilted></_>
    <_>
      <rects>
        <_>
          1 7 10 24 -1.</_>
        <_>
          1 7 5 12 2.</_>
        <_>
          6 19 5 12 2.</_></rects>
      <tilted>0</tilted></_>
    <_>
      <rects>
        <_>
          2 0 22 4 -1.</_>
        <_>
          2 0 11 2 2.</_>
        <_>
          13 2 11 2 2.</_></rects>
      <tilted>0</tilted></_>
    <_>
      <rects>
        <_>
          2 8 12 10 -1.</_>
        <_>
          8 8 6 10 2.</_></rects>
      <tilted>0</tilted></_>
    <_>
      <rects>
        <_>
          3 0 22 1 -1.</_>
        <_>
          14 0 11 1 2.</_></rects>
      <tilted>0</tilted></_>
    <_>
      <rects>
        <_>
          3 5 10 6 -1.</_>
        <_>
          8 5 5 6 2.</_></rects>
      <tilted>0</tilted></_>
    <_>
      <rects>
        <_>
          3 18 15 5 -1.</_>
        <_>
          8 18 5 5 3.</_></rects>
      <tilted>0</tilted></_>
    <_>
      <rects>
        <_>
          4 1 20 24 -1.</_>
        <_>
          4 1 10 12 2.</_>
        <_>
          14 13 10 12 2.</_></rects>
      <tilted>0</tilted></_>
    <_>
      <rects>
        <_>
          4 23 22 12 -1.</_>
        <_>
          4 23 11 6 2.</_>
        <_>
          15 29 11 6 2.</_></rects>
      <tilted>0</tilted></_>
    <_>
      <rects>
        <_>
          5 0 16 4 -1.</_>
        <_>
          5 0 8 2 2.</_>
        <_>
          13 2 8 2 2.</_></rects>
      <tilted>0</tilted></_>
    <_>
      <rects>
        <_>
          5 5 6 28 -1.</_>
        <_>
          8 5 3 28 2.</_></rects>
      <tilted>0</tilted></_>
    <_>
      <rects>
        <_>
          5 29 24 1 -1.</_>
        <_>
          17 29 12 1 2.</_></rects>
      <tilted>0</tilted></_>
    <_>
      <rects>
        <_>
          6 14 6 7 -1.</_>
        <_>
          9 14 3 7 2.</_></rects>
      <tilted>0</tilted></_>
    <_>
      <rects>
        <_>
          6 18 9 5 -1.</_>
        <_>
          9 18 3 5 3.</_></rects>
      <tilted>0</tilted></_>
    <_>
      <rects>
        <_>
          6 19 9 1 -1.</_>
        <_>
          9 19 3 1 3.</_></rects>
      <tilted>0</tilted></_>
    <_>
      <rects>
        <_>
          6 19 9 2 -1.</_>
        <_>
          9 19 3 2 3.</_></rects>
      <tilted>0</tilted></_>
    <_>
      <rects>
        <_>
          6 19 28 4 -1.</_>
        <_>
          6 19 14 2 2.</_>
        <_>
          20 21 14 2 2.</_></rects>
      <tilted>0</tilted></_>
    <_>
      <rects>
        <_>
          6 20 12 14 -1.</_>
        <_>
          6 20 6 7 2.</_>
        <_>
          12 27 6 7 2.</_></rects>
      <tilted>0</tilted></_>
    <_>
      <rects>
        <_>
          6 29 11 2 -1.</_>
        <_>
          6 30 11 1 2.</_></rects>
      <tilted>0</tilted></_>
    <_>
      <rects>
        <_>
          7 12 22 26 -1.</_>
        <_>
          7 25 22 13 2.</_></rects>
      <tilted>0</tilted></_>
    <_>
      <rects>
        <_>
          7 20 4 1 -1.</_>
        <_>
          9 20 2 1 2.</_></rects>
      <tilted>0</tilted></_>
    <_>
      <rects>
        <_>
          7 20 27 6 -1.</_>
        <_>
          16 20 9 6 3.</_></rects>
      <tilted>0</tilted></_>
    <_>
      <rects>
        <_>
          8 2 8 4 -1.</_>
        <_>
          8 4 8 2 2.</_></rects>
      <tilted>0</tilted></_>
    <_>
      <rects>
        <_>
          8 16 4 6 -1.</_>
        <_>
          8 16 2 3 2.</_>
        <_>
          10 19 2 3 2.</_></rects>
      <tilted>0</tilted></_>
    <_>
      <rects>
        <_>
          8 16 24 11 -1.</_>
        <_>
          16 16 8 11 3.</_></rects>
      <tilted>0</tilted></_>
    <_>
      <rects>
        <_>
          8 19 6 4 -1.</_>
        <_>
          10 19 2 4 3.</_></rects>
      <tilted>0</tilted></_>
    <_>
      <rects>
        <_>
          8 22 30 3 -1.</_>
        <_>
          8 23 30 1 3.</_></rects>
      <tilted>0</tilted></_>
    <_>
      <rects>
        <_>
          8 34 22 6 -1.</_>
        <_>
          8 37 22 3 2.</_></rects>
      <tilted>0</tilted></_>
    <_>
      <rects>
        <_>
          9 3 12 17 -1.</_>
        <_>
          13 3 4 17 3.</_></rects>
      <tilted>0</tilted></_>
    <_>
      <rects>
        <_>
          9 3 25 30 -1.</_>
        <_>
          9 18 25 15 2.</_></rects>
      <tilted>0</tilted></_>
    <_>
      <rects>
        <_>
          9 6 16 30 -1.</_>
        <_>
          9 16 16 10 3.</_></rects>
      <tilted>0</tilted></_>
    <_>
      <rects>
        <_>
          9 7 21 12 -1.</_>
        <_>
          9 11 21 4 3.</_></rects>
      <tilted>0</tilted></_>
    <_>
      <rects>
        <_>
          9 10 9 9 -1.</_>
        <_>
          12 10 3 9 3.</_></rects>
      <tilted>0</tilted></_>
    <_>
      <rects>
        <_>
          9 15 10 8 -1.</_>
        <_>
          9 15 5 4 2.</_>
        <_>
          14 19 5 4 2.</_></rects>
      <tilted>0</tilted></_>
    <_>
      <rects>
        <_>
          9 15 21 6 -1.</_>
        <_>
          16 15 7 6 3.</_></rects>
      <tilted>0</tilted></_>
    <_>
      <rects>
        <_>
          9 15 14 8 -1.</_>
        <_>
          16 15 7 8 2.</_></rects>
      <tilted>0</tilted></_>
    <_>
      <rects>
        <_>
          9 17 3 6 -1.</_>
        <_>
          10 17 1 6 3.</_></rects>
      <tilted>0</tilted></_>
    <_>
      <rects>
        <_>
          9 21 10 2 -1.</_>
        <_>
          14 21 5 2 2.</_></rects>
      <tilted>0</tilted></_>
    <_>
      <rects>
        <_>
          9 21 12 4 -1.</_>
        <_>
          15 21 6 4 2.</_></rects>
      <tilted>0</tilted></_>
    <_>
      <rects>
        <_>
          9 26 9 3 -1.</_>
        <_>
          9 27 9 1 3.</_></rects>
      <tilted>0</tilted></_>
    <_>
      <rects>
        <_>
          10 0 12 2 -1.</_>
        <_>
          10 0 6 1 2.</_>
        <_>
          16 1 6 1 2.</_></rects>
      <tilted>0</tilted></_>
    <_>
      <rects>
        <_>
          10 0 23 8 -1.</_>
        <_>
          10 4 23 4 2.</_></rects>
      <tilted>0</tilted></_>
    <_>
      <rects>
        <_>
          10 2 21 32 -1.</_>
        <_>
          10 18 21 16 2.</_></rects>
      <tilted>0</tilted></_>
    <_>
      <rects>
        <_>
          10 4 22 20 -1.</_>
        <_>
