<?xml version="1.0"?>
<opencv_storage>
<cascade>
  <stageType>BOOST</stageType>
  <featureType>HAAR</featureType>
  <height>20</height>
  <width>20</width>
  <stageParams>
    <boostType>GAB</boostType>
    <minHitRate>9.9500000476837158e-01</minHitRate>
    <maxFalseAlarm>5.0000000000000000e-01</maxFalseAlarm>
    <weightTrimRate>9.4999999999999996e-01</weightTrimRate>
    <maxDepth>1</maxDepth>
    <maxWeakCount>100</maxWeakCount></stageParams>
  <featureParams>
    <maxCatCount>0</maxCatCount>
    <featSize>1</featSize>
    <mode>BASIC</mode></featureParams>
  <stageNum>15</stageNum>
  <stages>
    <!-- stage 0 -->
    <_>
      <maxWeakCount>16</maxWeakCount>
      <stageThreshold>-1.3374309539794922e+00</stageThreshold>
      <weakClassifiers>
        <_>
          <internalNodes>
            0 -1 405 -4.4327797368168831e-03</internalNodes>
          <leafValues>
            6.3568890094757080e-01 -4.3861034512519836e-01</leafValues></_>
        <_>
          <internalNodes>
            0 -1 274 7.2496812790632248e-03</internalNodes>
          <leafValues>
            -5.4524880647659302e-01 3.7736827135086060e-01</leafValues></_>
        <_>
          <internalNodes>
            0 -1 507 4.2230933904647827e-03</internalNodes>
          <leafValues>
            -2.0951391756534576e-01 5.9396654367446899e-01</leafValues></_>
        <_>
          <internalNodes>
            0 -1 366 -4.9903821200132370e-03</internalNodes>
          <leafValues>
            -7.2161942720413208e-01 1.6606089472770691e-01</leafValues></_>
        <_>
          <internalNodes>
            0 -1 291 1.8682209774851799e-02</internalNodes>
          <leafValues>
            9.3809247016906738e-02 -8.0766272544860840e-01</leafValues></_>
        <_>
          <internalNodes>
            0 -1 354 6.9349645636975765e-03</internalNodes>
          <leafValues>
            9.2053994536399841e-02 -7.5483721494674683e-01</leafValues></_>
        <_>
          <internalNodes>
            0 -1 370 6.9049363955855370e-03</internalNodes>
          <leafValues>
            3.5613168030977249e-02 -8.6431837081909180e-01</leafValues></_>
        <_>
          <internalNodes>
            0 -1 503 -7.5416592881083488e-03</internalNodes>
          <leafValues>
            3.8239893317222595e-01 -2.3364284634590149e-01</leafValues></_>
        <_>
          <internalNodes>
            0 -1 630 8.8828504085540771e-03</internalNodes>
          <leafValues>
            1.6001608967781067e-01 -7.2303575277328491e-01</leafValues></_>
        <_>
          <internalNodes>
            0 -1 677 -1.6919648041948676e-03</internalNodes>
          <leafValues>
            1.8700918555259705e-01 -3.6248382925987244e-01</leafValues></_>
        <_>
          <internalNodes>
            0 -1 109 -7.3286397382616997e-03</internalNodes>
          <leafValues>
            -3.6216181516647339e-01 1.9079266488552094e-01</leafValues></_>
        <_>
          <internalNodes>
            0 -1 305 1.3020172715187073e-02</internalNodes>
          <leafValues>
            9.3156211078166962e-02 -7.2075837850570679e-01</leafValues></_>
        <_>
          <internalNodes>
            0 -1 261 -4.4127798173576593e-04</internalNodes>
          <leafValues>
            2.1559754014015198e-01 -3.0910149216651917e-01</leafValues></_>
        <_>
          <internalNodes>
            0 -1 696 2.5067147798836231e-03</internalNodes>
          <leafValues>
            9.8014339804649353e-02 -7.3705422878265381e-01</leafValues></_>
        <_>
          <internalNodes>
            0 -1 568 -2.2416863590478897e-02</internalNodes>
          <leafValues>
            3.2855403423309326e-01 -1.9496932625770569e-01</leafValues></_>
        <_>
          <internalNodes>
            0 -1 675 7.7218812657520175e-04</internalNodes>
          <leafValues>
            -2.3743978142738342e-01 2.5233098864555359e-01</leafValues></_></weakClassifiers></_>
    <!-- stage 1 -->
    <_>
      <maxWeakCount>23</maxWeakCount>
      <stageThreshold>-1.1581155061721802e+00</stageThreshold>
      <weakClassifiers>
        <_>
          <internalNodes>
            0 -1 441 2.1473474334925413e-03</internalNodes>
          <leafValues>
            -2.9284524917602539e-01 5.6155246496200562e-01</leafValues></_>
        <_>
          <internalNodes>
            0 -1 64 8.6373556405305862e-04</internalNodes>
          <leafValues>
            -4.6316322684288025e-01 2.4726709723472595e-01</leafValues></_>
        <_>
          <internalNodes>
            0 -1 2 1.8431924283504486e-02</internalNodes>
          <leafValues>
            -1.6672983765602112e-01 5.8793288469314575e-01</leafValues></_>
        <_>
          <internalNodes>
            0 -1 695 3.1864104676060379e-04</internalNodes>
          <leafValues>
            2.1909135580062866e-01 -3.8964214920997620e-01</leafValues></_>
        <_>
          <internalNodes>
            0 -1 310 -2.1009431220591068e-03</internalNodes>
          <leafValues>
            1.2371183931827545e-01 -4.7295457124710083e-01</leafValues></_>
        <_>
          <internalNodes>
            0 -1 673 1.1200862936675549e-03</internalNodes>
          <leafValues>
            -2.4369145929813385e-01 3.1053432822227478e-01</leafValues></_>
        <_>
          <internalNodes>
            0 -1 437 1.4355186372995377e-02</internalNodes>
          <leafValues>
            7.7216394245624542e-02 -8.3430886268615723e-01</leafValues></_>
        <_>
          <internalNodes>
            0 -1 522 -1.1437834473326802e-03</internalNodes>
          <leafValues>
            1.5758806467056274e-01 -4.4694277644157410e-01</leafValues></_>
        <_>
          <internalNodes>
            0 -1 648 2.6021623052656651e-03</internalNodes>
          <leafValues>
            8.8243678212165833e-02 -8.1488275527954102e-01</leafValues></_>
        <_>
          <internalNodes>
            0 -1 95 5.9224516153335571e-02</internalNodes>
          <leafValues>
            9.5475725829601288e-02 -6.5833860635757446e-01</leafValues></_>
        <_>
          <internalNodes>
            0 -1 609 -7.5230370275676250e-03</internalNodes>
          <leafValues>
            -6.8242084980010986e-01 8.4770962595939636e-02</leafValues></_>
        <_>
          <internalNodes>
            0 -1 880 -5.0499674398452044e-04</internalNodes>
          <leafValues>
            2.4114292860031128e-01 -2.8701812028884888e-01</leafValues></_>
        <_>
          <internalNodes>
            0 -1 170 3.3589784055948257e-02</internalNodes>
          <leafValues>
            7.8366108238697052e-02 -7.4417936801910400e-01</leafValues></_>
        <_>
          <internalNodes>
            0 -1 367 6.9754761643707752e-03</internalNodes>
          <leafValues>
            6.4453773200511932e-02 -8.4052300453186035e-01</leafValues></_>
        <_>
          <internalNodes>
            0 -1 321 -1.8283119425177574e-03</internalNodes>
          <leafValues>
            2.7510219812393188e-01 -1.9909448921680450e-01</leafValues></_>
        <_>
          <internalNodes>
            0 -1 99 8.6043821647763252e-03</internalNodes>
          <leafValues>
            8.5677698254585266e-02 -5.8787113428115845e-01</leafValues></_>
        <_>
          <internalNodes>
            0 -1 463 3.1043384224176407e-03</internalNodes>
          <leafValues>
            6.4404226839542389e-02 -6.8014788627624512e-01</leafValues></_>
        <_>
          <internalNodes>
            0 -1 464 -3.0073863454163074e-03</internalNodes>
          <leafValues>
            -6.7671895027160645e-01 7.6499491930007935e-02</leafValues></_>
        <_>
          <internalNodes>
            0 -1 523 -1.1675960849970579e-03</internalNodes>
          <leafValues>
            2.2668886184692383e-01 -2.4253989756107330e-01</leafValues></_>
        <_>
          <internalNodes>
            0 -1 445 -3.4560135100036860e-03</internalNodes>
          <leafValues>
            -7.8953200578689575e-01 6.5764427185058594e-02</leafValues></_>
        <_>
          <internalNodes>
            0 -1 277 7.9599890159443021e-04</internalNodes>
          <leafValues>
            -1.8810418248176575e-01 2.7035143971443176e-01</leafValues></_>
        <_>
          <internalNodes>
            0 -1 534 -2.2959369234740734e-03</internalNodes>
          <leafValues>
            -5.4915672540664673e-01 8.5211046040058136e-02</leafValues></_>
        <_>
          <internalNodes>
            0 -1 262 1.8583822995424271e-02</internalNodes>
          <leafValues>
            8.6979053914546967e-02 -5.3934800624847412e-01</leafValues></_></weakClassifiers></_>
    <!-- stage 2 -->
    <_>
      <maxWeakCount>28</maxWeakCount>
      <stageThreshold>-1.0260404348373413e+00</stageThreshold>
      <weakClassifiers>
        <_>
          <internalNodes>
            0 -1 440 1.4002969255670905e-03</internalNodes>
          <leafValues>
            -8.1908188760280609e-02 5.7755428552627563e-01</leafValues></_>
        <_>
          <internalNodes>
            0 -1 34 5.4853921756148338e-03</internalNodes>
          <leafValues>
            -1.6721150279045105e-01 5.2921169996261597e-01</leafValues></_>
        <_>
          <internalNodes>
            0 -1 892 -4.3463069014251232e-03</internalNodes>
          <leafValues>
            5.2727729082107544e-01 -1.6231109201908112e-01</leafValues></_>
        <_>
          <internalNodes>
            0 -1 13 -2.2021569311618805e-03</internalNodes>
          <leafValues>
            3.3279147744178772e-01 -2.2092100977897644e-01</leafValues></_>
        <_>
          <internalNodes>
            0 -1 449 7.0605920627713203e-03</internalNodes>
          <leafValues>
            -3.0387347936630249e-01 2.3142649233341217e-01</leafValues></_>
        <_>
          <internalNodes>
            0 -1 378 4.7116321511566639e-03</internalNodes>
          <leafValues>
            8.6799062788486481e-02 -6.7732489109039307e-01</leafValues></_>
        <_>
          <internalNodes>
            0 -1 127 2.6971057057380676e-02</internalNodes>
          <leafValues>
            1.0000452399253845e-01 -5.3692942857742310e-01</leafValues></_>
        <_>
          <internalNodes>
            0 -1 614 3.3062562579289079e-04</internalNodes>
          <leafValues>
            -2.9043155908584595e-01 2.1099981665611267e-01</leafValues></_>
        <_>
          <internalNodes>
            0 -1 608 -1.0036466643214226e-02</internalNodes>
          <leafValues>
            -6.6949135065078735e-01 8.3662040531635284e-02</leafValues></_>
        <_>
          <internalNodes>
            0 -1 835 3.3080758294090629e-04</internalNodes>
          <leafValues>
            -2.1664193272590637e-01 2.6978978514671326e-01</leafValues></_>
        <_>
          <internalNodes>
            0 -1 699 -4.0417356649413705e-04</internalNodes>
          <leafValues>
            1.5621681511402130e-01 -3.8364148139953613e-01</leafValues></_>
        <_>
          <internalNodes>
            0 -1 692 3.2179234549403191e-03</internalNodes>
          <leafValues>
            7.0101216435432434e-02 -9.1365778446197510e-01</leafValues></_>
        <_>
          <internalNodes>
            0 -1 508 6.9686383940279484e-03</internalNodes>
          <leafValues>
            -1.3457502424716949e-01 4.7110876441001892e-01</leafValues></_>
        <_>
          <internalNodes>
            0 -1 642 2.0333160646259785e-03</internalNodes>
          <leafValues>
            8.5755795240402222e-02 -6.4306855201721191e-01</leafValues></_>
        <_>
          <internalNodes>
            0 -1 459 4.9436353147029877e-03</internalNodes>
          <leafValues>
            6.4845077693462372e-02 -6.6664582490921021e-01</leafValues></_>
        <_>
          <internalNodes>
            0 -1 325 8.1964898854494095e-03</internalNodes>
          <leafValues>
            1.0310266911983490e-01 -4.3722221255302429e-01</leafValues></_>
        <_>
          <internalNodes>
            0 -1 442 3.9453111588954926e-02</internalNodes>
          <leafValues>
            8.2998923957347870e-02 -7.0039331912994385e-01</leafValues></_>
        <_>
          <internalNodes>
            0 -1 842 3.6422943230718374e-03</internalNodes>
          <leafValues>
            -1.7093999683856964e-01 2.5883561372756958e-01</leafValues></_>
        <_>
          <internalNodes>
            0 -1 665 -1.1484730057418346e-03</internalNodes>
          <leafValues>
            3.6572062969207764e-01 -1.2261422723531723e-01</leafValues></_>
        <_>
          <internalNodes>
            0 -1 633 1.8785686697810888e-03</internalNodes>
          <leafValues>
            6.9432176649570465e-02 -6.8584293127059937e-01</leafValues></_>
        <_>
          <internalNodes>
            0 -1 159 -6.1347689479589462e-03</internalNodes>
          <leafValues>
            2.3742975294589996e-01 -1.8311308324337006e-01</leafValues></_>
        <_>
          <internalNodes>
            0 -1 224 3.0915461480617523e-02</internalNodes>
          <leafValues>
            1.0195532441139221e-01 -4.7191095352172852e-01</leafValues></_>
        <_>
          <internalNodes>
            0 -1 348 1.2309554032981396e-02</internalNodes>
          <leafValues>
            5.8186460286378860e-02 -6.9004917144775391e-01</leafValues></_>
        <_>
          <internalNodes>
            0 -1 627 2.6186605100519955e-04</internalNodes>
          <leafValues>
            -2.5473368167877197e-01 1.7472095787525177e-01</leafValues></_>
        <_>
          <internalNodes>
            0 -1 705 5.4548839107155800e-03</internalNodes>
          <leafValues>
            6.9151259958744049e-02 -6.0075414180755615e-01</leafValues></_>
        <_>
          <internalNodes>
            0 -1 538 -2.2367645055055618e-02</internalNodes>
          <leafValues>
            3.2799082994461060e-01 -1.3171027600765228e-01</leafValues></_>
        <_>
          <internalNodes>
            0 -1 471 -3.1984006054699421e-03</internalNodes>
          <leafValues>
            -9.0075904130935669e-01 4.7899384051561356e-02</leafValues></_>
        <_>
          <internalNodes>
            0 -1 452 -9.8103163763880730e-03</internalNodes>
          <leafValues>
            -2.8513130545616150e-01 1.3972762227058411e-01</leafValues></_></weakClassifiers></_>
    <!-- stage 3 -->
    <_>
      <maxWeakCount>40</maxWeakCount>
      <stageThreshold>-1.1144989728927612e+00</stageThreshold>
      <weakClassifiers>
        <_>
          <internalNodes>
            0 -1 274 1.0593855753540993e-02</internalNodes>
          <leafValues>
            -2.0999075472354889e-01 5.0511842966079712e-01</leafValues></_>
        <_>
          <internalNodes>
            0 -1 61 1.1524590663611889e-03</internalNodes>
          <leafValues>
            -2.3314695060253143e-01 3.5954728722572327e-01</leafValues></_>
        <_>
          <internalNodes>
            0 -1 413 -2.2892435081303120e-03</internalNodes>
          <leafValues>
            1.9337646663188934e-01 -4.1968470811843872e-01</leafValues></_>
        <_>
          <internalNodes>
            0 -1 893 -1.3373682741075754e-03</internalNodes>
          <leafValues>
            4.0849533677101135e-01 -1.7582081258296967e-01</leafValues></_>
        <_>
          <internalNodes>
            0 -1 686 2.4353765184059739e-04</internalNodes>
          <leafValues>
            -3.0541902780532837e-01 1.9028976559638977e-01</leafValues></_>
        <_>
          <internalNodes>
            0 -1 94 2.1701041609048843e-02</internalNodes>
          <leafValues>
            1.4115600287914276e-01 -4.9457278847694397e-01</leafValues></_>
        <_>
          <internalNodes>
            0 -1 746 -3.5034762695431709e-03</internalNodes>
          <leafValues>
            1.8203830718994141e-01 -3.0228757858276367e-01</leafValues></_>
        <_>
          <internalNodes>
            0 -1 571 -4.6664867550134659e-03</internalNodes>
          <leafValues>
            2.7412182092666626e-01 -1.8307183682918549e-01</leafValues></_>
        <_>
          <internalNodes>
            0 -1 281 -7.3388487100601196e-02</internalNodes>
          <leafValues>
            -5.3677445650100708e-01 8.2174092531204224e-02</leafValues></_>
        <_>
          <internalNodes>
            0 -1 243 6.0394305735826492e-02</internalNodes>
          <leafValues>
            -1.0266431421041489e-01 4.8330739140510559e-01</leafValues></_>
        <_>
          <internalNodes>
            0 -1 731 1.4486618340015411e-02</internalNodes>
          <leafValues>
            5.8216385543346405e-02 -7.4647998809814453e-01</leafValues></_>
        <_>
          <internalNodes>
            0 -1 457 1.4316190499812365e-03</internalNodes>
          <leafValues>
            5.5082671344280243e-02 -5.7421475648880005e-01</leafValues></_>
        <_>
          <internalNodes>
            0 -1 502 -5.8262061793357134e-04</internalNodes>
          <leafValues>
            2.5917911529541016e-01 -1.4816269278526306e-01</leafValues></_>
        <_>
          <internalNodes>
            0 -1 648 -1.9757710397243500e-03</internalNodes>
          <leafValues>
            -7.1602177619934082e-01 5.6994840502738953e-02</leafValues></_>
        <_>
          <internalNodes>
            0 -1 382 2.9680144507437944e-03</internalNodes>
          <leafValues>
            -2.0742437243461609e-01 2.0675104856491089e-01</leafValues></_>
        <_>
          <internalNodes>
            0 -1 617 4.3076109141111374e-03</internalNodes>
          <leafValues>
            7.8796811401844025e-02 -5.2575516700744629e-01</leafValues></_>
        <_>
          <internalNodes>
            0 -1 529 -2.6147288735955954e-03</internalNodes>
          <leafValues>
            2.0687311887741089e-01 -1.9640354812145233e-01</leafValues></_>
        <_>
          <internalNodes>
            0 -1 356 -3.4258095547556877e-03</internalNodes>
          <leafValues>
            -8.2407075166702271e-01 5.3480960428714752e-02</leafValues></_>
        <_>
          <internalNodes>
            0 -1 105 -3.5937249194830656e-03</internalNodes>
          <leafValues>
            -5.5478966236114502e-01 6.1462301760911942e-02</leafValues></_>
        <_>
          <internalNodes>
            0 -1 527 -3.6657273769378662e-02</internalNodes>
          <leafValues>
            -4.4432163238525391e-01 7.9579770565032959e-02</leafValues></_>
        <_>
          <internalNodes>
            0 -1 600 2.5509451515972614e-03</internalNodes>
          <leafValues>
            6.4962245523929596e-02 -5.6540888547897339e-01</leafValues></_>
        <_>
          <internalNodes>
            0 -1 21 3.3691569697111845e-03</internalNodes>
          <leafValues>
            -1.1695784330368042e-01 3.3472907543182373e-01</leafValues></_>
        <_>
          <internalNodes>
            0 -1 863 3.0865345615893602e-04</internalNodes>
          <leafValues>
            -1.5783365070819855e-01 2.1675868332386017e-01</leafValues></_>
        <_>
          <internalNodes>
            0 -1 166 -1.6898720059543848e-04</internalNodes>
          <leafValues>
            2.0933735370635986e-01 -1.7161476612091064e-01</leafValues></_>
        <_>
          <internalNodes>
            0 -1 530 -3.4927565138787031e-04</internalNodes>
          <leafValues>
            1.5056149661540985e-01 -2.2554884850978851e-01</leafValues></_>
        <_>
          <internalNodes>
            0 -1 642 2.7017425745725632e-03</internalNodes>
          <leafValues>
            4.3976452201604843e-02 -7.2820234298706055e-01</leafValues></_>
        <_>
          <internalNodes>
            0 -1 602 2.5663315318524837e-03</internalNodes>
          <leafValues>
            -1.6356314718723297e-01 1.9463910162448883e-01</leafValues></_>
        <_>
          <internalNodes>
            0 -1 332 2.5509216357022524e-03</internalNodes>
          <leafValues>
            -1.8385079503059387e-01 1.8123300373554230e-01</leafValues></_>
        <_>
          <internalNodes>
            0 -1 220 6.3208572566509247e-02</internalNodes>
          <leafValues>
            6.1809476464986801e-02 -5.2879726886749268e-01</leafValues></_>
        <_>
          <internalNodes>
            0 -1 854 -2.9701986350119114e-03</internalNodes>
          <leafValues>
            -5.7740378379821777e-01 5.0584714859724045e-02</leafValues></_>
        <_>
          <internalNodes>
            0 -1 878 -5.4724630899727345e-04</internalNodes>
          <leafValues>
            1.9648118317127228e-01 -1.8783497810363770e-01</leafValues></_>
        <_>
          <internalNodes>
            0 -1 453 8.1495381891727448e-03</internalNodes>
          <leafValues>
            4.9484562128782272e-02 -7.0309484004974365e-01</leafValues></_>
        <_>
          <internalNodes>
            0 -1 307 1.9716434180736542e-03</internalNodes>
          <leafValues>
            -1.3721922039985657e-01 2.4523158371448517e-01</leafValues></_>
        <_>
          <internalNodes>
            0 -1 229 -1.0403120890259743e-02</internalNodes>
          <leafValues>
            3.2575309276580811e-01 -1.3429312407970428e-01</leafValues></_>
        <_>
          <internalNodes>
            0 -1 634 -7.5080676469951868e-04</internalNodes>
          <leafValues>
            -5.0006425380706787e-01 7.1945600211620331e-02</leafValues></_>
        <_>
          <internalNodes>
            0 -1 388 -9.0526249259710312e-03</internalNodes>
          <leafValues>
            5.3860133886337280e-01 -6.6235780715942383e-02</leafValues></_>
        <_>
          <internalNodes>
            0 -1 874 2.4645619094371796e-02</internalNodes>
          <leafValues>
            -7.0013061165809631e-02 3.9856016635894775e-01</leafValues></_>
        <_>
          <internalNodes>
            0 -1 888 3.8788095116615295e-03</internalNodes>
          <leafValues>
            -8.1458576023578644e-02 3.7634533643722534e-01</leafValues></_>
        <_>
          <internalNodes>
            0 -1 500 1.7957345116883516e-03</internalNodes>
          <leafValues>
            -9.8957084119319916e-02 3.0643880367279053e-01</leafValues></_>
        <_>
          <internalNodes>
            0 -1 501 -3.2768540550023317e-03</internalNodes>
          <leafValues>
            3.8813096284866333e-01 -1.0746394097805023e-01</leafValues></_></weakClassifiers></_>
    <!-- stage 4 -->
    <_>
      <maxWeakCount>45</maxWeakCount>
      <stageThreshold>-1.0567910671234131e+00</stageThreshold>
      <weakClassifiers>
        <_>
          <internalNodes>
            0 -1 70 -5.8580152690410614e-03</internalNodes>
          <leafValues>
            -3.2849603891372681e-01 4.6739712357521057e-01</leafValues></_>
        <_>
          <internalNodes>
            0 -1 16 2.3482078686356544e-02</internalNodes>
          <leafValues>
            -1.3190299272537231e-01 5.4407632350921631e-01</leafValues></_>
        <_>
          <internalNodes>
            0 -1 522 -1.6525487881153822e-03</internalNodes>
          <leafValues>
            1.6245904564857483e-01 -4.3882462382316589e-01</leafValues></_>
        <_>
          <internalNodes>
            0 -1 830 2.5184513069689274e-03</internalNodes>
          <leafValues>
            -2.1909019351005554e-01 2.7012604475021362e-01</leafValues></_>
        <_>
          <internalNodes>
            0 -1 18 -1.1067527811974287e-03</internalNodes>
          <leafValues>
            3.1857013702392578e-01 -1.8141920864582062e-01</leafValues></_>
        <_>
          <internalNodes>
            0 -1 369 1.3012232957407832e-03</internalNodes>
          <leafValues>
            9.3162983655929565e-02 -4.8873996734619141e-01</leafValues></_>
        <_>
          <internalNodes>
            0 -1 317 -4.7996053472161293e-03</internalNodes>
          <leafValues>
            3.0659124255180359e-01 -1.4013308286666870e-01</leafValues></_>
        <_>
          <internalNodes>
            0 -1 200 -8.6656206985935569e-04</internalNodes>
          <leafValues>
            1.9620589911937714e-01 -2.1898925304412842e-01</leafValues></_>
        <_>
          <internalNodes>
            0 -1 895 4.1034743189811707e-03</internalNodes>
          <leafValues>
            -1.2734764814376831e-01 3.5244327783584595e-01</leafValues></_>
        <_>
          <internalNodes>
            0 -1 534 -2.5842087343335152e-03</internalNodes>
          <leafValues>
            -6.7248052358627319e-01 5.9040267020463943e-02</leafValues></_>
        <_>
          <internalNodes>
            0 -1 194 4.7365047037601471e-02</internalNodes>
          <leafValues>
            7.1476466953754425e-02 -5.1723963022232056e-01</leafValues></_>
        <_>
          <internalNodes>
            0 -1 448 4.1644269367679954e-04</internalNodes>
          <leafValues>
            -2.6912832260131836e-01 1.2298884987831116e-01</leafValues></_>
        <_>
          <internalNodes>
            0 -1 319 -3.1445636413991451e-03</internalNodes>
          <leafValues>
            3.4645843505859375e-01 -1.1497991532087326e-01</leafValues></_>
        <_>
          <internalNodes>
            0 -1 555 3.5384716466069221e-03</internalNodes>
          <leafValues>
            7.5546592473983765e-02 -5.8709210157394409e-01</leafValues></_>
        <_>
          <internalNodes>
            0 -1 253 -2.2568302229046822e-02</internalNodes>
          <leafValues>
            6.4856529235839844e-01 -5.6834675371646881e-02</leafValues></_>
        <_>
          <internalNodes>
            0 -1 232 -7.2478363290429115e-04</internalNodes>
          <leafValues>
            2.3942740261554718e-01 -1.6860130429267883e-01</leafValues></_>
        <_>
          <internalNodes>
            0 -1 133 -5.8758340775966644e-02</internalNodes>
          <leafValues>
            -5.1968121528625488e-01 6.4957179129123688e-02</leafValues></_>
        <_>
          <internalNodes>
            0 -1 672 -3.1532789580523968e-04</internalNodes>
          <leafValues>
            1.6347913444042206e-01 -2.0215472579002380e-01</leafValues></_>
        <_>
          <internalNodes>
            0 -1 400 -4.1714347898960114e-03</internalNodes>
          <leafValues>
            2.6655256748199463e-01 -1.2153849005699158e-01</leafValues></_>
        <_>
          <internalNodes>
            0 -1 791 5.4621003801003098e-04</internalNodes>
          <leafValues>
            -1.4922229945659637e-01 2.2547851502895355e-01</leafValues></_>
        <_>
          <internalNodes>
            0 -1 560 1.2993791606277227e-03</internalNodes>
          <leafValues>
            4.8643507063388824e-02 -6.8262207508087158e-01</leafValues></_>
        <_>
          <internalNodes>
            0 -1 801 2.9182676225900650e-03</internalNodes>
          <leafValues>
            5.0419494509696960e-02 -5.2460932731628418e-01</leafValues></_>
        <_>
          <internalNodes>
            0 -1 780 -2.2444989532232285e-02</internalNodes>
          <leafValues>
            -6.8085294961929321e-01 4.0822803974151611e-02</leafValues></_>
        <_>
          <internalNodes>
            0 -1 680 2.1838292013853788e-03</internalNodes>
          <leafValues>
            -1.7187486588954926e-01 1.7715638875961304e-01</leafValues></_>
        <_>
          <internalNodes>
            0 -1 868 2.4434381630271673e-03</internalNodes>
          <leafValues>
            -1.6718441247940063e-01 1.9504640996456146e-01</leafValues></_>
        <_>
          <internalNodes>
            0 -1 813 3.4855600097216666e-04</internalNodes>
          <leafValues>
            1.4104157686233521e-01 -2.4733817577362061e-01</leafValues></_>
        <_>
          <internalNodes>
            0 -1 392 1.4862383250147104e-03</internalNodes>
          <leafValues>
            -1.1099804937839508e-01 2.9063621163368225e-01</leafValues></_>
        <_>
          <internalNodes>
            0 -1 111 -1.4575177920050919e-04</internalNodes>
          <leafValues>
            1.6824392974376678e-01 -1.8143923580646515e-01</leafValues></_>
        <_>
          <internalNodes>
            0 -1 559 4.3202880769968033e-03</internalNodes>
          <leafValues>
            -1.9964621961116791e-01 1.5303188562393188e-01</leafValues></_>
        <_>
          <internalNodes>
            0 -1 632 8.9860567823052406e-04</internalNodes>
          <leafValues>
            5.6249335408210754e-02 -5.5982398986816406e-01</leafValues></_>
        <_>
          <internalNodes>
            0 -1 208 -5.1691673696041107e-02</internalNodes>
          <leafValues>
            -6.5442168712615967e-01 4.4958993792533875e-02</leafValues></_>
        <_>
          <internalNodes>
            0 -1 594 -1.0165616869926453e-02</internalNodes>
          <leafValues>
            -7.0965445041656494e-01 3.6903169006109238e-02</leafValues></_>
        <_>
          <internalNodes>
            0 -1 707 -2.4044463410973549e-02</internalNodes>
          <leafValues>
            5.4071408510208130e-01 -5.8862686157226562e-02</leafValues></_>
        <_>
          <internalNodes>
            0 -1 591 2.6473072357475758e-03</internalNodes>
          <leafValues>
            4.5644860714673996e-02 -6.9440543651580811e-01</leafValues></_>
        <_>
          <internalNodes>
            0 -1 294 -1.2487825006246567e-03</internalNodes>
          <leafValues>
            2.3136535286903381e-01 -1.3142311573028564e-01</leafValues></_>
        <_>
          <internalNodes>
            0 -1 361 -1.3335326220840216e-03</internalNodes>
          <leafValues>
            3.4155780076980591e-01 -1.1341414600610733e-01</leafValues></_>
        <_>
          <internalNodes>
            0 -1 293 6.7850790219381452e-04</internalNodes>
          <leafValues>
            -1.3861656188964844e-01 2.2694234549999237e-01</leafValues></_>
        <_>
          <internalNodes>
            0 -1 547 2.7623996138572693e-03</internalNodes>
          <leafValues>
            5.0852369517087936e-02 -6.8016105890274048e-01</leafValues></_>
        <_>
          <internalNodes>
            0 -1 472 2.1609349641948938e-03</internalNodes>
          <leafValues>
            3.6410912871360779e-02 -6.5907061100006104e-01</leafValues></_>
        <_>
          <internalNodes>
            0 -1 374 3.0551324598491192e-03</internalNodes>
          <leafValues>
            -1.6462695598602295e-01 1.6175344586372375e-01</leafValues></_>
        <_>
          <internalNodes>
            0 -1 102 4.4278148561716080e-02</internalNodes>
          <leafValues>
            1.3258001208305359e-01 -2.5900819897651672e-01</leafValues></_>
        <_>
          <internalNodes>
            0 -1 475 1.5109477564692497e-02</internalNodes>
          <leafValues>
            3.5127140581607819e-02 -8.7847441434860229e-01</leafValues></_>
        <_>
          <internalNodes>
            0 -1 231 3.7945508956909180e-02</internalNodes>
          <leafValues>
            3.8986075669527054e-02 -5.9023684263229370e-01</leafValues></_>
        <_>
          <internalNodes>
            0 -1 811 3.9903112337924540e-04</internalNodes>
          <leafValues>
            -1.3301935791969299e-01 2.1975547075271606e-01</leafValues></_>
        <_>
          <internalNodes>
            0 -1 618 5.9989076107740402e-03</internalNodes>
          <leafValues>
            4.5387566089630127e-02 -6.1430549621582031e-01</leafValues></_></weakClassifiers></_>
    <!-- stage 5 -->
    <_>
      <maxWeakCount>54</maxWeakCount>
      <stageThreshold>-1.0439666509628296e+00</stageThreshold>
      <weakClassifiers>
        <_>
          <internalNodes>
            0 -1 64 -7.0476508699357510e-03</internalNodes>
          <leafValues>
            -2.4845996499061584e-01 4.4608038663864136e-01</leafValues></_>
        <_>
          <internalNodes>
            0 -1 403 3.3141702413558960e-02</internalNodes>
          <leafValues>
            -9.7631968557834625e-02 5.2442127466201782e-01</leafValues></_>
        <_>
          <internalNodes>
            0 -1 202 3.4965211525559425e-03</internalNodes>
          <leafValues>
            -2.7872076630592346e-01 2.0145717263221741e-01</leafValues></_>
        <_>
          <internalNodes>
            0 -1 580 -1.0766400024294853e-02</internalNodes>
          <leafValues>
            3.5137864947319031e-01 -1.8442706763744354e-01</leafValues></_>
        <_>
          <internalNodes>
            0 -1 108 4.8754535615444183e-02</internalNodes>
          <leafValues>
            1.6259886324405670e-01 -4.5018923282623291e-01</leafValues></_>
        <_>
          <internalNodes>
            0 -1 42 5.2452017553150654e-03</internalNodes>
          <leafValues>
            -1.1845591664314270e-01 3.7656813859939575e-01</leafValues></_>
        <_>
          <internalNodes>
            0 -1 853 -4.2483834549784660e-03</internalNodes>
          <leafValues>
            2.1014958620071411e-01 -2.2391781210899353e-01</leafValues></_>
        <_>
          <internalNodes>
            0 -1 511 -4.5066578313708305e-03</internalNodes>
          <leafValues>
            1.0221393406391144e-01 -3.3270794153213501e-01</leafValues></_>
        <_>
          <internalNodes>
            0 -1 866 -2.0708011463284492e-02</internalNodes>
          <leafValues>
            3.2785359025001526e-01 -1.0498832911252975e-01</leafValues></_>
        <_>
          <internalNodes>
            0 -1 497 -1.6005998477339745e-03</internalNodes>
          <leafValues>
            1.9256097078323364e-01 -1.8752779066562653e-01</leafValues></_>
        <_>
          <internalNodes>
            0 -1 212 -2.0595094189047813e-02</internalNodes>
          <leafValues>
            4.0910416841506958e-01 -1.0455375909805298e-01</leafValues></_>
        <_>
          <internalNodes>
            0 -1 539 1.6901344060897827e-03</internalNodes>
          <leafValues>
            6.7830540239810944e-02 -5.9786379337310791e-01</leafValues></_>
        <_>
          <internalNodes>
            0 -1 346 3.6574825644493103e-03</internalNodes>
          <leafValues>
            -2.7960246801376343e-01 1.2957516312599182e-01</leafValues></_>
        <_>
          <internalNodes>
            0 -1 207 5.9701725840568542e-02</internalNodes>
          <leafValues>
            6.8022504448890686e-02 -6.2154734134674072e-01</leafValues></_>
        <_>
          <internalNodes>
            0 -1 496 9.8180444911122322e-03</internalNodes>
          <leafValues>
            5.0833433866500854e-02 -5.2045315504074097e-01</leafValues></_>
        <_>
          <internalNodes>
            0 -1 252 1.3633206486701965e-02</internalNodes>
          <leafValues>
            5.3678646683692932e-02 -5.9177213907241821e-01</leafValues></_>
        <_>
          <internalNodes>
            0 -1 713 -6.3208807259798050e-03</internalNodes>
          <leafValues>
            2.4659441411495209e-01 -1.3247311115264893e-01</leafValues></_>
        <_>
          <internalNodes>
            0 -1 662 1.9004221539944410e-03</internalNodes>
          <leafValues>
            -1.0442841053009033e-01 3.3326688408851624e-01</leafValues></_>
        <_>
          <internalNodes>
            0 -1 565 3.1836705747991800e-03</internalNodes>
          <leafValues>
            4.2055346071720123e-02 -8.1080037355422974e-01</leafValues></_>
        <_>
          <internalNodes>
            0 -1 66 -1.4123291475698352e-03</internalNodes>
          <leafValues>
            2.3061724007129669e-01 -1.1773025989532471e-01</leafValues></_>
        <_>
          <internalNodes>
            0 -1 614 3.5684459726326168e-04</internalNodes>
          <leafValues>
            -1.9670189917087555e-01 1.3621398806571960e-01</leafValues></_>
        <_>
          <internalNodes>
            0 -1 800 2.8541246429085732e-03</internalNodes>
          <leafValues>
            4.2025301605463028e-02 -6.6958528757095337e-01</leafValues></_>
        <_>
          <internalNodes>
            0 -1 639 3.8226963952183723e-03</internalNodes>
          <leafValues>
            -1.9518536329269409e-01 1.7516399919986725e-01</leafValues></_>
        <_>
          <internalNodes>
            0 -1 725 -8.8938418775796890e-03</internalNodes>
          <leafValues>
            3.9552322030067444e-01 -9.7884766757488251e-02</leafValues></_>
        <_>
          <internalNodes>
            0 -1 708 3.0832071788609028e-03</internalNodes>
          <leafValues>
            4.9301609396934509e-02 -7.0376062393188477e-01</leafValues></_>
        <_>
          <internalNodes>
            0 -1 795 -4.9692497123032808e-04</internalNodes>
          <leafValues>
            1.4202702045440674e-01 -1.8834324181079865e-01</leafValues></_>
        <_>
          <internalNodes>
            0 -1 786 1.4821391087025404e-03</internalNodes>
          <leafValues>
            -1.3662631809711456e-01 1.9250141084194183e-01</leafValues></_>
        <_>
          <internalNodes>
            0 -1 752 2.5638602674007416e-03</internalNodes>
          <leafValues>
            5.2662506699562073e-02 -5.6437295675277710e-01</leafValues></_>
        <_>
          <internalNodes>
            0 -1 727 -4.2244993150234222e-02</internalNodes>
          <leafValues>
            -5.1256918907165527e-01 5.4613467305898666e-02</leafValues></_>
        <_>
          <internalNodes>
            0 -1 241 -5.6302053853869438e-03</internalNodes>
          <leafValues>
            2.7260988950729370e-01 -1.0680199414491653e-01</leafValues></_>
        <_>
          <internalNodes>
            0 -1 295 3.6295936442911625e-03</internalNodes>
          <leafValues>
            -1.4985899627208710e-01 1.8547309935092926e-01</leafValues></_>
        <_>
          <internalNodes>
            0 -1 450 -3.5756351426243782e-03</internalNodes>
          <leafValues>
            -3.6939647793769836e-01 8.1040918827056885e-02</leafValues></_>
        <_>
          <internalNodes>
            0 -1 272 -1.7083799466490746e-03</internalNodes>
          <leafValues>
            3.1572857499122620e-01 -9.4636723399162292e-02</leafValues></_>
        <_>
          <internalNodes>
            0 -1 399 3.2809139229357243e-03</internalNodes>
          <leafValues>
            -8.6180768907070160e-02 3.2593908905982971e-01</leafValues></_>
        <_>
          <internalNodes>
            0 -1 528 -4.4847903773188591e-03</internalNodes>
          <leafValues>
            -4.7029298543930054e-01 6.2544904649257660e-02</leafValues></_>
        <_>
          <internalNodes>
            0 -1 489 1.6893330030143261e-03</internalNodes>
          <leafValues>
            -1.9938935339450836e-01 1.3254849612712860e-01</leafValues></_>
        <_>
          <internalNodes>
            0 -1 455 2.3901297245174646e-03</internalNodes>
          <leafValues>
            4.0897324681282043e-02 -7.1865177154541016e-01</leafValues></_>
        <_>
          <internalNodes>
            0 -1 407 -2.4289488792419434e-03</internalNodes>
          <leafValues>
            -5.3139108419418335e-01 4.1340794414281845e-02</leafValues></_>
        <_>
          <internalNodes>
            0 -1 189 -4.7861752682365477e-04</internalNodes>
          <leafValues>
            1.9624063372612000e-01 -1.5551619231700897e-01</leafValues></_>
        <_>
          <internalNodes>
            0 -1 846 1.7339179757982492e-03</internalNodes>
          <leafValues>
            -1.4417921006679535e-01 1.7739103734493256e-01</leafValues></_>
        <_>
          <internalNodes>
            0 -1 270 -1.1406692862510681e-01</internalNodes>
          <leafValues>
            4.4723805785179138e-01 -6.0083270072937012e-02</leafValues></_>
        <_>
          <internalNodes>
            0 -1 648 2.2740443237125874e-03</internalNodes>
          <leafValues>
            5.5279299616813660e-02 -5.9970635175704956e-01</leafValues></_>
        <_>
          <internalNodes>
            0 -1 717 1.5408729668706656e-03</internalNodes>
          <leafValues>
            -1.1547345668077469e-01 2.2127762436866760e-01</leafValues></_>
        <_>
          <internalNodes>
            0 -1 209 7.6771765016019344e-03</internalNodes>
          <leafValues>
            3.3922843635082245e-02 -7.4727571010589600e-01</leafValues></_>
        <_>
          <internalNodes>
            0 -1 720 1.9003460183739662e-02</internalNodes>
          <leafValues>
            3.3609271049499512e-02 -6.3723582029342651e-01</leafValues></_>
        <_>
          <internalNodes>
            0 -1 467 3.5405680537223816e-03</internalNodes>
          <leafValues>
            -2.0862922072410583e-01 1.1077160388231277e-01</leafValues></_>
        <_>
          <internalNodes>
            0 -1 60 4.2669601738452911e-02</internalNodes>
          <leafValues>
            6.9358520209789276e-02 -4.0901270508766174e-01</leafValues></_>
        <_>
          <internalNodes>
            0 -1 140 1.8930058926343918e-02</internalNodes>
          <leafValues>
            -1.8716193735599518e-01 1.9488936662673950e-01</leafValues></_>
        <_>
          <internalNodes>
            0 -1 610 7.0041650906205177e-03</internalNodes>
          <leafValues>
            -9.7425177693367004e-02 3.7152722477912903e-01</leafValues></_>
        <_>
          <internalNodes>
            0 -1 598 1.5052994713187218e-02</internalNodes>
          <leafValues>
            6.0209047049283981e-02 -4.6151721477508545e-01</leafValues></_>
        <_>
          <internalNodes>
            0 -1 373 4.6933940611779690e-03</internalNodes>
          <leafValues>
            3.4823395311832428e-02 -6.3273453712463379e-01</leafValues></_>
        <_>
          <internalNodes>
            0 -1 331 -9.8886736668646336e-04</internalNodes>
          <leafValues>
            1.7970459163188934e-01 -1.4622874557971954e-01</leafValues></_>
        <_>
          <internalNodes>
            0 -1 51 1.3693592045456171e-03</internalNodes>
          <leafValues>
            -1.0297556966543198e-01 2.2640056908130646e-01</leafValues></_>
        <_>
          <internalNodes>
            0 -1 821 2.3467117920517921e-02</internalNodes>
          <leafValues>
            2.4818500503897667e-02 -9.0812432765960693e-01</leafValues></_></weakClassifiers></_>
    <!-- stage 6 -->
    <_>
      <maxWeakCount>69</maxWeakCount>
      <stageThreshold>-1.0945734977722168e+00</stageThreshold>
      <weakClassifiers>
        <_>
          <internalNodes>
            0 -1 54 -4.5998640358448029e-02</internalNodes>
          <leafValues>
            -2.7534040808677673e-01 4.3813493847846985e-01</leafValues></_>
        <_>
          <internalNodes>
            0 -1 515 -2.7393596246838570e-03</internalNodes>
          <leafValues>
            1.9297108054161072e-01 -3.3618935942649841e-01</leafValues></_>
        <_>
          <internalNodes>
            0 -1 36 3.2979859970510006e-03</internalNodes>
          <leafValues>
            -1.7311502993106842e-01 3.0982306599617004e-01</leafValues></_>
        <_>
          <internalNodes>
            0 -1 857 -1.0921277571469545e-03</internalNodes>
          <leafValues>
            2.3854665458202362e-01 -2.0815718173980713e-01</leafValues></_>
        <_>
          <internalNodes>
            0 -1 260 -6.9726456422358751e-04</internalNodes>
          <leafValues>
            1.9575743377208710e-01 -2.1715497970581055e-01</leafValues></_>
        <_>
          <internalNodes>
            0 -1 838 2.2792277741245925e-04</internalNodes>
          <leafValues>
            -2.2475033998489380e-01 1.7262437939643860e-01</leafValues></_>
        <_>
          <internalNodes>
            0 -1 894 1.7783292569220066e-03</internalNodes>
          <leafValues>
            -1.4596448838710785e-01 2.5910356640815735e-01</leafValues></_>
        <_>
          <internalNodes>
            0 -1 234 2.1608222275972366e-02</internalNodes>
          <leafValues>
            7.8797623515129089e-02 -5.0247615575790405e-01</leafValues></_>
        <_>
          <internalNodes>
            0 -1 729 -4.2956128716468811e-02</internalNodes>
          <leafValues>
            -5.8837389945983887e-01 4.7842167317867279e-02</leafValues></_>
        <_>
          <internalNodes>
            0 -1 698 -2.7080133440904319e-04</internalNodes>
          <leafValues>
            1.0686096549034119e-01 -2.8902494907379150e-01</leafValues></_>
        <_>
          <internalNodes>
            0 -1 870 4.7538708895444870e-04</internalNodes>
          <leafValues>
            -1.7484886944293976e-01 1.8300043046474457e-01</leafValues></_>
        <_>
          <internalNodes>
            0 -1 198 1.9325494766235352e-02</internalNodes>
          <leafValues>
            5.8650098741054535e-02 -5.3864932060241699e-01</leafValues></_>
        <_>
          <internalNodes>
            0 -1 417 -6.2170103192329407e-03</internalNodes>
          <leafValues>
            -5.3652423620223999e-01 5.1833290606737137e-02</leafValues></_>
        <_>
          <internalNodes>
            0 -1 296 8.9394059032201767e-03</internalNodes>
          <leafValues>
            -1.3512524962425232e-01 2.2794170677661896e-01</leafValues></_>
        <_>
          <internalNodes>
            0 -1 563 -1.3056739699095488e-03</internalNodes>
          <leafValues>
            -3.0478173494338989e-01 1.2958237528800964e-01</leafValues></_>
        <_>
          <internalNodes>
            0 -1 4 -2.3821176961064339e-02</internalNodes>
          <leafValues>
            3.8713163137435913e-01 -8.0819420516490936e-02</leafValues></_>
        <_>
          <internalNodes>
            0 -1 583 2.9736794531345367e-03</internalNodes>
          <leafValues>
            -7.9955883324146271e-02 3.3077320456504822e-01</leafValues></_>
        <_>
          <internalNodes>
            0 -1 531 6.4678039052523673e-05</internalNodes>
          <leafValues>
            -3.2588556408882141e-01 1.0013216733932495e-01</leafValues></_>
        <_>
          <internalNodes>
            0 -1 444 2.1761041134595871e-03</internalNodes>
          <leafValues>
            4.6749781817197800e-02 -6.0347497463226318e-01</leafValues></_>
        <_>
          <internalNodes>
            0 -1 466 6.0770278796553612e-03</internalNodes>
          <leafValues>
            3.6579396575689316e-02 -6.5925192832946777e-01</leafValues></_>
        <_>
          <internalNodes>
            0 -1 684 -3.7648697616532445e-04</internalNodes>
          <leafValues>
            1.3097588717937469e-01 -2.0638020336627960e-01</leafValues></_>
        <_>
          <internalNodes>
            0 -1 867 -2.4147249758243561e-02</internalNodes>
          <leafValues>
            3.4490859508514404e-01 -7.4955113232135773e-02</leafValues></_>
        <_>
          <internalNodes>
            0 -1 544 1.2443318963050842e-02</internalNodes>
          <leafValues>
            -1.5710456669330597e-01 1.5751211345195770e-01</leafValues></_>
        <_>
          <internalNodes>
            0 -1 161 -1.2297749519348145e-02</internalNodes>
          <leafValues>
            3.3392271399497986e-01 -9.2697024345397949e-02</leafValues></_>
        <_>
          <internalNodes>
            0 -1 299 2.7726953849196434e-03</internalNodes>
          <leafValues>
            6.0071844607591629e-02 -4.9999400973320007e-01</leafValues></_>
        <_>
          <internalNodes>
            0 -1 114 -2.0848843269050121e-03</internalNodes>
          <leafValues>
            1.5432244539260864e-01 -1.6247370839118958e-01</leafValues></_>
        <_>
          <internalNodes>
            0 -1 273 7.3146317154169083e-03</internalNodes>
          <leafValues>
            4.4372450560331345e-02 -5.4444867372512817e-01</leafValues></_>
        <_>
          <internalNodes>
            0 -1 845 -7.0242434740066528e-03</internalNodes>
          <leafValues>
            1.6079008579254150e-01 -1.5136797726154327e-01</leafValues></_>
        <_>
          <internalNodes>
            0 -1 397 -3.3929083496332169e-02</internalNodes>
          <leafValues>
            3.4700608253479004e-01 -6.8185493350028992e-02</leafValues></_>
        <_>
          <internalNodes>
            0 -1 246 6.9505423307418823e-03</internalNodes>
          <leafValues>
            -7.2971269488334656e-02 3.9664709568023682e-01</leafValues></_>
        <_>
          <internalNodes>
            0 -1 754 7.3436377570033073e-03</internalNodes>
          <leafValues>
            5.6628677994012833e-02 -4.4584986567497253e-01</leafValues></_>
        <_>
          <internalNodes>
            0 -1 785 5.3863076027482748e-04</internalNodes>
          <leafValues>
            -1.4996609091758728e-01 1.5646094083786011e-01</leafValues></_>
        <_>
          <internalNodes>
            0 -1 675 1.0359408333897591e-03</internalNodes>
          <leafValues>
            -1.4278605580329895e-01 1.5511375665664673e-01</leafValues></_>
        <_>
          <internalNodes>
            0 -1 548 -1.5873259399086237e-03</internalNodes>
          <leafValues>
            -6.6839385032653809e-01 3.5297807306051254e-02</leafValues></_>
        <_>
          <internalNodes>
            0 -1 245 7.2475122287869453e-03</internalNodes>
          <leafValues>
            -6.3513487577438354e-02 3.7198814749717712e-01</leafValues></_>
        <_>
          <internalNodes>
            0 -1 719 -2.4561563041061163e-03</internalNodes>
          <leafValues>
            -4.8166176676750183e-01 4.7627508640289307e-02</leafValues></_>
        <_>
          <internalNodes>
            0 -1 671 1.9742805510759354e-02</internalNodes>
          <leafValues>
            3.8443196564912796e-02 -5.1280617713928223e-01</leafValues></_>
        <_>
          <internalNodes>
            0 -1 794 -7.2929530870169401e-04</internalNodes>
          <leafValues>
            1.5154254436492920e-01 -1.4649489521980286e-01</leafValues></_>
        <_>
          <internalNodes>
            0 -1 309 1.5894807875156403e-02</internalNodes>
          <leafValues>
            2.5040425360202789e-02 -8.2181251049041748e-01</leafValues></_>
        <_>
          <internalNodes>
            0 -1 431 -9.5929037779569626e-03</internalNodes>
          <leafValues>
            -6.2680351734161377e-01 2.8190748766064644e-02</leafValues></_>
        <_>
          <internalNodes>
            0 -1 251 1.4300099574029446e-03</internalNodes>
          <leafValues>
            -1.0794302076101303e-01 1.9692438840866089e-01</leafValues></_>
        <_>
          <internalNodes>
            0 -1 575 -1.8085144693031907e-03</internalNodes>
          <leafValues>
            2.0513810217380524e-01 -1.0161259770393372e-01</leafValues></_>
        <_>
          <internalNodes>
            0 -1 574 5.2144806832075119e-03</internalNodes>
          <leafValues>
            -8.8276244699954987e-02 2.7805984020233154e-01</leafValues></_>
        <_>
          <internalNodes>
            0 -1 626 -5.7734071742743254e-04</internalNodes>
          <leafValues>
            -3.8483047485351562e-01 5.5214487016201019e-02</leafValues></_>
        <_>
          <internalNodes>
            0 -1 603 2.1647331304848194e-03</internalNodes>
          <leafValues>
            -1.1762306839227676e-01 1.7798414826393127e-01</leafValues></_>
        <_>
          <internalNodes>
            0 -1 516 -1.2918414548039436e-02</internalNodes>
          <leafValues>
            2.7942612767219543e-01 -9.5979183912277222e-02</leafValues></_>
        <_>
          <internalNodes>
            0 -1 637 -1.6934990417212248e-03</internalNodes>
          <leafValues>
            -2.0467343926429749e-01 1.1425011605024338e-01</leafValues></_>
        <_>
          <internalNodes>
            0 -1 584 -7.0413723587989807e-02</internalNodes>
          <leafValues>
            -4.5025414228439331e-01 5.5210269987583160e-02</leafValues></_>
        <_>
          <internalNodes>
            0 -1 646 1.0812729597091675e-03</internalNodes>
          <leafValues>
            -1.4529451727867126e-01 1.4434607326984406e-01</leafValues></_>
        <_>
          <internalNodes>
            0 -1 844 1.0902511421591043e-03</internalNodes>
          <leafValues>
            6.0765407979488373e-02 -3.3892768621444702e-01</leafValues></_>
        <_>
          <internalNodes>
            0 -1 702 2.7203086763620377e-02</internalNodes>
          <leafValues>
            3.2509669661521912e-02 -5.4022806882858276e-01</leafValues></_>
        <_>
          <internalNodes>
            0 -1 236 -7.8055267222225666e-03</internalNodes>
          <leafValues>
            2.5515606999397278e-01 -8.1005454063415527e-02</leafValues></_>
        <_>
          <internalNodes>
            0 -1 562 9.8355477675795555e-03</internalNodes>
          <leafValues>
            2.9712716117501259e-02 -8.3346635103225708e-01</leafValues></_>
        <_>
          <internalNodes>
            0 -1 570 -6.1066297348588705e-04</internalNodes>
          <leafValues>
            1.4113551378250122e-01 -1.4920301735401154e-01</leafValues></_>
        <_>
          <internalNodes>
            0 -1 878 -8.1402721116319299e-04</internalNodes>
          <leafValues>
            1.6406790912151337e-01 -1.2543244659900665e-01</leafValues></_>
        <_>
          <internalNodes>
            0 -1 495 3.4067463129758835e-03</internalNodes>
          <leafValues>
            5.3335715085268021e-02 -3.9857545495033264e-01</leafValues></_>
        <_>
          <internalNodes>
            0 -1 139 -7.2548044845461845e-03</internalNodes>
          <leafValues>
            -4.0169560909271240e-01 5.0221282988786697e-02</leafValues></_>
        <_>
          <internalNodes>
            0 -1 268 -5.7770293205976486e-02</internalNodes>
          <leafValues>
            -5.4496043920516968e-01 3.6039467900991440e-02</leafValues></_>
        <_>
          <internalNodes>
            0 -1 828 -2.8468109667301178e-03</internalNodes>
          <leafValues>
            -4.2597967386245728e-01 4.3015208095312119e-02</leafValues></_>
        <_>
          <internalNodes>
            0 -1 862 1.7318733735010028e-03</internalNodes>
          <leafValues>
            -1.2209129333496094e-01 2.1850946545600891e-01</leafValues></_>
        <_>
          <internalNodes>
            0 -1 167 -1.5158674214035273e-03</internalNodes>
          <leafValues>
            1.4243109524250031e-01 -1.5581984817981720e-01</leafValues></_>
        <_>
          <internalNodes>
            0 -1 124 -3.0087813735008240e-02</internalNodes>
          <leafValues>
            -4.5663192868232727e-01 5.2911050617694855e-02</leafValues></_>
        <_>
          <internalNodes>
            0 -1 135 6.2451767735183239e-03</internalNodes>
          <leafValues>
            7.5616315007209778e-02 -2.7793568372726440e-01</leafValues></_>
        <_>
          <internalNodes>
            0 -1 90 2.1955177187919617e-02</internalNodes>
          <leafValues>
            -1.3919018208980560e-01 1.6109199821949005e-01</leafValues></_>
        <_>
          <internalNodes>
            0 -1 549 4.1427311953157187e-04</internalNodes>
          <leafValues>
            -1.5835185348987579e-01 1.4727532863616943e-01</leafValues></_>
        <_>
          <internalNodes>
            0 -1 634 7.0664752274751663e-04</internalNodes>
          <leafValues>
            5.8292340487241745e-02 -4.3689578771591187e-01</leafValues></_>
        <_>
          <internalNodes>
            0 -1 458 -5.5680039804428816e-04</internalNodes>
          <leafValues>
            2.0097506046295166e-01 -1.1817454546689987e-01</leafValues></_>
        <_>
          <internalNodes>
            0 -1 561 5.3294748067855835e-04</internalNodes>
          <leafValues>
            -1.1631409823894501e-01 2.0296950638294220e-01</leafValues></_>
        <_>
          <internalNodes>
            0 -1 247 1.0599370300769806e-01</internalNodes>
          <leafValues>
            4.1566628962755203e-02 -5.4149556159973145e-01</leafValues></_></weakClassifiers></_>
    <!-- stage 7 -->
    <_>
      <maxWeakCount>75</maxWeakCount>
      <stageThreshold>-1.0211050510406494e+00</stageThreshold>
      <weakClassifiers>
        <_>
          <internalNodes>
            0 -1 192 -3.4162349998950958e-02</internalNodes>
          <leafValues>
            -2.8639999032020569e-01 4.3329033255577087e-01</leafValues></_>
        <_>
          <internalNodes>
            0 -1 65 3.9455963997170329e-04</internalNodes>
          <leafValues>
            -2.2561067342758179e-01 2.3128660023212433e-01</leafValues></_>
        <_>
          <internalNodes>
            0 -1 890 -7.4827577918767929e-03</internalNodes>
          <leafValues>
            3.8046315312385559e-01 -1.2204349786043167e-01</leafValues></_>
        <_>
          <internalNodes>
            0 -1 605 4.0757488459348679e-03</internalNodes>
          <leafValues>
            -2.6399663090705872e-01 1.9003544747829437e-01</leafValues></_>
        <_>
          <internalNodes>
            0 -1 224 2.3562515154480934e-02</internalNodes>
          <leafValues>
            7.8204043209552765e-02 -4.2845478653907776e-01</leafValues></_>
        <_>
          <internalNodes>
            0 -1 83 1.5733573585748672e-02</internalNodes>
          <leafValues>
            7.9716466367244720e-02 -5.0879800319671631e-01</leafValues></_>
        <_>
          <internalNodes>
            0 -1 100 -5.9428703971207142e-03</internalNodes>
          <leafValues>
            -6.1094886064529419e-01 5.4428484290838242e-02</leafValues></_>
        <_>
          <internalNodes>
            0 -1 835 3.8147796294651926e-04</internalNodes>
          <leafValues>
            -1.6947755217552185e-01 2.0625054836273193e-01</leafValues></_>
        <_>
          <internalNodes>
            0 -1 483 3.3833812922239304e-03</internalNodes>
          <leafValues>
            -2.0234017074108124e-01 1.5409491956233978e-01</leafValues></_>
        <_>
          <internalNodes>
            0 -1 582 4.2398029472678900e-04</internalNodes>
          <leafValues>
            -1.4202775061130524e-01 2.0639745891094208e-01</leafValues></_>
        <_>
          <internalNodes>
            0 -1 778 2.9604334384202957e-02</internalNodes>
          <leafValues>
            4.5085094869136810e-02 -5.0535988807678223e-01</leafValues></_>
        <_>
          <internalNodes>
            0 -1 601 -2.5727525353431702e-03</internalNodes>
          <leafValues>
            1.9732457399368286e-01 -1.6366428136825562e-01</leafValues></_>
        <_>
          <internalNodes>
            0 -1 213 -2.5414686650037766e-02</internalNodes>
          <leafValues>
            4.0411677956581116e-01 -7.7958635985851288e-02</leafValues></_>
        <_>
          <internalNodes>
            0 -1 171 -8.8571133092045784e-03</internalNodes>
          <leafValues>
            2.2231291234493256e-01 -1.2024773657321930e-01</leafValues></_>
        <_>
          <internalNodes>
            0 -1 649 7.6444922015070915e-03</internalNodes>
          <leafValues>
            3.7301275879144669e-02 -7.5432896614074707e-01</leafValues></_>
        <_>
          <internalNodes>
            0 -1 279 1.0368414223194122e-03</internalNodes>
          <leafValues>
            -1.9838182628154755e-01 1.4706829190254211e-01</leafValues></_>
        <_>
          <internalNodes>
            0 -1 344 2.1845480427145958e-02</internalNodes>
          <leafValues>
            3.5294789820909500e-02 -7.3819845914840698e-01</leafValues></_>
        <_>
          <internalNodes>
            0 -1 419 6.0762846842408180e-03</internalNodes>
          <leafValues>
            3.8115315139293671e-02 -5.1751160621643066e-01</leafValues></_>
        <_>
          <internalNodes>
            0 -1 881 1.0672723874449730e-03</internalNodes>
          <leafValues>
            -1.3463866710662842e-01 1.6584154963493347e-01</leafValues></_>
        <_>
          <internalNodes>
            0 -1 756 -2.3974895477294922e-02</internalNodes>
          <leafValues>
            4.3146207928657532e-01 -5.1651634275913239e-02</leafValues></_>
        <_>
          <internalNodes>
            0 -1 558 3.6829139571636915e-03</internalNodes>
          <leafValues>
            5.7840581983327866e-02 -5.0102680921554565e-01</leafValues></_>
        <_>
          <internalNodes>
            0 -1 747 -6.3538327813148499e-03</internalNodes>
          <leafValues>
            2.3179309070110321e-01 -1.0396011918783188e-01</leafValues></_>
        <_>
          <internalNodes>
            0 -1 665 -1.4265663921833038e-03</internalNodes>
          <leafValues>
            2.8324046730995178e-01 -8.9636243879795074e-02</leafValues></_>
        <_>
          <internalNodes>
            0 -1 462 -6.1513925902545452e-04</internalNodes>
          <leafValues>
            -2.7809947729110718e-01 8.7719030678272247e-02</leafValues></_>
        <_>
          <internalNodes>
            0 -1 265 -1.8041871488094330e-02</internalNodes>
          <leafValues>
            -6.4420956373214722e-01 3.4882459789514542e-02</leafValues></_>
        <_>
          <internalNodes>
            0 -1 323 4.6898193657398224e-02</internalNodes>
          <leafValues>
            -8.6354330182075500e-02 2.7763852477073669e-01</leafValues></_>
        <_>
          <internalNodes>
            0 -1 687 -9.2207244597375393e-04</internalNodes>
          <leafValues>
            -2.2746182978153229e-01 1.1548486351966858e-01</leafValues></_>
        <_>
          <internalNodes>
            0 -1 169 1.2678630650043488e-02</internalNodes>
          <leafValues>
            -8.8961273431777954e-02 3.2918605208396912e-01</leafValues></_>
        <_>
          <internalNodes>
            0 -1 87 4.1490156203508377e-02</internalNodes>
          <leafValues>
            6.4193300902843475e-02 -3.8301014900207520e-01</leafValues></_>
        <_>
          <internalNodes>
            0 -1 733 -1.1608963832259178e-02</internalNodes>
          <leafValues>
            -4.7359386086463928e-01 4.1382689028978348e-02</leafValues></_>
        <_>
          <internalNodes>
            0 -1 282 -7.9213589197024703e-04</internalNodes>
          <leafValues>
            1.7917805910110474e-01 -1.2920325994491577e-01</leafValues></_>
        <_>
          <internalNodes>
            0 -1 227 8.6472164839506149e-03</internalNodes>
          <leafValues>
            -9.7084224224090576e-02 2.4468789994716644e-01</leafValues></_>
        <_>
          <internalNodes>
            0 -1 522 -6.9032207829877734e-04</internalNodes>
          <leafValues>
            7.0957846939563751e-02 -2.8721982240676880e-01</leafValues></_>
        <_>
          <internalNodes>
            0 -1 806 4.2215809226036072e-03</internalNodes>
          <leafValues>
            3.8516014814376831e-02 -4.9470159411430359e-01</leafValues></_>
        <_>
          <internalNodes>
            0 -1 682 1.9193440675735474e-02</internalNodes>
          <leafValues>
            2.6476053521037102e-02 -6.8181115388870239e-01</leafValues></_>
        <_>
          <internalNodes>
            0 -1 473 -1.6086462419480085e-03</internalNodes>
          <leafValues>
            -7.1425753831863403e-01 2.2683594375848770e-02</leafValues></_>
        <_>
          <internalNodes>
            0 -1 7 9.8735950887203217e-03</internalNodes>
          <leafValues>
            -6.3656345009803772e-02 3.2903185486793518e-01</leafValues></_>
        <_>
          <internalNodes>
            0 -1 897 -2.1001517307013273e-03</internalNodes>
          <leafValues>
            1.9435015320777893e-01 -1.0141096264123917e-01</leafValues></_>
        <_>
          <internalNodes>
            0 -1 738 1.8012825399637222e-02</internalNodes>
          <leafValues>
            2.3576728999614716e-02 -8.5382872819900513e-01</leafValues></_>
        <_>
          <internalNodes>
            0 -1 610 8.9029977098107338e-03</internalNodes>
          <leafValues>
            -6.6215097904205322e-02 3.3677491545677185e-01</leafValues></_>
        <_>
          <internalNodes>
            0 -1 621 2.1093664690852165e-03</internalNodes>
          <leafValues>
            1.0173795372247696e-01 -2.6473042368888855e-01</leafValues></_>
        <_>
          <internalNodes>
            0 -1 604 -3.7371832877397537e-03</internalNodes>
          <leafValues>
            -3.4023654460906982e-01 5.8640930801630020e-02</leafValues></_>
        <_>
          <internalNodes>
            0 -1 891 1.3583549298346043e-03</internalNodes>
          <leafValues>
            -5.2025008946657181e-02 3.8960543274879456e-01</leafValues></_>
        <_>
          <internalNodes>
            0 -1 714 5.5298903025686741e-03</internalNodes>
          <leafValues>
            -7.9116046428680420e-02 2.4884518980979919e-01</leafValues></_>
        <_>
          <internalNodes>
            0 -1 674 -7.5439726933836937e-03</internalNodes>
          <leafValues>
            -5.4595643281936646e-01 3.6878656595945358e-02</leafValues></_>
        <_>
          <internalNodes>
            0 -1 280 -2.5242032483220100e-02</internalNodes>
          <leafValues>
            -4.5412886142730713e-01 4.0132056921720505e-02</leafValues></_>
        <_>
          <internalNodes>
            0 -1 775 1.6541627701371908e-04</internalNodes>
          <leafValues>
            -1.5321791172027588e-01 1.2416119128465652e-01</leafValues></_>
        <_>
          <internalNodes>
            0 -1 322 -5.9711702167987823e-02</internalNodes>
          <leafValues>
            3.2259237766265869e-01 -6.1688628047704697e-02</leafValues></_>
        <_>
          <internalNodes>
            0 -1 513 -8.4512121975421906e-04</internalNodes>
          <leafValues>
            1.7451447248458862e-01 -1.3436822593212128e-01</leafValues></_>
        <_>
          <internalNodes>
            0 -1 29 3.5484316758811474e-03</internalNodes>
          <leafValues>
            -8.3100438117980957e-02 2.3521648347377777e-01</leafValues></_>
        <_>
          <internalNodes>
            0 -1 644 1.5089070657268167e-03</internalNodes>
          <leafValues>
            4.6552017331123352e-02 -4.3172109127044678e-01</leafValues></_>
        <_>
          <internalNodes>
            0 -1 199 2.9205828905105591e-02</internalNodes>
          <leafValues>
            3.3444382250308990e-02 -5.6564015150070190e-01</leafValues></_>
        <_>
          <internalNodes>
            0 -1 689 -7.9855159856379032e-04</internalNodes>
          <leafValues>
            1.2817052006721497e-01 -1.4390242099761963e-01</leafValues></_>
        <_>
          <internalNodes>
            0 -1 827 5.2734185010194778e-03</internalNodes>
          <leafValues>
            3.4581009298563004e-02 -5.2454245090484619e-01</leafValues></_>
        <_>
          <internalNodes>
            0 -1 792 8.6171901784837246e-04</internalNodes>
          <leafValues>
            -1.1977032572031021e-01 1.6269290447235107e-01</leafValues></_>
        <_>
          <internalNodes>
            0 -1 5 -4.2538009583950043e-03</internalNodes>
          <leafValues>
            2.3893634974956512e-01 -7.3860622942447662e-02</leafValues></_>
        <_>
          <internalNodes>
            0 -1 540 -1.3288323534652591e-03</internalNodes>
          <leafValues>
            -5.5886071920394897e-01 3.2439544796943665e-02</leafValues></_>
        <_>
          <internalNodes>
            0 -1 351 9.2071713879704475e-04</internalNodes>
          <leafValues>
            -1.2276921421289444e-01 1.4603322744369507e-01</leafValues></_>
        <_>
          <internalNodes>
            0 -1 190 -1.5379964374005795e-02</internalNodes>
          <leafValues>
            3.2926708459854126e-01 -5.6085411459207535e-02</leafValues></_>
        <_>
          <internalNodes>
            0 -1 330 -9.3959808349609375e-02</internalNodes>
          <leafValues>
            -4.1380229592323303e-01 4.9482576549053192e-02</leafValues></_>
        <_>
          <internalNodes>
            0 -1 372 -2.4673594161868095e-03</internalNodes>
          <leafValues>
            1.8756151199340820e-01 -1.0401225835084915e-01</leafValues></_>
        <_>
          <internalNodes>
            0 -1 368 -1.0678254067897797e-02</internalNodes>
          <leafValues>
            -2.0780827105045319e-01 9.5165051519870758e-02</leafValues></_>
        <_>
          <internalNodes>
            0 -1 102 1.5580354630947113e-01</internalNodes>
          <leafValues>
            -4.6904545277357101e-02 5.3382730484008789e-01</leafValues></_>
        <_>
          <internalNodes>
            0 -1 69 5.7098120450973511e-02</internalNodes>
          <leafValues>
            3.4891553223133087e-02 -6.7668336629867554e-01</leafValues></_>
        <_>
          <internalNodes>
            0 -1 387 5.3657330572605133e-03</internalNodes>
          <leafValues>
            2.2868586704134941e-02 -5.7644218206405640e-01</leafValues></_>
        <_>
          <internalNodes>
            0 -1 377 1.4744306914508343e-02</internalNodes>
          <leafValues>
            -4.8644665628671646e-02 3.7889650464057922e-01</leafValues></_>
        <_>
          <internalNodes>
            0 -1 659 -1.1965924641117454e-03</internalNodes>
          <leafValues>
            1.4132130146026611e-01 -1.2334509938955307e-01</leafValues></_>
        <_>
          <internalNodes>
            0 -1 612 -9.3872249126434326e-03</internalNodes>
          <leafValues>
            -1.8422032892704010e-01 1.0547250509262085e-01</leafValues></_>
        <_>
          <internalNodes>
            0 -1 546 1.1974887456744909e-03</internalNodes>
          <leafValues>
            3.6250956356525421e-02 -5.1342540979385376e-01</leafValues></_>
        <_>
          <internalNodes>
            0 -1 543 4.8871859908103943e-03</internalNodes>
          <leafValues>
            -1.4028717577457428e-01 1.2961095571517944e-01</leafValues></_>
        <_>
          <internalNodes>
            0 -1 620 -2.0756332203745842e-02</internalNodes>
          <leafValues>
            5.0705993175506592e-01 -4.2578447610139847e-02</leafValues></_>
        <_>
          <internalNodes>
            0 -1 498 1.4225374907255173e-02</internalNodes>
          <leafValues>
            2.9511088505387306e-02 -7.0676642656326294e-01</leafValues></_>
        <_>
          <internalNodes>
            0 -1 45 1.6677527455613017e-03</internalNodes>
          <leafValues>
            -8.3779796957969666e-02 2.1618328988552094e-01</leafValues></_>
        <_>
          <internalNodes>
            0 -1 22 -3.5172791685909033e-03</internalNodes>
          <leafValues>
            3.0054891109466553e-01 -8.1785365939140320e-02</leafValues></_>
        <_>
          <internalNodes>
            0 -1 156 2.0503941923379898e-03</internalNodes>
          <leafValues>
            5.0218772143125534e-02 -3.6052566766738892e-01</leafValues></_></weakClassifiers></_>
    <!-- stage 8 -->
    <_>
      <maxWeakCount>83</maxWeakCount>
      <stageThreshold>-1.0509607791900635e+00</stageThreshold>
      <weakClassifiers>
        <_>
          <internalNodes>
            0 -1 62 1.5350418398156762e-03</internalNodes>
          <leafValues>
            9.0502239763736725e-02 5.2952992916107178e-01</leafValues></_>
        <_>
          <internalNodes>
            0 -1 276 7.2735138237476349e-03</internalNodes>
          <leafValues>
            -2.5101029872894287e-01 2.1353740990161896e-01</leafValues></_>
        <_>
          <internalNodes>
            0 -1 825 1.1666333302855492e-02</internalNodes>
          <leafValues>
            -1.6250662505626678e-01 3.0881592631340027e-01</leafValues></_>
        <_>
          <internalNodes>
            0 -1 152 -1.4533529058098793e-02</internalNodes>
          <leafValues>
            -4.1520527005195618e-01 8.9692689478397369e-02</leafValues></_>
        <_>
          <internalNodes>
            0 -1 104 -1.7246948555111885e-03</internalNodes>
          <leafValues>
            -4.8834359645843506e-01 3.1279791146516800e-02</leafValues></_>
        <_>
          <internalNodes>
            0 -1 371 2.1254206076264381e-03</internalNodes>
          <leafValues>
            -1.5376317501068115e-01 2.5241869688034058e-01</leafValues></_>
        <_>
          <internalNodes>
            0 -1 767 1.5267999842762947e-03</internalNodes>
          <leafValues>
            -1.4994399249553680e-01 2.3738713562488556e-01</leafValues></_>
        <_>
          <internalNodes>
            0 -1 737 5.2838534116744995e-02</internalNodes>
          <leafValues>
            5.7013414800167084e-02 -5.3648245334625244e-01</leafValues></_>
        <_>
          <internalNodes>
            0 -1 88 5.9406585991382599e-02</internalNodes>
          <leafValues>
            6.7437998950481415e-02 -5.5862450599670410e-01</leafValues></_>
        <_>
          <internalNodes>
            0 -1 721 2.6385304518043995e-03</internalNodes>
          <leafValues>
            7.8118249773979187e-02 -3.3690211176872253e-01</leafValues></_>
        <_>
          <internalNodes>
            0 -1 285 2.3832316510379314e-03</internalNodes>
          <leafValues>
            -2.0995473861694336e-01 1.4318919181823730e-01</leafValues></_>
        <_>
          <internalNodes>
            0 -1 216 2.1410472691059113e-02</internalNodes>
          <leafValues>
            5.3934819996356964e-02 -4.8171341419219971e-01</leafValues></_>
        <_>
          <internalNodes>
            0 -1 772 4.6563498675823212e-02</internalNodes>
          <leafValues>
            -8.9790500700473785e-02 2.9868066310882568e-01</leafValues></_>
        <_>
          <internalNodes>
            0 -1 91 2.4962503463029861e-02</internalNodes>
          <leafValues>
            -1.7156341671943665e-01 1.8247920274734497e-01</leafValues></_>
        <_>
          <internalNodes>
            0 -1 884 2.1944353356957436e-03</internalNodes>
          <leafValues>
            -9.6106737852096558e-02 2.4707604944705963e-01</leafValues></_>
        <_>
          <internalNodes>
            0 -1 718 -1.3146325945854187e-03</internalNodes>
          <leafValues>
            2.8169262409210205e-01 -8.6213126778602600e-02</leafValues></_>
        <_>
          <internalNodes>
            0 -1 468 -1.9042145460844040e-02</internalNodes>
          <leafValues>
            -2.4238304793834686e-01 9.6276521682739258e-02</leafValues></_>
        <_>
          <internalNodes>
            0 -1 804 -7.0562749169766903e-04</internalNodes>
          <leafValues>
            2.0702160894870758e-01 -1.0994199663400650e-01</leafValues></_>
        <_>
          <internalNodes>
            0 -1 20 1.8695057369768620e-03</internalNodes>
          <leafValues>
            -9.4997085630893707e-02 2.3593562841415405e-01</leafValues></_>
        <_>
          <internalNodes>
            0 -1 759 4.2580924928188324e-03</internalNodes>
          <leafValues>
            4.1604600846767426e-02 -5.3941386938095093e-01</leafValues></_>
        <_>
          <internalNodes>
            0 -1 3 1.1894285678863525e-02</internalNodes>
          <leafValues>
            -5.4484337568283081e-02 4.3248975276947021e-01</leafValues></_>
        <_>
          <internalNodes>
            0 -1 173 6.1755564063787460e-02</internalNodes>
          <leafValues>
            -4.0988590568304062e-02 4.8030254244804382e-01</leafValues></_>
        <_>
          <internalNodes>
            0 -1 312 -1.8361182883381844e-03</internalNodes>
          <leafValues>
            2.5027677416801453e-01 -8.6205050349235535e-02</leafValues></_>
        <_>
          <internalNodes>
            0 -1 345 2.5972124189138412e-02</internalNodes>
          <leafValues>
            3.4011814743280411e-02 -6.9691377878189087e-01</leafValues></_>
        <_>
          <internalNodes>
            0 -1 259 5.5220657959580421e-03</internalNodes>
          <leafValues>
            -1.7832578718662262e-01 1.2454527616500854e-01</leafValues></_>
        <_>
          <internalNodes>
            0 -1 240 -8.8510066270828247e-03</internalNodes>
          <leafValues>
            3.4678363800048828e-01 -6.7235261201858521e-02</leafValues></_>
        <_>
          <internalNodes>
            0 -1 524 7.4676871299743652e-02</internalNodes>
          <leafValues>
            4.4632215052843094e-02 -5.1487100124359131e-01</leafValues></_>
        <_>
          <internalNodes>
            0 -1 338 2.4284496903419495e-02</internalNodes>
          <leafValues>
            4.5904520899057388e-02 -4.4697430729866028e-01</leafValues></_>
        <_>
          <internalNodes>
            0 -1 758 3.7453202530741692e-03</internalNodes>
          <leafValues>
            2.2730141878128052e-02 -7.6201367378234863e-01</leafValues></_>
        <_>
          <internalNodes>
            0 -1 514 8.4568616002798080e-03</internalNodes>
          <leafValues>
            2.5025473907589912e-02 -6.1764454841613770e-01</leafValues></_>
        <_>
          <internalNodes>
            0 -1 789 6.4325530547648668e-04</internalNodes>
          <leafValues>
            -9.2163808643817902e-02 2.0528404414653778e-01</leafValues></_>
        <_>
          <internalNodes>
            0 -1 696 3.6970288492739201e-03</internalNodes>
          <leafValues>
            2.7482468634843826e-02 -7.7498942613601685e-01</leafValues></_>
        <_>
          <internalNodes>
            0 -1 478 6.8464446812868118e-03</internalNodes>
          <leafValues>
            2.7774931862950325e-02 -6.0024756193161011e-01</leafValues></_>
        <_>
          <internalNodes>
            0 -1 297 1.4314174652099609e-02</internalNodes>
          <leafValues>
            -5.0002936273813248e-02 4.3492758274078369e-01</leafValues></_>
        <_>
          <internalNodes>
            0 -1 479 -2.8319857083261013e-03</internalNodes>
          <leafValues>
            -8.1952494382858276e-01 2.6197642087936401e-02</leafValues></_>
        <_>
          <internalNodes>
            0 -1 415 -2.5421583559364080e-03</internalNodes>
          <leafValues>
            2.1345850825309753e-01 -8.9913800358772278e-02</leafValues></_>
        <_>
          <internalNodes>
            0 -1 521 -1.8763600382953882e-03</internalNodes>
          <leafValues>
            1.5989512205123901e-01 -1.3861441612243652e-01</leafValues></_>
        <_>
          <internalNodes>
            0 -1 661 -1.7414508620277047e-03</internalNodes>
          <leafValues>
            1.8657404184341431e-01 -1.0976658016443253e-01</leafValues></_>
        <_>
          <internalNodes>
            0 -1 391 4.7965832054615021e-03</internalNodes>
          <leafValues>
            -7.5501173734664917e-02 2.7747604250907898e-01</leafValues></_>
        <_>
          <internalNodes>
            0 -1 435 -6.5944003872573376e-03</internalNodes>
          <leafValues>
            -7.7229589223861694e-01 3.1172119081020355e-02</leafValues></_>
        <_>
          <internalNodes>
            0 -1 301 8.2269683480262756e-03</internalNodes>
          <leafValues>
            2.4553239345550537e-02 -5.9101849794387817e-01</leafValues></_>
        <_>
          <internalNodes>
            0 -1 77 5.1110470667481422e-03</internalNodes>
          <leafValues>
            -7.3344625532627106e-02 2.6368623971939087e-01</leafValues></_>
        <_>
          <internalNodes>
            0 -1 306 6.4551568357273936e-04</internalNodes>
          <leafValues>
            -1.1432583630084991e-01 1.6570834815502167e-01</leafValues></_>
        <_>
          <internalNodes>
            0 -1 39 1.9687958061695099e-01</internalNodes>
          <leafValues>
            3.7638768553733826e-02 -5.2573186159133911e-01</leafValues></_>
        <_>
          <internalNodes>
            0 -1 455 2.5287439348176122e-04</internalNodes>
          <leafValues>
            -1.4958602190017700e-01 1.4235219359397888e-01</leafValues></_>
        <_>
          <internalNodes>
            0 -1 308 8.0604571849107742e-03</internalNodes>
          <leafValues>
            3.9620086550712585e-02 -5.1819562911987305e-01</leafValues></_>
        <_>
          <internalNodes>
            0 -1 349 -6.1405021697282791e-03</internalNodes>
          <leafValues>
            -7.1236979961395264e-01 2.4651423096656799e-02</leafValues></_>
        <_>
          <internalNodes>
            0 -1 253 -1.8189080059528351e-02</internalNodes>
          <leafValues>
            5.1342898607254028e-01 -4.8062134534120560e-02</leafValues></_>
        <_>
          <internalNodes>
            0 -1 557 2.8575314208865166e-03</internalNodes>
          <leafValues>
            -1.9885280728340149e-01 1.1230944097042084e-01</leafValues></_>
        <_>
          <internalNodes>
            0 -1 12 -4.1183363646268845e-03</internalNodes>
          <leafValues>
            2.5084066390991211e-01 -9.2821486294269562e-02</leafValues></_>
        <_>
          <internalNodes>
            0 -1 11 -2.6695267297327518e-03</internalNodes>
          <leafValues>
            1.9086486101150513e-01 -1.1351661384105682e-01</leafValues></_>
        <_>
          <internalNodes>
            0 -1 1 1.2875558808445930e-02</internalNodes>
          <leafValues>
            -7.6983094215393066e-02 2.5214812159538269e-01</leafValues></_>
        <_>
          <internalNodes>
            0 -1 44 1.5377867966890335e-02</internalNodes>
          <leafValues>
            4.0607009083032608e-02 -4.3895757198333740e-01</leafValues></_>
        <_>
          <internalNodes>
            0 -1 847 1.2223212048411369e-02</internalNodes>
          <leafValues>
            3.6383129656314850e-02 -4.8317000269889832e-01</leafValues></_>
        <_>
          <internalNodes>
            0 -1 858 7.0206669624894857e-04</internalNodes>
          <leafValues>
            -1.2256861478090286e-01 1.6635236144065857e-01</leafValues></_>
        <_>
          <internalNodes>
            0 -1 823 -5.9661120176315308e-03</internalNodes>
          <leafValues>
            2.0687146484851837e-01 -9.8937109112739563e-02</leafValues></_>
        <_>
          <internalNodes>
            0 -1 85 5.0781466998159885e-03</internalNodes>
          <leafValues>
            6.3311085104942322e-02 -3.0366650223731995e-01</leafValues></_>
        <_>
          <internalNodes>
            0 -1 645 6.9354975130409002e-04</internalNodes>
          <leafValues>
            6.2278181314468384e-02 -2.9010459780693054e-01</leafValues></_>
        <_>
          <internalNodes>
            0 -1 490 5.3730090148746967e-03</internalNodes>
          <leafValues>
            -8.3275198936462402e-02 2.4263307452201843e-01</leafValues></_>
        <_>
          <internalNodes>
            0 -1 316 -1.9073646515607834e-02</internalNodes>
          <leafValues>
            1.7798073589801788e-01 -1.0232301056385040e-01</leafValues></_>
        <_>
          <internalNodes>
            0 -1 434 6.8831996759399772e-04</internalNodes>
          <leafValues>
            -1.1645303666591644e-01 1.5285398066043854e-01</leafValues></_>
        <_>
          <internalNodes>
            0 -1 143 3.1691459007561207e-03</internalNodes>
          <leafValues>
            6.4446233212947845e-02 -2.8324046730995178e-01</leafValues></_>
        <_>
          <internalNodes>
            0 -1 364 4.2642667889595032e-02</internalNodes>
          <leafValues>
            1.6663653776049614e-02 -8.8258481025695801e-01</leafValues></_>
        <_>
          <internalNodes>
            0 -1 327 4.1858553886413574e-02</internalNodes>
          <leafValues>
            2.1591259166598320e-02 -6.2469381093978882e-01</leafValues></_>
        <_>
          <internalNodes>
            0 -1 408 -1.0164495324715972e-03</internalNodes>
          <leafValues>
            1.4529588818550110e-01 -1.2037774175405502e-01</leafValues></_>
        <_>
          <internalNodes>
            0 -1 169 -1.1456709355115891e-02</internalNodes>
          <leafValues>
            1.8297620117664337e-01 -9.5125809311866760e-02</leafValues></_>
        <_>
          <internalNodes>
            0 -1 350 -1.4328265096992254e-03</internalNodes>
          <leafValues>
            2.8567957878112793e-01 -8.3276450634002686e-02</leafValues></_>
        <_>
          <internalNodes>
            0 -1 226 3.4372056834399700e-03</internalNodes>
          <leafValues>
            -9.4109535217285156e-02 1.9761598110198975e-01</leafValues></_>
        <_>
          <internalNodes>
            0 -1 287 -8.4477494237944484e-04</internalNodes>
          <leafValues>
            1.5417854487895966e-01 -1.2746785581111908e-01</leafValues></_>
        <_>
          <internalNodes>
            0 -1 418 -4.6306718140840530e-02</internalNodes>
          <leafValues>
            -5.4505586624145508e-01 3.6363441497087479e-02</leafValues></_>
        <_>
          <internalNodes>
            0 -1 548 6.1140710022300482e-04</internalNodes>
          <leafValues>
            3.8809977471828461e-02 -4.0914782881736755e-01</leafValues></_>
        <_>
          <internalNodes>
            0 -1 239 3.0060485005378723e-03</internalNodes>
          <leafValues>
            -8.5463657975196838e-02 2.0492202043533325e-01</leafValues></_>
        <_>
          <internalNodes>
            0 -1 113 -2.0747070666402578e-03</internalNodes>
          <leafValues>
            1.4306522905826569e-01 -1.3348171114921570e-01</leafValues></_>
        <_>
          <internalNodes>
            0 -1 693 -1.3506291434168816e-03</internalNodes>
          <leafValues>
            -1.8264439702033997e-01 1.1772703379392624e-01</leafValues></_>
        <_>
          <internalNodes>
            0 -1 703 2.3459892719984055e-02</internalNodes>
          <leafValues>
            5.4878726601600647e-02 -3.9424675703048706e-01</leafValues></_>
        <_>
          <internalNodes>
            0 -1 831 4.2021162807941437e-03</internalNodes>
          <leafValues>
            -1.3922721147537231e-01 1.7211611568927765e-01</leafValues></_>
        <_>
          <internalNodes>
            0 -1 57 1.4390072226524353e-01</internalNodes>
          <leafValues>
            4.9586012959480286e-02 -3.9778053760528564e-01</leafValues></_>
        <_>
          <internalNodes>
            0 -1 107 3.2566348090767860e-03</internalNodes>
          <leafValues>
            -1.8059067428112030e-01 1.0679487138986588e-01</leafValues></_>
        <_>
          <internalNodes>
            0 -1 221 -7.1766143664717674e-03</internalNodes>
          <leafValues>
            2.6954311132431030e-01 -7.6635643839836121e-02</leafValues></_>
        <_>
          <internalNodes>
            0 -1 283 -1.6260355710983276e-02</internalNodes>
          <leafValues>
            -6.3136225938796997e-01 3.5605825483798981e-02</leafValues></_>
        <_>
          <internalNodes>
            0 -1 469 9.8850373178720474e-03</internalNodes>
          <leafValues>
            2.8407476842403412e-02 -5.0127696990966797e-01</leafValues></_>
        <_>
          <internalNodes>
            0 -1 805 6.3618086278438568e-04</internalNodes>
          <leafValues>
            -9.7677916288375854e-02 2.1341952681541443e-01</leafValues></_>
        <_>
          <internalNodes>
            0 -1 768 3.0002181883901358e-03</internalNodes>
          <leafValues>
            -8.7124280631542206e-02 2.7642998099327087e-01</leafValues></_></weakClassifiers></_>
    <!-- stage 9 -->
    <_>
      <maxWeakCount>84</maxWeakCount>
      <stageThreshold>-9.8234528303146362e-01</stageThreshold>
      <weakClassifiers>
        <_>
          <internalNodes>
            0 -1 603 2.2712606005370617e-03</internalNodes>
          <leafValues>
            1.1500797420740128e-01 5.4133218526840210e-01</leafValues></_>
        <_>
          <internalNodes>
            0 -1 324 2.4406280368566513e-02</internalNodes>
          <leafValues>
            -1.2734934687614441e-01 3.7660840153694153e-01</leafValues></_>
        <_>
          <internalNodes>
            0 -1 67 6.6385034006088972e-04</internalNodes>
          <leafValues>
            -2.1563462913036346e-01 1.9144162535667419e-01</leafValues></_>
        <_>
          <internalNodes>
            0 -1 504 -1.4053827617317438e-03</internalNodes>
          <leafValues>
            2.2379976511001587e-01 -2.0124664902687073e-01</leafValues></_>
        <_>
          <internalNodes>
            0 -1 110 -1.2403801083564758e-03</internalNodes>
          <leafValues>
            -5.0137668848037720e-01 1.0893828421831131e-01</leafValues></_>
        <_>
          <internalNodes>
            0 -1 859 3.5577217931859195e-04</internalNodes>
          <leafValues>
            -2.3661369085311890e-01 1.2510624527931213e-01</leafValues></_>
        <_>
          <internalNodes>
            0 -1 631 -1.4922290574759245e-03</internalNodes>
          <leafValues>
            1.3215231895446777e-01 -2.5712388753890991e-01</leafValues></_>
        <_>
          <internalNodes>
            0 -1 664 -8.8360887020826340e-03</internalNodes>
          <leafValues>
            3.6472496390342712e-01 -9.1517433524131775e-02</leafValues></_>
        <_>
          <internalNodes>
            0 -1 526 -4.1589323431253433e-02</internalNodes>
          <leafValues>
            -6.0833054780960083e-01 4.1973806917667389e-02</leafValues></_>
        <_>
          <internalNodes>
            0 -1 48 2.6311432011425495e-03</internalNodes>
          <leafValues>
            -1.0204999893903732e-01 2.7879866957664490e-01</leafValues></_>
        <_>
          <internalNodes>
            0 -1 162 -3.2480964437127113e-03</internalNodes>
          <leafValues>
            -3.1598734855651855e-01 9.5563605427742004e-02</leafValues></_>
        <_>
          <internalNodes>
            0 -1 33 -3.2210811041295528e-03</internalNodes>
          <leafValues>
            2.2604188323020935e-01 -1.2236413359642029e-01</leafValues></_>
        <_>
          <internalNodes>
            0 -1 728 9.2757208039984107e-04</internalNodes>
          <leafValues>
            8.6078040301799774e-02 -3.0923739075660706e-01</leafValues></_>
        <_>
          <internalNodes>
            0 -1 175 1.7932582646608353e-02</internalNodes>
          <leafValues>
            4.3941028416156769e-02 -5.2427124977111816e-01</leafValues></_>
        <_>
          <internalNodes>
            0 -1 530 -3.0230433912947774e-04</internalNodes>
          <leafValues>
            1.0793731361627579e-01 -2.0888644456863403e-01</leafValues></_>
        <_>
          <internalNodes>
            0 -1 158 2.3168962798081338e-04</internalNodes>
          <leafValues>
            1.3443702459335327e-01 -1.6795034706592560e-01</leafValues></_>
        <_>
          <internalNodes>
            0 -1 843 6.1405712040141225e-04</internalNodes>
          <leafValues>
            -1.5173450112342834e-01 1.6140222549438477e-01</leafValues></_>
        <_>
          <internalNodes>
            0 -1 539 -8.3972536958754063e-04</internalNodes>
          <leafValues>
            -5.0101351737976074e-01 5.7301178574562073e-02</leafValues></_>
        <_>
          <internalNodes>
            0 -1 298 2.9190662316977978e-03</internalNodes>
          <leafValues>
            -1.1077421158552170e-01 2.1537047624588013e-01</leafValues></_>
        <_>
          <internalNodes>
            0 -1 398 1.7036136705428362e-03</internalNodes>
          <leafValues>
            -7.5830757617950439e-02 2.9099822044372559e-01</leafValues></_>
        <_>
          <internalNodes>
            0 -1 454 1.9754616543650627e-02</internalNodes>
          <leafValues>
            -1.7981830239295959e-01 1.1555972695350647e-01</leafValues></_>
        <_>
          <internalNodes>
            0 -1 358 -9.1944006271660328e-04</internalNodes>
          <leafValues>
            2.9712235927581787e-01 -8.6951717734336853e-02</leafValues></_>
        <_>
          <internalNodes>
            0 -1 290 -3.0510440468788147e-02</internalNodes>
          <leafValues>
            -5.5021518468856812e-01 4.5357473194599152e-02</leafValues></_>
        <_>
          <internalNodes>
            0 -1 136 5.5911494418978691e-03</internalNodes>
          <leafValues>
            7.7653653919696808e-02 -2.8470829129219055e-01</leafValues></_>
        <_>
          <internalNodes>
            0 -1 356 -2.4714879691600800e-03</internalNodes>
          <leafValues>
            -5.4960548877716064e-01 3.5068776458501816e-02</leafValues></_>
        <_>
          <internalNodes>
            0 -1 181 -3.8439668715000153e-03</internalNodes>
          <leafValues>
            2.6833829283714294e-01 -7.8591883182525635e-02</leafValues></_>
        <_>
          <internalNodes>
            0 -1 222 -6.3417349010705948e-03</internalNodes>
          <leafValues>
            1.7686456441879272e-01 -1.1389645189046860e-01</leafValues></_>
        <_>
          <internalNodes>
            0 -1 481 -5.3927348926663399e-04</internalNodes>
          <leafValues>
            2.3721188306808472e-01 -9.9029876291751862e-02</leafValues></_>
        <_>
          <internalNodes>
            0 -1 131 -1.5058015473186970e-02</internalNodes>
          <leafValues>
            -2.3657761514186859e-01 9.0172059834003448e-02</leafValues></_>
        <_>
          <internalNodes>
            0 -1 616 -1.2169224210083485e-03</internalNodes>
          <leafValues>
            -3.8741809129714966e-01 5.4292321205139160e-02</leafValues></_>
        <_>
          <internalNodes>
            0 -1 872 2.1615019068121910e-03</internalNodes>
          <leafValues>
            -1.2759922444820404e-01 2.0352803170681000e-01</leafValues></_>
        <_>
          <internalNodes>
            0 -1 669 -2.6799144688993692e-04</internalNodes>
          <leafValues>
            1.4898550510406494e-01 -1.5515640377998352e-01</leafValues></_>
        <_>
          <internalNodes>
            0 -1 876 -9.2086065560579300e-03</internalNodes>
          <leafValues>
            2.3948295414447784e-01 -8.9373528957366943e-02</leafValues></_>
        <_>
          <internalNodes>
            0 -1 437 1.4914670027792454e-02</internalNodes>
          <leafValues>
            2.8613716363906860e-02 -6.9730246067047119e-01</leafValues></_>
        <_>
          <internalNodes>
            0 -1 536 2.6713323313742876e-04</internalNodes>
          <leafValues>
            -1.9032426178455353e-01 1.1610800772905350e-01</leafValues></_>
        <_>
          <internalNodes>
            0 -1 624 2.8382925665937364e-04</internalNodes>
          <leafValues>
            -1.4032275974750519e-01 1.4505846798419952e-01</leafValues></_>
        <_>
          <internalNodes>
            0 -1 614 3.3221733756363392e-03</internalNodes>
          <leafValues>
            3.2486476004123688e-02 -7.1441429853439331e-01</leafValues></_>
        <_>
          <internalNodes>
            0 -1 850 3.0635618604719639e-03</internalNodes>
          <leafValues>
            3.2403744757175446e-02 -5.6908553838729858e-01</leafValues></_>
        <_>
          <internalNodes>
            0 -1 670 -2.0447175484150648e-03</internalNodes>
          <leafValues>
            -4.3270295858383179e-01 4.4365685433149338e-02</leafValues></_>
        <_>
          <internalNodes>
            0 -1 396 5.1292865537106991e-03</internalNodes>
          <leafValues>
            -7.4801765382289886e-02 2.5119423866271973e-01</leafValues></_>
        <_>
          <internalNodes>
            0 -1 179 4.6249769628047943e-02</internalNodes>
          <leafValues>
            2.3148396983742714e-02 -8.3083391189575195e-01</leafValues></_>
        <_>
          <internalNodes>
            0 -1 215 5.8584846556186676e-03</internalNodes>
          <leafValues>
            -1.3529238104820251e-01 1.5003184974193573e-01</leafValues></_>
        <_>
          <internalNodes>
            0 -1 327 -4.3376237154006958e-03</internalNodes>
          <leafValues>
            -1.8932421505451202e-01 1.0059157758951187e-01</leafValues></_>
        <_>
          <internalNodes>
            0 -1 795 6.3899564556777477e-03</internalNodes>
          <leafValues>
            3.2145131379365921e-02 -5.2424550056457520e-01</leafValues></_>
        <_>
          <internalNodes>
            0 -1 112 -1.7745966033544391e-04</internalNodes>
          <leafValues>
            1.1176891624927521e-01 -1.5632724761962891e-01</leafValues></_>
        <_>
          <internalNodes>
            0 -1 650 -1.1389001738280058e-03</internalNodes>
          <leafValues>
            -1.9238747656345367e-01 9.8924592137336731e-02</leafValues></_>
        <_>
          <internalNodes>
            0 -1 740 -2.8461309149861336e-02</internalNodes>
          <leafValues>
            3.0043345689773560e-01 -5.7635504752397537e-02</leafValues></_>
        <_>
          <internalNodes>
            0 -1 355 6.0517456382513046e-02</internalNodes>
          <leafValues>
            4.9693122506141663e-02 -4.0099266171455383e-01</leafValues></_>
        <_>
          <internalNodes>
            0 -1 898 1.1753756552934647e-02</internalNodes>
          <leafValues>
            -6.3446059823036194e-02 2.9632994532585144e-01</leafValues></_>
        <_>
          <internalNodes>
            0 -1 178 -9.2325322329998016e-03</internalNodes>
          <leafValues>
            2.2844775021076202e-01 -8.2716830074787140e-02</leafValues></_>
        <_>
          <internalNodes>
            0 -1 781 -3.5327845253050327e-03</internalNodes>
          <leafValues>
            3.1185322999954224e-01 -5.7327710092067719e-02</leafValues></_>
        <_>
          <internalNodes>
            0 -1 611 -2.0179778337478638e-02</internalNodes>
          <leafValues>
            4.0301153063774109e-01 -4.8467658460140228e-02</leafValues></_>
        <_>
          <internalNodes>
            0 -1 635 4.8254560679197311e-03</internalNodes>
          <leafValues>
            4.0019899606704712e-02 -6.4140665531158447e-01</leafValues></_>
        <_>
          <internalNodes>
            0 -1 688 1.3965079560875893e-02</internalNodes>
          <leafValues>
            3.2767310738563538e-02 -5.0635010004043579e-01</leafValues></_>
        <_>
          <internalNodes>
            0 -1 122 -2.1394977811723948e-03</internalNodes>
          <leafValues>
            1.7340610921382904e-01 -1.1047285050153732e-01</leafValues></_>
        <_>
          <internalNodes>
            0 -1 553 2.3146890453062952e-04</internalNodes>
          <leafValues>
            -1.8748478591442108e-01 1.0600925236940384e-01</leafValues></_>
        <_>
          <internalNodes>
            0 -1 258 2.7202386409044266e-03</internalNodes>
          <leafValues>
            -1.4854255318641663e-01 1.2473490089178085e-01</leafValues></_>
        <_>
          <internalNodes>
            0 -1 465 4.7002979554235935e-03</internalNodes>
          <leafValues>
            -1.5027037262916565e-01 1.0958776623010635e-01</leafValues></_>
        <_>
          <internalNodes>
            0 -1 259 -1.6733217984437943e-02</internalNodes>
          <leafValues>
            5.2275377511978149e-01 -3.4789808094501495e-02</leafValues></_>
        <_>
          <internalNodes>
            0 -1 700 -9.7950203344225883e-03</internalNodes>
          <leafValues>
            -3.8532069325447083e-01 4.9846038222312927e-02</leafValues></_>
        <_>
          <internalNodes>
            0 -1 480 2.5642097461968660e-03</internalNodes>
          <leafValues>
            3.1679674983024597e-02 -5.5920606851577759e-01</leafValues></_>
        <_>
          <internalNodes>
            0 -1 126 -5.5763863027095795e-02</internalNodes>
          <leafValues>
